tree
version=v2
num_class=1
num_tree_per_iteration=1
label_index=0
max_feature_idx=192
objective=regression
feature_names=111 112 113 114 115 120 121 122 123 124 131 132 141 142 151 152 190 192 211 212 213 221 222 311 312 313 314 315 321 322 331 332 341 351 352 391 392 393 411 412 413 414 421 422 431 432 441 442 443 444 445 451 452 453 454 460 471 472 473 480 510 520 611 612 613 619 621 622 623 629 631 632 633 639 641 642 643 650 661 662 710 720 811 812 813 814 821 822 823 831 832 833 841 842 843 890 911 912 913 921 922 923 931 932 933 942 943 990 1011 1012 1013 1021 1022 1030 1040 1050 1090 1111 1112 1121 1122 1131 1141 1211 1212 1213 1214 1221 1222 1223 1230 1241 1242 1243 1290 1293 1310 1311 1312 1313 1330 1410 1419 1421 1422 1423 1510 1521 1522 1523 1524 1525 1530 1531 1532 1533 1534 1610 1619 1620 1640 1650 1661 1662 1670 1680 1690 1711 1712 1713 1721 1810 1820 1821 1822 1823 1824 1830 1840 1910 1920 2010 2020 2031 2032 2040 2050 2060 2071 2072 2074 2110 2190
feature_infos=[0:250] [0:1930] [0:1230] [0:2480] [0:300] [0:1800] [0:1400] [0:1350] [0:300] [0:2400] [0:1300] none none none [0:2300] none none none [0:2810] [0:660] none none [0:310] [0:570] none [0:1200] [0:1500] [0:1100] [0:400] none none none none none none none none none [0:510] [0:340] none none [0:1100] [0:500] [0:1500] [0:4250] [0:400] [0:600] [0:350] [0:800] none [0:2200] [0:650] [0:750] [0:250] [0:800] [0:600] [0:800] none [0:450] [0:600] [0:250] [0:900] [0:1500] none none [0:750] none [0:1000] none [0:580] none none [0:825] none [0:1710] [0:480] [0:900] [0:680] [0:1910] [0:400] [0:460] [0:4341] [0:200] [0:330] [0:300] [0:700] none [0:250] [0:800] none none none none none none [0:510] none [0:300] [0:400] none [0:400] none none none none none none [0:1500] none none none none [0:1000] none none none [0:750] [0:360] none [0:772] none none [0:1660] [0:640] none none [0:951] [0:850] none [0:1000] none none none none none none none none none none [0:2010] [0:1000] [0:375] [0:460] [0:400] none [0:920] [0:540] [0:450] [0:600] [0:3600] none none none none none none none none none none none none none none none [0:3288] none none [0:1450] none none none none none none none none none none none none [0:420] none [0:150] [0:410] none none none none none none
tree_sizes=1265 1314 1309 1293 1302 1299 1300 1302 1301 1307 1308 1324 1317 1307 1313 1303 1301 1302 1315 1305 1311 1311 1305 1302 1303 1312 1314 1309 1305 1311 1322 1321 1305 1324 1317 1326 1316 1303 1316 1323 1318 1317 1310 1306 1316 1305 1320 1319 1310 1315 1309 1306 1309 1293 1312 1308 1316 1336 1304 1325 1323 1315 1319 1309 1310 1313 1311 1310 1322 1323 1312 1301 1313 1308 1317 1304 1310 1310 1320 1307 1312 1327 1312 1309 1314 1307 1309 1320 1316 1300 1303 1309 1295 1303 1317 1314 1321 1326 1324 1320 1314 1308 1305 1315 1316 1316 1321 1308 1314 1327 1307 1300 1309 1302 1310 1313 1316 1305 1304 1313 1314 1305 1310 1325 1320 1307 1304 1322 1315 1321 1306 1322 1303 1307 1317 1314 1313 1318 1305 1307 1306 1314 1306 1317 1306 1309 1313 1310 1325 1317 1315 1311 1315 1321 1319 1307 1309 1308 1310 1302 1308 1306 1307 1307 1318 1316 1312 1309 1306 1317 1328 1310 1317 1319 1323 1307 1312 1316 1315 1316 1310 1309 1315 1309 1322 1317 1318 1316 1325 1317 1319 1330 1323 1325 1314 1317 1322 1308 1318 1328 1320 1316 1313 1310 1305 1326 1325 1303 1309 1304 1308 1310 1316 1326 1326 1307 1309 1315 1303 1316 1320 1318 1316 1309 1303 1307 1325 1325 1318 1317 1300 1309 1307 1304 1319 1303 1312 1301 1302 1301 1316 1305 1320 1308 1316 1314 1308 1319 1320 1315 1318 1318 1314 1315 1324 1308 1326 1311 1320 1319 1308 1304 1310 1315 1312 1324 1317 1323 1315 1329 1323 1319 1315 1318 1317 1319 1313 1322 1313 1319 1322 1315 1305 1312 1310 1321 1304 1312 1317 1307 1313 1311 1315 1312 1314 1329 1333 1326 1309 1311 1310 1334 1313 1316 1314 1322 1319 1309 1305 1310 1308 1320 1309 1313 1319 1310 1313 1316 1313 1311 1313 1322 1323 1312 1323 1314 1331 1327 1325 1312 1317 1323 1309 1323 1317 1316 1329 1315 1322 1324 1315 1315 1319 1318 1308 1326 1314 1329 1316 1315 1313 1312 1322 1329 1317 1310 1310 1310 1316 1318 1311 1315 1318 1317 1328 1317 1319 1313 1320 1325 1319 1316 1325 1321 1321 1316 1317 1304 1311 1316 1316 1325 1309 1324 1320 1327 1309 1317 1313 1310 1326 1327 1329 1323 1325 1337 1327 1324 1334 1325 1320 1315 1332 1318 1328 1329 1325 1316 1329 1327 1301 1313 1311 1310 1313 1317 1318 1306 1331 1315 1325 1335 1321 1328 1322 1313 1321 1313 1332 1312 1319 1320 1315 1317 1328 1334 1328 1320 1332 1330 1318 1314 1319 1325 1314 1319 1320 1315 1311 1325 1304 1312 1316 1323 1325 1314 1319 1312 1314 1321 1315 1312 1318 1319 1315 1330 1314 1306 1317 1338 1316 1324 1326 1317 1320 1314 1331 1319 1317 1331 1317 1326 1318 1307 1348 1329 1314 1331 1307 1325 1322 1313 1310 1311 1325 1316 1314 1315 1316 1309

Tree=0
num_leaves=16
num_cat=0
split_feature=54 1 117 56 2 43 86 47 142 99 82 1 81 3 14
split_gain=6763.84 3635.66 4025.96 2328.78 2660.35 1689.96 2116.17 1894.98 1756.62 2347.86 1481.51 2088.16 1850.46 1829.66 1595.5
threshold=22.500000000000004 135.00000000000003 132.50000000000003 55.000000000000007 365.00000000000006 125.00000000000001 105.00000000000001 13.000000000000002 55.000000000000007 1.0000000180025095e-35 56.500000000000007 22.500000000000004 51.000000000000007 77.500000000000014 77.500000000000014
decision_type=2 2 2 2 2 2 2 2 2 2 2 2 2 2 2
left_child=1 3 -3 4 5 6 7 8 9 10 13 12 -12 -1 -15
right_child=-2 2 -4 -5 -6 -7 -8 -9 -10 -11 11 -13 -14 14 -16
leaf_value=84.857369667685973 83.868184814850565 84.573358414155052 83.911704314478072 84.210935028377662 84.313147316045857 85.026085861049054 84.204869011704929 85.194045095763556 84.339141060992532 84.292361683767993 84.910212699034588 84.468177703890504 84.408966992072223 84.398751377317964 84.7906824814864
leaf_count=62 30 71 34 26 43 42 21 20 32 30 232 37 20 82 38
internal_value=0 0.400954 -5.07839 1.24085 1.60709 2.13794 1.6899 2.06407 1.70548 2.16429 2.71064 4.11807 5.14806 0.475753 -1.8033
internal_count=820 790 105 685 659 616 574 553 533 501 471 289 252 182 120
shrinkage=1


Tree=1
num_leaves=16
num_cat=0
split_feature=54 1 117 147 59 170 2 63 81 82 10 108 44 124 3
split_gain=6104.37 3281.18 3633.43 2265.86 2181.22 2464.84 2527.49 2159.5 2597.64 2197.02 2037.19 1927.68 1609.25 1530.78 1608.49
threshold=22.500000000000004 135.00000000000003 132.50000000000003 1.0000000180025095e-35 1.0000000180025095e-35 75.000000000000014 365.00000000000006 242.50000000000003 1.0000000180025095e-35 82.500000000000014 32.500000000000007 175.00000000000003 142.50000000000003 1.0000000180025095e-35 84.000000000000014
decision_type=2 2 2 2 2 2 2 2 2 2 2 2 2 2 2
left_child=1 3 -3 4 5 6 7 8 9 10 11 13 -10 14 -1
right_child=-2 2 -4 -5 -6 -7 -8 -9 12 -11 -12 -13 -14 -15 -16
leaf_value=0.2424548976123333 -0.7076011486848196 -0.037686223631173799 -0.66625762268462607 -0.38155881560274535 -0.42365390729336511 0.43495610271181379 -0.38122782073294126 -0.33017745716818453 -0.34844361563523613 0.25148028502118186 0.35483645514438028 0.37733531756834554 0.1197244153388085 -0.53113310962915417 -0.18012579938298778
leaf_count=32 30 71 34 28 21 49 30 29 45 264 38 22 31 20 76
internal_value=0 0.380906 -4.82447 1.17881 1.55427 1.88537 1.31659 1.79816 2.25961 3.16913 0.556542 -1.10031 -3.14961 -2.58651 -1.09833
internal_count=820 790 105 685 657 636 587 557 528 452 188 150 76 128 108
shrinkage=0.05


Tree=2
num_leaves=16
num_cat=0
split_feature=54 59 3 63 186 3 82 18 25 44 151 86 117 53 14
split_gain=5509.19 2840.85 2370.47 3114.87 2498.86 2440.11 3353.7 2883.18 2418.03 2148.17 1768.94 1789.26 1360.16 1294.03 1192.51
threshold=22.500000000000004 14.000000000000002 55.000000000000007 242.50000000000003 12.000000000000002 462.50000000000006 86.500000000000014 72.500000000000014 22.500000000000004 285.00000000000006 155.00000000000003 25.000000000000004 52.500000000000007 72.500000000000014 27.500000000000004
decision_type=2 2 2 2 2 2 2 2 2 2 2 2 2 2 2
left_child=1 2 9 4 5 6 7 8 -4 10 11 -1 -6 -7 -8
right_child=-2 -3 3 -5 12 13 14 -9 -10 -11 -12 -13 -14 -15 -16
leaf_value=0.097839901996197687 -0.67222106357415523 -0.54211580292745076 -0.34007769817192307 -0.49843239784240723 0.0011136713462906915 0.25876226103619526 0.078675196361541744 -0.072921010622611415 -0.99875566309148622 0.50430573530887302 0.49366542518138889 -0.40108851253986355 0.39178510632898128 -0.079552959601084397 -0.30612402856349946
leaf_count=177 30 22 38 33 37 76 125 52 22 38 25 20 56 45 24
internal_value=0 0.361861 0.682814 -0.574059 0.0786178 -1.05309 -2.77395 -6.90848 -11.6319 3.13855 1.94933 0.943745 4.72713 2.65885 0.333882
internal_count=820 790 768 508 475 382 261 112 60 260 222 197 93 121 149
shrinkage=0.05


Tree=3
num_leaves=16
num_cat=0
split_feature=54 1 117 56 2 86 18 142 99 82 62 10 53 18 44
split_gain=4972.05 2885.51 3225.01 2010.2 2133 1493.13 2544.25 1568.56 2072.98 1919.32 2070.31 2053.38 1531.76 1314.79 1116.55
threshold=22.500000000000004 135.00000000000003 132.50000000000003 55.000000000000007 365.00000000000006 25.000000000000004 45.000000000000007 55.000000000000007 32.500000000000007 82.500000000000014 217.00000000000003 32.500000000000007 75.500000000000014 122.50000000000001 77.500000000000014
decision_type=2 2 2 2 2 2 2 2 2 2 2 2 2 2 2
left_child=1 3 13 4 5 7 -7 8 9 10 11 12 14 -3 -1
right_child=-2 2 -4 -5 -6 6 -8 -9 -10 -11 -12 -13 -14 -15 -16
leaf_value=0.04802747711298927 -0.63861003955205287 -0.18888059017506054 -0.62731777973034808 -0.37662082543739905 -0.26885601524696795 -0.37294624050458275 0.20426764522280011 -0.19402613488750325 -0.3160815000534058 0.25690292054616709 0.43179176699730659 0.31411608747745817 0.1742622070215844 0.26597470284129182 -0.31241769037076406
leaf_count=31 30 47 34 26 43 42 35 36 23 273 31 38 37 24 70
internal_value=0 0.343768 -4.53768 1.09202 1.43228 1.90762 -2.21153 2.49607 2.95244 3.39682 1.10041 -0.226849 -2.01923 -0.702534 -4.03572
internal_count=820 790 105 685 659 616 77 539 503 480 207 176 138 71 101
shrinkage=0.05


Tree=4
num_leaves=16
num_cat=0
split_feature=54 1 117 147 141 27 86 18 47 170 2 27 44 44 18
split_gain=4508.68 2651.05 2910.58 2270.73 1770.24 2119.76 1231.83 2088.76 1601.58 1373.74 2060.97 1380.83 1503.02 1739.72 1186.6
threshold=12.500000000000002 135.00000000000003 132.50000000000003 1.0000000180025095e-35 145.00000000000003 167.50000000000003 35.000000000000007 45.000000000000007 1.0000000180025095e-35 75.000000000000014 390.00000000000006 104.00000000000001 532.50000000000011 252.50000000000003 122.50000000000001
decision_type=2 2 2 2 2 2 2 2 2 2 2 2 2 2 2
left_child=1 3 14 4 5 6 8 -8 9 10 11 12 13 -1 -3
right_child=-2 2 -4 -5 -6 -7 7 -9 -10 -11 -12 -13 -14 -15 -16
leaf_value=0.029017782816811218 -0.56171416725431178 -0.1794365629870841 -0.59595187481711898 -0.39493862685092074 0.37202817844631886 -0.40051255893707283 -0.37164494716204133 0.16884920994440716 0.53558476686477663 0.38096484307731904 -0.42787457023348124 0.46525055711919611 -0.35339055288405646 0.29554125533292169 0.25267597734928132
leaf_count=315 35 47 34 27 46 25 39 33 20 35 21 22 21 76 24
internal_value=0 0.365847 -4.31079 1.08798 1.45956 1.0063 1.39361 -2.47837 1.94024 1.58222 1.11783 1.58599 1.17381 1.61646 -0.667407
internal_count=820 785 105 680 653 607 582 72 510 490 455 434 412 391 71
shrinkage=0.05


Tree=5
num_leaves=16
num_cat=0
split_feature=54 81 42 62 2 141 2 25 25 26 3 3 117 117 44
split_gain=4975.96 2441.53 2178.8 2163.48 1733.76 1634.12 2247.25 2247.47 2028.31 2198.89 1997.33 1919.79 1488.13 1162.17 937.257
threshold=22.500000000000004 1.0000000180025095e-35 145.00000000000003 166.50000000000003 37.500000000000007 145.00000000000003 390.00000000000006 45.000000000000007 85.000000000000014 223.50000000000003 187.50000000000003 445.00000000000006 52.500000000000007 212.50000000000003 102.50000000000001
decision_type=2 2 2 2 2 2 2 2 2 2 2 2 2 2 2
left_child=1 5 3 4 12 6 7 13 -9 10 14 -12 -3 -1 -10
right_child=-2 2 -4 -5 -6 -7 -8 8 9 -11 11 -13 -14 -15 -16
leaf_value=0.17179221000007305 -0.65577563941478734 -0.36095544316551909 0.26436941732059827 0.043468692989060378 -0.10467876934486886 0.3233167018051501 -0.36494302532889628 -0.42418837592457281 0.076631128895492784 -0.38851059482943628 -0.3764465391635895 0.11480856206874515 -0.95687745537608859 -0.11452593743801116 0.39965702309164897
leaf_count=311 28 22 22 33 23 54 33 33 47 31 37 43 20 40 43
internal_value=0 0.448986 -3.70593 -5.72484 -9.07267 1.19094 0.729979 1.18289 -1.21768 -0.024743 1.38767 -2.24794 -12.8946 2.78327 4.61931
internal_count=820 792 120 98 65 672 618 585 234 201 170 80 42 351 90
shrinkage=0.05


Tree=6
num_leaves=16
num_cat=0
split_feature=54 1 117 86 56 81 45 82 44 81 45 18 96 117 117
split_gain=4490.8 2583.15 2906.99 2381.71 1859.01 1538.42 1679.83 1456.35 1366.29 1578.62 1455.24 1176.79 1360.17 1327.23 2110.37
threshold=22.500000000000004 73.500000000000014 132.50000000000003 105.00000000000001 55.000000000000007 12.500000000000002 92.500000000000014 97.500000000000014 55.000000000000007 37.500000000000007 35.000000000000007 72.500000000000014 35.000000000000007 22.500000000000004 142.50000000000003
decision_type=2 2 2 2 2 2 2 2 2 2 2 2 2 2 2
left_child=1 3 5 4 8 6 -3 -4 9 11 -10 12 13 -1 -15
right_child=-2 2 7 -5 -6 -7 -8 -9 10 -11 -12 -13 -14 14 -16
leaf_value=0.093794932663440703 -0.62298689995493206 0.19743891127073943 -0.81936248362064357 -0.43115788801856669 -0.32625357508659364 -0.42106805642445883 -0.22230230698714384 -0.23597349187602168 0.058387132902528831 -0.36230762815475465 0.26587881249340017 0.21845431073593932 0.2246197141314808 -0.5524464273825288 0.05401313408063009
leaf_count=40 28 67 20 23 26 21 37 23 157 25 183 74 38 32 26
internal_value=0 0.426537 -3.05403 1.36361 1.7458 -0.614273 0.962158 -10.1463 2.11979 0.265645 3.40133 1.15991 -0.586264 -2.55554 -5.6117
internal_count=820 792 168 624 601 125 104 43 575 235 340 210 136 98 58
shrinkage=0.05


Tree=7
num_leaves=16
num_cat=0
split_feature=54 1 117 86 56 3 47 99 82 9 142 2 127 118 82
split_gain=4052.95 2331.29 2623.56 2149.49 1677.76 1455.32 1341.55 1554.76 1314.36 1155.3 1108.25 1610.82 963.004 902.711 1076.23
threshold=22.500000000000004 73.500000000000014 132.50000000000003 105.00000000000001 55.000000000000007 253.00000000000003 1.0000000180025095e-35 1.0000000180025095e-35 97.500000000000014 255.00000000000003 55.000000000000007 390.00000000000006 17.500000000000004 27.500000000000004 52.500000000000007
decision_type=2 2 2 2 2 2 2 2 2 2 2 2 2 2 2
left_child=1 3 5 4 6 9 7 10 -4 -3 11 12 13 14 -1
right_child=-2 2 8 -5 -6 -7 -8 -9 -10 -11 -12 -13 -14 -15 -16
leaf_value=0.029275664495493195 -0.59183752792222166 -0.083015833020210261 -0.77839437097311026 -0.40959998213726545 -0.30994089979391837 -0.30275595290320262 0.46663008332252504 -0.29266408406771144 -0.22417481412058293 0.27750006701797247 -0.15662322326710351 -0.2376451878712095 0.34287213042378428 -0.15402787679008076 0.20491580010592184
leaf_count=138 28 50 20 23 26 35 24 26 23 40 38 29 55 28 237
internal_value=0 0.40521 -2.90133 1.29543 1.65851 -0.58356 2.0138 1.69501 -9.63903 1.54427 2.06883 2.47468 2.93233 2.39664 2.8056
internal_count=820 792 168 624 601 125 575 551 43 90 525 487 458 403 375
shrinkage=0.05


Tree=8
num_leaves=16
num_cat=0
split_feature=54 68 3 60 2 62 55 117 44 52 3 82 82 108 44
split_gain=3657.79 2308.4 2820.96 2569.82 1947.64 1861.65 1899.46 2373.62 1917.27 1835.07 2020.4 1531 1520.4 1670.08 2490.37
threshold=22.500000000000004 1.0000000180025095e-35 115.00000000000001 177.50000000000003 390.00000000000006 205.00000000000003 82.500000000000014 301.00000000000006 252.50000000000003 55.000000000000007 104.00000000000001 52.500000000000007 102.50000000000001 1.0000000180025095e-35 45.000000000000007
decision_type=2 2 2 2 2 2 2 2 2 2 2 2 2 2 2
left_child=1 3 -3 4 5 6 7 8 9 11 -11 -1 -13 14 -14
right_child=-2 2 -4 -5 -6 -7 -8 -9 -10 10 -12 12 13 -15 -16
leaf_value=-0.093843470430374151 -0.56224569593157081 -0.77114855706691743 0.02554189646244049 -0.45818045997619627 -0.29095578217192702 0.28475412659106719 0.36817041443926946 -0.51539367131888869 0.2133726443667881 0.08461384790785173 -0.40920875623541059 0.36807364034652712 -0.29805529924000013 0.38771150769858531 0.16870010886341336
leaf_count=125 28 20 25 25 38 93 42 20 122 34 53 50 51 29 65
internal_value=0 0.38495 -6.57085 0.803974 1.14911 1.53624 0.881798 0.385937 0.79024 -0.25207 -4.32441 0.855098 2.60636 0.966665 -0.730226
internal_count=820 792 45 747 722 684 591 549 529 407 87 320 195 145 116
shrinkage=0.05


Tree=9
num_leaves=16
num_cat=0
split_feature=54 66 39 113 1 47 81 123 46 82 77 62 10 18 82
split_gain=3301.15 2107.53 2064.91 1212.78 1289.22 1792.72 1453.91 1350.81 1335.05 1312.03 2053.54 1893.31 1641.35 1596.86 3580.49
threshold=22.500000000000004 115.00000000000001 42.500000000000007 105.00000000000001 245.00000000000003 1.0000000180025095e-35 12.500000000000002 22.500000000000004 35.000000000000007 82.500000000000014 145.00000000000003 285.00000000000006 77.500000000000014 72.500000000000014 27.500000000000004
decision_type=2 2 2 2 2 2 2 2 2 2 2 2 2 2 2
left_child=1 2 3 4 5 6 8 -8 9 11 -11 12 13 14 -1
right_child=-2 -3 -4 -5 -6 -7 7 -9 -10 10 -12 -13 -14 -15 -16
leaf_value=-0.015473626405000688 -0.53413336447307047 -0.4158683290084203 -0.30721870830193876 0.33629777472880157 -0.22983416290510272 0.41503721457539183 -0.012732377141080005 -0.46188330283531781 -0.25906582723061244 0.19526312151428468 -0.25482583429132188 0.4292715289375999 0.2387928549502347 0.0081852657974443646 -0.76066359910700054
leaf_count=40 28 27 42 36 42 33 47 26 30 267 28 22 37 88 27
internal_value=0 0.365702 0.672163 1.06814 0.771666 1.12123 0.734102 -3.45408 1.30133 1.68341 3.05086 -0.201612 -1.20846 -2.63698 -6.31548
internal_count=820 792 765 723 687 645 612 73 539 509 295 214 192 155 67
shrinkage=0.05


Tree=10
num_leaves=16
num_cat=0
split_feature=89 54 66 43 27 3 117 27 123 39 43 82 1 44 186
split_gain=3753.64 2939.96 3342.63 1533.65 1988.15 3442.16 4330.49 1971.38 1426.93 1636.45 1367.84 1376.08 1381.72 2203.66 1752.4
threshold=55.000000000000007 22.500000000000004 1.0000000180025095e-35 105.00000000000001 1.0000000180025095e-35 104.00000000000001 92.500000000000014 72.500000000000014 102.50000000000001 42.500000000000007 45.000000000000007 27.500000000000004 19.500000000000004 335.00000000000006 18.500000000000004
decision_type=2 2 2 2 2 2 2 2 2 2 2 2 2 2 2
left_child=1 2 3 4 8 7 -7 -6 9 10 11 -1 13 -13 -14
right_child=-2 -3 -4 -5 5 6 -8 -9 -10 -11 -12 12 14 -15 -16
leaf_value=0.24003814551979305 -0.54802933782339103 -0.54051684141159062 -0.49581237395604455 0.2941277547340308 -0.18832011276057789 -0.79440140296869421 -0.043090292540463537 0.26147706611403104 0.28231093414127828 -0.39158454622541156 -0.28996078297495842 0.169925054958498 -0.31470355815612355 -0.25147286751552633 0.23602324306964872
leaf_count=104 32 24 30 56 42 34 44 58 70 21 26 169 52 38 20
internal_value=0 0.0877083 0.430055 0.852929 0.437502 -2.43252 -7.4117 1.45125 1.45923 0.777626 1.21967 1.69615 0.538871 1.85134 -3.23448
internal_count=820 788 764 734 678 178 78 100 500 430 409 383 279 207 72
shrinkage=0.05


Tree=11
num_leaves=16
num_cat=0
split_feature=89 83 54 68 43 3 27 3 117 3 14 26 61 117 108
split_gain=3387.66 2695.8 4554.42 2030.03 1471.56 1747.34 2599.87 2478.34 2638.04 2276.35 2714.77 2021.57 1717.08 1324.6 1308.46
threshold=55.000000000000007 1.0000000180025095e-35 22.500000000000004 1.0000000180025095e-35 105.00000000000001 55.000000000000007 1.0000000180025095e-35 187.50000000000003 112.50000000000001 432.50000000000006 135.00000000000003 1.0000000180025095e-35 1.0000000180025095e-35 132.50000000000003 175.00000000000003
decision_type=2 2 2 2 2 2 2 2 2 2 2 2 2 2 2
left_child=1 2 3 4 5 12 9 -8 -9 10 11 13 -1 14 -7
right_child=-2 -3 -4 -5 -6 6 7 8 -10 -11 -12 -13 -14 -15 -16
leaf_value=0.16547477388470044 -0.52062787711620329 0.46116796616585032 -0.74060104915073943 -0.3402160219848156 0.27930890420135462 0.069284344953765356 0.075374374718501655 -0.81507977654536568 -0.13383131115524857 0.17681939588078568 -0.56191200812657671 -0.33592329178005459 -0.25894826650619507 -0.20724064373608792 0.51980509191751478
leaf_count=203 32 31 21 40 53 83 29 30 27 124 27 40 27 33 20
internal_value=0 0.0833229 -0.290972 0.123352 0.521494 0.104031 -1.12616 -6.0186 -9.84766 0.160539 -1.90156 -0.469224 2.31302 1.36879 3.13528
internal_count=820 788 757 736 696 643 413 86 57 327 203 176 230 136 103
shrinkage=0.05


Tree=12
num_leaves=16
num_cat=0
split_feature=0 68 60 60 38 66 52 82 81 82 51 55 27 3 51
split_gain=3062.6 3203.86 1576.13 1780.9 1478.68 1433.13 1485.81 1459.47 1396.19 3178.03 1542.6 1378.78 1953.97 1625.29 1424.16
threshold=55.000000000000007 1.0000000180025095e-35 177.50000000000003 85.000000000000014 105.00000000000001 1.0000000180025095e-35 225.00000000000003 445.00000000000006 1.0000000180025095e-35 97.500000000000014 422.50000000000006 45.000000000000007 27.500000000000004 84.000000000000014 97.500000000000014
decision_type=2 2 2 2 2 2 2 2 2 2 2 2 2 2 2
left_child=1 2 3 4 5 6 7 8 10 -10 11 12 -1 -14 -15
right_child=-2 -3 -4 -5 -6 -7 -8 -9 9 -11 -12 -13 13 14 -16
leaf_value=0.030345503870095759 -0.61153283076626919 -0.41964925860249719 -0.33742513409976305 0.31753628636306191 0.24320865221321586 -0.42391782626509666 -0.36308060288429261 0.36285018920898438 0.21820407112439477 -0.52882110711187125 0.26767883398472314 0.29854154450552806 0.012482423271451678 -0.71871812032616667 -0.16812812834978105
leaf_count=296 21 43 29 53 65 20 26 30 24 35 61 35 35 23 24
internal_value=0 0.00335109 0.48092 0.769302 0.330407 -0.153493 0.129185 0.470501 0.088521 -4.49893 0.659533 -0.0337765 -0.589759 -4.90944 -8.75132
internal_count=820 799 756 727 674 609 589 563 533 59 474 413 378 82 47
shrinkage=0.05


Tree=13
num_leaves=16
num_cat=0
split_feature=89 54 66 141 27 3 51 27 141 117 39 63 82 10 1
split_gain=2994.87 2403.39 2724 1318.21 1394.11 2222.17 3977.4 2213.84 1949.37 1833.31 1585.22 1055.23 1163.79 2243.11 1205.57
threshold=55.000000000000007 22.500000000000004 1.0000000180025095e-35 145.00000000000003 12.500000000000002 104.00000000000001 97.500000000000014 72.500000000000014 1.0000000180025095e-35 101.50000000000001 65.000000000000014 242.50000000000003 75.500000000000014 55.000000000000007 22.500000000000004
decision_type=2 2 2 2 2 2 2 2 2 2 2 2 2 2 2
left_child=1 2 3 4 8 7 -7 -6 10 -8 11 12 13 -1 -14
right_child=-2 -3 -4 -5 5 6 9 -9 -10 -11 -12 -13 14 -15 -16
leaf_value=-0.062501381363877104 -0.48889949768781665 -0.48814132610956834 -0.44698738316694897 0.25969504526545928 -0.234734629251455 -0.77722831709044327 -0.33496022155651684 0.25795782699919584 -0.33632025451495728 0.25880765731518091 -0.34940065860748293 -0.19163061614547458 0.26065979046071625 0.36561152677123365 -0.0028472122654580236
leaf_count=142 32 24 30 62 38 28 26 57 29 26 20 28 182 39 57
internal_value=0 0.090657 0.400191 0.781932 0.374875 -2.05242 -5.93559 1.21762 1.22956 -0.761526 1.72255 2.11142 2.50769 0.594879 3.9563
internal_count=820 788 764 734 672 175 80 95 497 52 468 448 420 181 239
shrinkage=0.05


Tree=14
num_leaves=16
num_cat=0
split_feature=89 186 45 66 148 82 27 53 27 44 2 49 62 51 120
split_gain=2702.87 2299.81 6220.1 2025.42 1582.35 1437.9 2541.96 2513.82 2671.59 1723.57 1293.53 1431.39 1178.59 1910.86 1493.61
threshold=55.000000000000007 92.500000000000014 35.000000000000007 1.0000000180025095e-35 125.00000000000001 152.50000000000003 1.0000000180025095e-35 27.500000000000004 82.500000000000014 335.00000000000006 155.00000000000003 45.000000000000007 107.50000000000001 432.50000000000006 1.0000000180025095e-35
decision_type=2 2 2 2 2 2 2 2 2 2 2 2 2 2 2
left_child=1 3 -3 4 5 6 12 8 -8 10 11 -7 13 14 -1
right_child=-2 2 -4 -5 -6 9 7 -9 -10 -11 -12 -13 -14 -15 -16
leaf_value=-0.11029752453394009 -0.46445451937615873 -0.8744468874931336 0.27830596786331047 -0.3766131760676702 0.46023020581765617 0.02699682926403657 -0.92186738309406102 0.027622558853842995 -0.19608149491250515 -0.20888200461426201 0.36109904197546155 0.42084912231990268 0.20638263553380964 0.37593315456594745 0.27985197082161906
leaf_count=198 32 25 22 30 22 131 21 44 32 34 65 28 80 28 28
internal_value=0 0.0861242 -6.69721 0.516376 0.855981 0.589407 -0.528294 -5.03473 -9.67314 2.45657 3.46355 1.92709 0.78046 -0.273774 -1.23921
internal_count=820 788 47 741 711 689 431 97 53 258 224 159 334 254 226
shrinkage=0.05


Tree=15
num_leaves=16
num_cat=0
split_feature=1 117 56 48 18 66 151 170 99 63 70 10 2 45 3
split_gain=2680.07 1707.08 1514.57 1564.57 1366.32 1340.97 1147.07 1307.53 1197.04 1278.27 1293.75 837.297 1235.64 1182.11 1065.11
threshold=135.00000000000003 142.50000000000003 55.000000000000007 65.000000000000014 122.50000000000001 1.0000000180025095e-35 415.00000000000006 1.0000000180025095e-35 1.0000000180025095e-35 242.50000000000003 90.000000000000014 55.000000000000007 390.00000000000006 65.000000000000014 325.00000000000006
decision_type=2 2 2 2 2 2 2 2 2 2 2 2 2 2 2
left_child=2 4 3 5 -2 6 7 8 9 10 11 12 14 -13 -1
right_child=1 -3 -4 -5 -6 -7 -8 -9 -10 -11 -12 13 -14 -15 -16
leaf_value=0.12748260200567491 -0.23218268342316151 -0.49501600776399884 -0.2832247699460676 0.36604932851569599 0.21242273615466223 -0.33847883372079757 -0.21014111923319956 0.38085115330559871 -0.22629539316350764 -0.27988363219344098 0.48546318922724041 0.030222829920904977 -0.31764885414214361 0.43297135449553797 -0.06316302871704102
leaf_count=274 48 35 31 43 27 21 35 35 33 23 21 35 21 38 100
internal_value=0 -4.13362 1.171 1.48308 -1.44249 1.08838 1.3567 1.69219 1.31169 1.68795 2.03062 1.68607 1.11105 4.79745 1.53016
internal_count=820 110 710 679 75 636 615 580 545 512 489 468 395 73 374
shrinkage=0.05


Tree=16
num_leaves=16
num_cat=0
split_feature=1 46 56 82 117 82 48 52 42 141 27 117 183 82 81
split_gain=2418.76 1939.71 1750.05 1699.59 3609.57 1953.59 1395.74 1196.72 1429.9 1388.78 1300.65 1060.78 1015.78 1178.7 1740.39
threshold=135.00000000000003 85.000000000000014 55.000000000000007 165.00000000000003 142.50000000000003 86.500000000000014 65.000000000000014 105.00000000000001 47.500000000000007 25.000000000000004 155.00000000000003 97.500000000000014 5.5000000000000009 82.500000000000014 37.500000000000007
decision_type=2 2 2 2 2 2 2 2 2 2 2 2 2 2 2
left_child=1 2 6 4 5 -2 7 9 -9 10 12 -11 13 -1 -15
right_child=3 -3 -4 -5 -6 -7 -8 8 -10 11 -12 -13 -14 14 -16
leaf_value=-0.069873663261532784 0.16418658001669523 0.41855654120445251 -0.34317640949939859 0.079714503964862307 -0.87158462313765828 -0.4606434220617468 0.33618203183499779 -0.024693363431900268 -0.50995604231953617 0.090118839190556466 -0.34478489377281885 0.47529521160053484 0.35868553221225741 0.15274859277838934 -0.27418040180647812
leaf_count=170 29 35 29 37 22 22 41 63 20 39 22 33 25 206 27
internal_value=0 1.11245 0.736077 -3.92694 -6.72537 -2.10696 1.07724 0.694587 -2.83248 1.2554 0.602964 5.33316 0.988409 0.604706 2.06552
internal_count=820 710 675 110 73 51 646 605 83 522 450 72 428 403 233
shrinkage=0.05


Tree=17
num_leaves=16
num_cat=0
split_feature=1 46 56 82 117 82 70 43 52 141 186 27 46 99 38
split_gain=2182.94 1750.59 1579.42 1533.88 3257.64 1763.12 1395.71 1149.2 1230.93 1271.09 2032.44 1224.53 1274.27 1113.17 1635.67
threshold=135.00000000000003 85.000000000000014 55.000000000000007 165.00000000000003 142.50000000000003 86.500000000000014 90.000000000000014 105.00000000000001 105.00000000000001 25.000000000000004 6.0000000000000009 155.00000000000003 1.0000000180025095e-35 32.500000000000007 42.500000000000007
decision_type=2 2 2 2 2 2 2 2 2 2 2 2 2 2 2
left_child=1 2 6 4 5 -2 7 8 9 11 -11 12 13 14 -1
right_child=3 -3 -4 -5 -6 -7 -8 -9 -10 10 -12 -13 -14 -15 -16
leaf_value=0.028151315123222439 0.15597725078977387 0.39762871537889755 -0.32601759598172947 0.075728773265271582 -0.8280054160139777 -0.4376112545078451 0.37309859264642004 0.29351630896329878 -0.17253176605701448 0.42207417481889326 -0.17785122856497765 -0.35936841624123711 -0.35715170025825504 -0.30203894887651717 0.32373825172078796
leaf_count=314 29 35 29 37 22 22 32 40 75 48 20 21 20 21 55
internal_value=0 1.05683 0.699273 -3.73059 -6.3891 -2.00161 1.02337 0.687812 0.326661 0.894391 4.91251 0.260442 0.641915 1.04114 1.44418
internal_count=820 710 675 110 73 51 646 614 574 499 68 431 410 390 369
shrinkage=0.05


Tree=18
num_leaves=16
num_cat=0
split_feature=1 83 82 183 56 127 89 170 68 2 25 22 42 42 151
split_gain=2002.92 1501.31 1457.02 1388.88 1305.9 1360.25 1403.97 1434.7 1636.92 1273.69 1182.5 1486.17 1078.35 1658.8 1139.6
threshold=215.00000000000003 1.0000000180025095e-35 97.500000000000014 1.0000000180025095e-35 55.000000000000007 145.00000000000003 1.0000000180025095e-35 175.00000000000003 45.000000000000007 365.00000000000006 22.500000000000004 35.000000000000007 225.00000000000003 355.00000000000006 359.00000000000006
decision_type=2 2 2 2 2 2 2 2 2 2 2 2 2 2 2
left_child=1 3 -2 4 5 6 7 8 9 10 12 -12 14 -14 -1
right_child=2 -3 -4 -5 -6 -7 -8 -9 -10 -11 11 -13 13 -15 -16
leaf_value=0.17513567299322516 -0.58692875233563513 0.40684905714458885 -0.061617971911574858 0.29966254556043581 -0.31846234449024857 -0.27909160205296107 0.41622394025325776 0.36340719789266585 -0.41423206248066641 -0.31610560325475845 -0.099417040366065371 0.32714383602142338 -0.32604041334354517 0.21391078186035159 -0.20871720675911223
leaf_count=244 22 27 33 44 29 35 24 30 22 26 182 23 33 25 21
internal_value=0 0.812943 -5.43485 0.544991 0.199568 0.486028 0.823131 0.526048 0.174897 0.510835 0.847306 -1.03118 2.03953 -1.86606 2.89434
internal_count=820 765 55 738 694 665 630 606 576 554 528 205 323 58 265
shrinkage=0.05


Tree=19
num_leaves=16
num_cat=0
split_feature=1 46 18 82 9 56 70 43 52 141 186 27 46 99 38
split_gain=1873.3 1562.13 1376.62 3032.83 1896.47 1301.44 1282.92 1038.38 1104.26 1148.16 1810.72 1080.8 1164.22 1023.35 1475.59
threshold=135.00000000000003 85.000000000000014 122.50000000000001 165.00000000000003 105.00000000000001 55.000000000000007 90.000000000000014 105.00000000000001 105.00000000000001 25.000000000000004 6.0000000000000009 155.00000000000003 1.0000000180025095e-35 32.500000000000007 42.500000000000007
decision_type=2 2 2 2 2 2 2 2 2 2 2 2 2 2 2
left_child=1 5 3 4 -2 6 7 8 9 11 -11 12 13 14 -1
right_child=2 -3 -4 -5 -6 -7 -8 -9 -10 10 -12 -13 -14 -15 -16
leaf_value=0.024262512140687864 -0.21235839724540712 0.37415542015007563 0.080308007697264358 0.080329682173267497 -0.87808846546256025 -0.29610985784695071 0.35492473505437377 0.27650613732635976 -0.16585599386692049 0.39740340399245422 -0.16885442674160003 -0.34006508077893938 -0.34435308396816255 -0.29272304943629673 0.30501292651349848
leaf_count=314 20 35 36 31 23 29 32 40 75 48 20 21 20 21 55
internal_value=0 0.969118 -3.4658 -5.93324 -11.3689 0.631356 0.925555 0.603839 0.260544 0.798269 4.61714 0.195755 0.554141 0.935741 1.32218
internal_count=820 710 110 74 43 675 646 614 574 499 68 431 410 390 369
shrinkage=0.05


Tree=20
num_leaves=16
num_cat=0
split_feature=54 66 82 81 44 27 27 10 18 117 61 3 44 117 45
split_gain=3343.93 1728.61 1637.42 2037.4 3058.15 1992.25 3013.49 1619.7 1602.76 1712.63 1156.03 1061.29 1132.1 1499.17 1137.11
threshold=22.500000000000004 1.0000000180025095e-35 75.500000000000014 37.500000000000007 125.00000000000001 12.500000000000002 95.000000000000014 55.000000000000007 22.500000000000004 52.500000000000007 1.0000000180025095e-35 275.00000000000006 395.00000000000006 197.50000000000003 85.000000000000014
decision_type=2 2 2 2 2 2 2 2 2 2 2 2 2 2 2
left_child=1 2 5 10 -5 7 -7 8 9 -1 11 -4 13 14 -13
right_child=-2 -3 3 4 -6 6 -8 -9 -10 -11 -12 12 -14 -15 -16
leaf_value=-0.58088320946693428 -0.55427778297000463 -0.34271369777394067 0.21303586222752624 -0.49276425575508792 0.27465253422657648 -0.76972777221513833 -0.054673932529077297 0.28442490888493405 0.051067587146993547 -0.064735557370715666 -0.13076896846294403 0.18666005831743993 -0.30131830289250328 0.47842858348573958 -0.18583794392645359
leaf_count=25 27 33 243 34 21 23 41 42 122 45 40 42 21 21 40
internal_value=0 0.231077 0.53873 1.71758 -3.99501 -1.28889 -6.23293 0.0633258 -1.16718 -4.98148 2.48956 3.04595 0.665407 2.02975 0.0990743
internal_count=820 793 760 462 55 298 64 234 192 70 407 367 124 103 82
shrinkage=0.05


Tree=21
num_leaves=16
num_cat=0
split_feature=54 66 82 81 44 27 27 10 18 117 61 117 44 3 44
split_gain=3017.9 1560.07 1477.77 1838.76 2759.98 1798.01 2719.67 1461.78 1446.49 1545.64 1043.32 967.669 958.796 957.816 1021.72
threshold=22.500000000000004 1.0000000180025095e-35 75.500000000000014 37.500000000000007 125.00000000000001 12.500000000000002 95.000000000000014 55.000000000000007 22.500000000000004 52.500000000000007 1.0000000180025095e-35 112.50000000000001 142.50000000000003 275.00000000000006 395.00000000000006
decision_type=2 2 2 2 2 2 2 2 2 2 2 2 2 2 2
left_child=1 2 5 10 -5 7 -7 8 9 -1 13 -8 -11 -4 -15
right_child=-2 -3 3 4 -6 6 11 -9 -10 12 -12 -13 -14 14 -16
leaf_value=-0.55183905160427094 -0.52656388635988594 -0.32557800543127641 0.20238406807644133 -0.46812603876871228 0.26091990435407281 -0.73124138997948696 -0.30084666669368748 0.27020366397641954 0.048514207611318499 0.15439040561517081 -0.12423051357269288 0.18511352255230859 -0.30822927667981104 0.096413059279467306 -0.28625238214929899
leaf_count=25 27 33 243 34 21 23 20 42 122 24 40 21 21 103 21
internal_value=0 0.219523 0.511793 1.63171 -3.79526 -1.22445 -5.92128 0.0601595 -1.10882 -4.73241 2.36508 -1.0388 -1.22998 2.89366 0.632136
internal_count=820 793 760 462 55 298 64 234 192 70 407 41 45 367 124
shrinkage=0.05


Tree=22
num_leaves=16
num_cat=0
split_feature=54 66 2 1 117 47 18 183 82 61 10 186 9 25 82
split_gain=2741.95 1425.29 1317.74 1733.8 1339.44 1234.74 990.007 974.924 1561.66 1773.64 1344.37 1536.7 1229.63 1978.5 1108.15
threshold=12.500000000000002 1.0000000180025095e-35 390.00000000000006 245.00000000000003 52.500000000000007 13.000000000000002 510.00000000000006 1.0000000180025095e-35 52.500000000000007 7.5000000000000009 45.000000000000007 6.0000000000000009 660.00000000000011 85.000000000000014 32.500000000000007
decision_type=2 2 2 2 2 2 2 2 2 2 2 2 2 2 2
left_child=1 2 3 5 -4 6 7 8 10 -10 11 12 13 14 -1
right_child=-2 -3 4 -5 -6 -7 -8 -9 9 -11 -12 -13 -14 -15 -16
leaf_value=-0.067771292267286259 -0.4528886409419956 -0.30929910992131093 -0.52781890176591417 -0.29036506092226183 0.024492468004641329 0.41336898847172665 0.34456502353703539 0.27732350597014793 0.10746411073224277 -0.27019972503185274 0.16930472673596564 0.11705163559979864 0.077384252304380591 -0.76481742447330836 -0.4868862633903821
leaf_count=46 33 33 21 37 23 24 27 39 363 34 37 36 22 21 24
internal_value=0 0.246705 0.528241 0.85734 -4.78221 1.22375 0.963274 0.705948 0.382139 1.5024 -2.00896 -3.34867 -5.16132 -6.78328 -4.22936
internal_count=820 787 754 710 44 673 649 622 583 397 186 149 113 91 70
shrinkage=0.05


Tree=23
num_leaves=16
num_cat=0
split_feature=186 2 83 81 82 82 62 18 151 51 2 1 45 51 51
split_gain=2230.15 4340.93 1812.14 1288.74 1308.6 2401.74 2493.86 3467.82 2310.11 1909.83 2783.25 1145.68 1977.8 854.145 1966.89
threshold=85.000000000000014 140.00000000000003 1.0000000180025095e-35 72.500000000000014 75.500000000000014 32.500000000000007 55.000000000000007 155.00000000000003 85.000000000000014 25.000000000000004 155.00000000000003 77.500000000000014 35.000000000000007 132.50000000000003 200.50000000000003
decision_type=2 2 2 2 2 2 2 2 2 2 2 2 2 2 2
left_child=2 -2 3 4 5 9 7 8 -7 -1 -11 13 -13 -6 -15
right_child=1 -3 -4 -5 11 6 -8 -9 -10 10 -12 12 -14 14 -16
leaf_value=0.25049642259659977 0.0049195635013091262 -0.90110503196716307 0.37367200413170987 -0.26530281021151436 0.20827508172749179 -0.34816959941828696 0.1101663287729025 0.086155568516772738 -1.0383950341831554 0.071424637894920068 -0.52499011490080094 0.11841390058398248 -0.39364889191858699 -0.19860602524773829 0.14766345189086028
leaf_count=69 39 20 34 43 138 27 32 23 22 71 27 44 33 58 140
internal_value=0 -6.04415 0.337835 0.00412029 0.337947 -1.36957 -5.14199 -8.40658 -13.1613 0.979721 -1.85787 1.45838 -2.02083 2.2557 0.92462
internal_count=820 59 761 727 684 271 104 72 49 167 98 413 77 336 198
shrinkage=0.05


Tree=24
num_leaves=16
num_cat=0
split_feature=54 59 66 82 108 14 60 81 14 53 3 51 51 3 25
split_gain=2497.32 1313.33 1159.54 1332.02 1643.55 1621.88 1359.26 1297.37 1256.5 1160.47 930.812 1011.26 1107.3 1391.14 823.417
threshold=22.500000000000004 14.000000000000002 1.0000000180025095e-35 75.500000000000014 472.50000000000006 210.00000000000003 47.500000000000007 37.500000000000007 32.500000000000007 66.500000000000014 275.00000000000006 65.000000000000014 200.50000000000003 432.50000000000006 107.50000000000001
decision_type=2 2 2 2 2 2 2 2 2 2 2 2 2 2 2
left_child=1 2 3 4 5 6 8 10 -1 -9 -5 -12 13 -13 -14
right_child=-2 -3 -4 7 -6 -7 -8 9 -10 -11 11 12 14 -15 -16
leaf_value=-0.0030272263005889696 -0.47864893630698879 -0.37058646990494298 -0.2734619373455644 0.17553938541691316 -0.46412768634882839 -0.41668000065762067 -0.32768295288085936 0.12374189340549967 0.27918905031447316 -0.3483208872874578 0.23069687517065751 -0.5406228662891821 0.25002581874529523 0.035551543235778811 -0.1476171560909437
leaf_count=174 27 22 32 258 22 23 25 23 51 30 38 22 30 20 23
internal_value=0 0.206726 0.424114 0.679306 -0.967771 -0.297715 0.441586 1.77365 1.21884 -2.86927 2.40299 0.254043 -1.48991 -5.32508 1.54928
internal_count=820 793 771 739 295 273 250 444 225 53 391 133 95 42 53
shrinkage=0.05


Tree=25
num_leaves=16
num_cat=0
split_feature=0 83 22 144 89 9 79 53 51 186 51 42 44 51 82
split_gain=1670.8 1412.71 1480.67 1413.55 1393.15 1317.07 1817.78 2145.42 2967.41 2306.17 3109.68 3276.13 1365.54 1303.04 1292.37
threshold=55.000000000000007 1.0000000180025095e-35 45.000000000000007 85.000000000000014 90.000000000000014 335.00000000000006 155.00000000000003 115.00000000000001 295.00000000000006 21.500000000000004 342.50000000000006 95.000000000000014 163.50000000000003 47.500000000000007 27.500000000000004
decision_type=2 2 2 2 2 2 2 2 2 2 2 2 2 2 2
left_child=1 2 3 4 5 14 7 9 -9 10 11 -7 -11 -13 -1
right_child=-2 -3 -4 -5 -6 6 -8 8 -10 12 -12 13 -14 -15 -16
leaf_value=0.18577906252170096 -0.40519382706284524 0.35249080781278941 0.18869620002387616 0.35702615095221479 -0.45266012310981751 -0.88509964033177035 0.28556227302551268 0.33693603102753805 -0.35420838260650633 -0.21103139607994648 0.073638625470576466 -0.53607692122459416 0.32655960349809554 0.0086781610613283905 -0.024427925158912938
leaf_count=98 25 29 89 23 20 38 25 41 25 27 27 21 21 23 288
internal_value=0 0.198749 -0.0606257 -0.564725 -0.835704 -0.576477 -2.37463 -3.28112 1.50278 -5.29219 -7.83552 -10.9004 0.483293 -5.02637 0.578814
internal_count=820 795 766 677 654 634 248 223 66 157 109 82 48 44 386
shrinkage=0.05


Tree=26
num_leaves=16
num_cat=0
split_feature=141 0 66 83 144 89 79 117 26 2 61 82 2 81 51
split_gain=2158.92 2557.38 1558.43 1093.6 930.111 1113.54 991.931 1147.82 1119.05 1840.8 1159.08 932.445 1339.74 1207.13 1527.25
threshold=155.00000000000003 55.000000000000007 115.00000000000001 1.0000000180025095e-35 85.000000000000014 77.500000000000014 225.00000000000003 301.00000000000006 223.50000000000003 62.500000000000007 7.5000000000000009 402.50000000000006 365.00000000000006 37.500000000000007 405.00000000000006
decision_type=2 2 2 2 2 2 2 2 2 2 2 2 2 2 2
left_child=1 2 3 4 5 6 7 8 10 -10 11 12 13 14 -1
right_child=-2 -3 -4 -5 -6 -7 -8 -9 9 -11 -12 -13 -14 -15 -16
leaf_value=0.032170765280125684 0.27864518685946388 -0.5700501531362534 -0.42495313821868463 0.30859682325805937 0.28313829073539148 -0.32469690542282731 0.22399279419765916 -0.35629389262199407 0.040450493898242713 -0.52013510465621948 -0.25933107071452671 0.33218152093887332 -0.28816458926056371 -0.22161954748324858 0.33716421812138658
leaf_count=324 63 21 22 28 26 29 43 25 32 27 36 25 33 39 47
internal_value=0 -0.519755 -0.209285 0.0461423 -0.20389 -0.435001 -0.156539 -0.495595 -0.201178 -4.32177 0.281193 0.701794 0.366476 0.859848 1.41617
internal_count=820 757 736 714 686 660 631 588 563 59 504 468 443 410 371
shrinkage=0.05


Tree=27
num_leaves=16
num_cat=0
split_feature=141 0 48 117 68 2 45 52 51 53 53 51 5 9 42
split_gain=1948.42 2308.03 1609.08 1814.85 1650.6 1638.4 1423.4 1189.3 1751.63 2389.56 1289.89 1265.65 1225.58 1488.3 1229.85
threshold=155.00000000000003 55.000000000000007 85.000000000000014 301.00000000000006 1.0000000180025095e-35 390.00000000000006 395.00000000000006 82.500000000000014 65.000000000000014 240.00000000000003 55.000000000000007 1.0000000180025095e-35 15.000000000000002 885.00000000000011 172.50000000000003
decision_type=2 2 2 2 2 2 2 2 2 2 2 2 2 2 2
left_child=1 2 3 4 5 6 7 11 -9 10 -10 12 13 14 -1
right_child=-2 -3 -4 -5 -6 -7 -8 8 9 -11 -12 -13 -14 -15 -16
leaf_value=-0.51353322379291055 0.26471292802265717 -0.54154767904962808 0.32091925484793532 -0.42841721530313848 -0.33501951227316984 -0.30549948643415403 0.30611550891122152 0.18246091026812794 -0.16809824332594872 0.22792224049568177 -0.61038571526022523 0.10000331609720184 0.18022098839282991 0.081566020590918414 -0.051455417772134152
leaf_count=36 63 21 35 27 37 39 43 32 32 20 34 310 32 35 24
internal_value=0 -0.493768 -0.198821 -0.529209 -0.207167 0.169991 0.579555 0.150116 -2.66696 -5.01717 -7.91887 0.910791 -1.74807 -3.55101 -6.57404
internal_count=820 757 736 701 674 637 598 555 118 86 66 437 127 95 60
shrinkage=0.05


Tree=28
num_leaves=16
num_cat=0
split_feature=141 0 48 117 68 2 26 26 52 51 51 82 9 25 82
split_gain=1758.45 2083 1452.19 1637.9 1489.67 1478.65 991.008 1261.16 1139.26 1243.41 1778.98 2689.24 1528.21 1106.16 1016.22
threshold=155.00000000000003 55.000000000000007 85.000000000000014 301.00000000000006 1.0000000180025095e-35 390.00000000000006 223.50000000000003 155.00000000000003 210.00000000000003 232.50000000000003 177.50000000000003 192.50000000000003 885.00000000000011 62.500000000000007 177.50000000000003
decision_type=2 2 2 2 2 2 2 2 2 2 2 2 2 2 2
left_child=1 2 3 4 5 6 7 8 9 10 -1 -12 14 -8 -11
right_child=-2 -3 -4 -5 -6 -7 13 -9 -10 12 11 -13 -14 -15 -16
leaf_value=0.040972025849785938 0.251477280690793 -0.51447033030646183 0.30487329278673447 -0.40699635501261117 -0.31826854831463586 -0.29022452097672685 0.0084437232547336146 0.35075712637467821 -0.29065087116681615 0.10298000909388066 0.031306130577016762 -0.73365075312554839 -0.20245688021183017 -0.39182811975479126 0.37146353343176464
leaf_count=251 63 21 35 27 37 39 45 33 26 80 27 20 25 28 63
internal_value=0 -0.469079 -0.18888 -0.502749 -0.196808 0.161491 0.550577 1.03061 0.629207 0.988644 -0.237837 -5.88415 3.16419 -2.9017 4.42526
internal_count=820 757 736 701 674 637 598 525 492 466 298 47 168 73 143
shrinkage=0.05


Tree=29
num_leaves=16
num_cat=0
split_feature=3 3 44 151 62 81 53 26 51 82 44 51 2 81 186
split_gain=1681.57 3491.54 2155.75 2135.01 1400.46 1362.64 1224.09 1962.8 1791.8 1296.15 1204.41 1282.18 1155.64 1935.08 1105.09
threshold=145.00000000000003 155.00000000000003 532.50000000000011 175.00000000000003 265.00000000000006 1.0000000180025095e-35 85.000000000000014 65.000000000000014 132.50000000000003 112.50000000000001 285.00000000000006 295.00000000000006 1.0000000180025095e-35 51.000000000000007 1.0000000180025095e-35
decision_type=2 2 2 2 2 2 2 2 2 2 2 2 2 2 2
left_child=3 -2 4 5 14 6 7 10 -8 -10 11 -1 13 -7 -3
right_child=1 2 -4 -5 -6 12 8 -9 9 -11 -12 -13 -14 -15 -16
leaf_value=-0.11778082861141725 -0.58252499834183724 -0.091780142891591643 -0.41168492971097725 0.37023446009709288 0.25036729538440705 -0.69400868207216271 0.50727185887448933 -0.47329106390476228 0.39745904519444419 -0.06927410574520336 0.36348855306322758 0.21799568732579552 0.092628829677899691 0.0015265737473964692 0.12346882674797083
leaf_count=88 31 226 34 52 50 20 34 20 21 51 26 42 24 20 81
internal_value=0 -1.435 -0.625077 1.43028 0.0995534 0.53239 1.47779 -0.139092 4.16243 1.33713 1.05664 -0.185984 -3.6333 -6.92482 -0.699761
internal_count=820 422 391 398 357 346 282 176 106 72 156 130 64 40 307
shrinkage=0.05


Tree=30
num_leaves=16
num_cat=0
split_feature=54 141 130 3 27 1 151 48 27 60 79 25 82 96 9
split_gain=2430.88 1414.55 1544.32 1203.42 1808.71 2020.55 1490.7 1318.04 1227.48 1611.29 1165.93 1358.33 1799.22 1504.03 1851.74
threshold=12.500000000000002 145.00000000000003 1.0000000180025095e-35 55.000000000000007 167.50000000000003 245.00000000000003 155.00000000000003 85.000000000000014 72.500000000000014 1.0000000180025095e-35 1.0000000180025095e-35 142.50000000000003 52.500000000000007 85.000000000000014 335.00000000000006
decision_type=2 2 2 2 2 2 2 2 2 2 2 2 2 2 2
left_child=1 2 3 6 5 7 8 10 9 -1 11 13 -13 14 -5
right_child=-2 -3 -4 4 -6 -7 -8 -9 -10 -11 -12 12 -14 -15 -16
leaf_value=0.073139232217612926 -0.3954347773920745 0.2725385044400509 0.45153097034919831 0.074733517199754726 -0.49549746513366699 -0.39879434031824912 0.43134177389644812 0.38755332513347918 0.31200595551576371 -0.33143138448397319 0.22100737422120337 -0.5621264370588156 -0.032883450246992567 0.31564120484722991 -0.21628532874029738
leaf_count=137 32 65 21 150 20 31 31 23 39 30 51 26 42 36 86
internal_value=0 0.982305 0.580576 0.327797 -0.606937 -0.188824 2.16177 0.394265 1.18887 0.00923752 -0.0384882 -0.707284 -4.70482 0.292101 -0.626314
internal_count=820 788 723 702 465 445 237 414 206 167 391 340 68 272 236
shrinkage=0.05


Tree=31
num_leaves=16
num_cat=0
split_feature=54 62 108 130 3 151 82 3 25 51 51 151 141 27 45
split_gain=2193.87 1309.12 2332.8 1286.14 1048.27 1515.61 1641.51 1434.36 3008.42 1294.73 2623.01 2143.63 1113.24 1061.75 1460.5
threshold=12.500000000000002 265.00000000000006 667.50000000000011 1.0000000180025095e-35 145.00000000000003 155.00000000000003 152.50000000000003 355.00000000000006 142.50000000000003 1.0000000180025095e-35 222.50000000000003 1.0000000180025095e-35 1.0000000180025095e-35 12.500000000000002 112.50000000000001
decision_type=2 2 2 2 2 2 2 2 2 2 2 2 2 2 2
left_child=1 2 3 4 5 6 12 8 9 -6 11 -11 13 14 -1
right_child=-2 -3 -4 -5 7 -7 -8 -9 -10 10 -12 -13 -14 -15 -16
leaf_value=0.09401409708584349 -0.37566306674852967 0.20750873060982436 -0.51114931941032415 0.43181032620370391 0.17961895281360263 0.38121620342135432 0.19063603976475341 0.058227568989638816 -0.64787545385956768 -0.63732340566573609 0.21908884283996399 -0.044440746506055201 0.27535166263580324 -0.37334993109107018 -0.38224183266813105
leaf_count=60 32 109 20 20 42 40 112 194 25 31 31 30 20 32 22
internal_value=0 0.93319 0.416767 0.739673 0.49252 1.91547 0.987203 -0.660353 -2.88697 -1.00813 -3.10837 -6.91484 -1.37442 -2.5817 -0.675238
internal_count=820 788 679 659 639 286 246 353 159 134 92 61 134 114 82
shrinkage=0.05


Tree=32
num_leaves=16
num_cat=0
split_feature=54 62 108 130 3 151 82 3 25 3 51 52 42 1 82
split_gain=1979.97 1181.48 2105.35 1160.74 946.063 1367.84 1481.47 1299.97 2619.16 1987.82 2027.05 2010.53 1635.68 1040.31 1192.82
threshold=12.500000000000002 265.00000000000006 667.50000000000011 1.0000000180025095e-35 145.00000000000003 155.00000000000003 152.50000000000003 395.00000000000006 142.50000000000003 312.50000000000006 222.50000000000003 45.000000000000007 32.500000000000007 42.500000000000007 362.50000000000006
decision_type=2 2 2 2 2 2 2 2 2 2 2 2 2 2 2
left_child=1 2 3 4 5 6 -1 8 9 10 11 12 -6 14 -8
right_child=-2 -3 -4 -5 7 -7 13 -9 -10 -11 -12 -13 -14 -15 -16
leaf_value=-0.065285123822126367 -0.35687990374863149 0.1971332892570474 -0.48559185385704046 0.41021980762481691 0.42768828376479773 0.36215539529919627 0.21989632894595468 0.062168137468037434 -0.58195295212445441 -0.43262097129115357 0.42340604409023569 -0.40505364100138347 -0.10654198307740062 0.45824778882356787 -0.18555952791984265
leaf_count=134 32 109 20 20 23 40 60 181 27 27 27 30 38 26 26
internal_value=0 0.88653 0.395928 0.702689 0.467894 1.8197 0.937843 -0.627336 -2.59592 -0.912024 0.859083 -1.39854 1.89778 3.62208 1.94633
internal_count=820 788 679 659 639 286 246 353 172 145 118 91 61 112 86
shrinkage=0.05


Tree=33
num_leaves=16
num_cat=0
split_feature=54 141 130 62 108 48 170 2 63 108 86 117 44 26 3
split_gain=1795.65 1194.11 1173.88 999.412 1265.08 989.031 931.267 1140.77 1033.55 816.908 940.643 1162.2 1079.85 1227.07 1056.76
threshold=22.500000000000004 145.00000000000003 1.0000000180025095e-35 505.00000000000006 739.50000000000011 85.000000000000014 75.000000000000014 390.00000000000006 242.50000000000003 340.00000000000006 55.000000000000007 265.00000000000006 252.50000000000003 290.00000000000006 265.00000000000006
decision_type=2 2 2 2 2 2 2 2 2 2 2 2 2 2 2
left_child=1 2 3 4 5 6 7 8 9 10 11 12 13 14 -1
right_child=-2 -3 -4 -5 -6 -7 -8 -9 -10 -11 -12 -13 -14 -15 -16
leaf_value=0.029657962687129981 -0.36627517087118971 0.24477062618190593 0.39101851058325598 0.32214292025566105 -0.39152023077011111 0.28782789582206358 0.21770344767305586 -0.34209213440234842 -0.33915553580630914 0.24405454908098495 -0.23228728586719152 -0.32379716212550802 0.1778010717481375 0.34302116651897846 -0.16554513958712611
leaf_count=208 28 66 21 25 20 31 45 26 22 35 42 24 100 23 104
internal_value=0 0.822964 0.452742 0.233281 0.00498721 0.242423 -0.0293385 -0.367101 -0.0654106 0.210316 -0.115986 0.298502 0.672265 -0.188558 -0.708195
internal_count=820 792 726 705 680 660 629 584 558 536 501 459 435 335 312
shrinkage=0.05


Tree=34
num_leaves=16
num_cat=0
split_feature=43 53 42 83 52 62 108 55 108 82 46 82 51 42 117
split_gain=1716.53 5429.45 2545.77 1394.03 1184.16 1341.87 1799.43 1749.07 1381.53 1245.84 1150.48 1468.54 1202.22 2048.79 1467.32
threshold=45.000000000000007 187.50000000000003 47.500000000000007 1.0000000180025095e-35 255.00000000000003 265.00000000000006 625.00000000000011 55.000000000000007 275.00000000000006 362.50000000000006 7.5000000000000009 97.500000000000014 1.0000000180025095e-35 95.000000000000014 45.000000000000007
decision_type=2 2 2 2 2 2 2 2 2 2 2 2 2 2 2
left_child=3 2 -2 4 5 6 7 8 9 10 11 12 -1 14 -14
right_child=1 -3 -4 -5 -6 -7 -8 -9 -10 -11 -12 -13 13 -15 -16
leaf_value=0.077074519623267029 0.22368651253205762 -0.90330079972744004 -0.32376279656376161 0.42094312703609466 0.38584783729165795 0.20778783953438207 -0.46581255018711093 0.34902166998064199 0.30609059080933082 -0.2884977735579014 -0.29715190818232878 0.11055847891557838 0.23445650199428203 -0.4590539476403917 -0.20264502040420973
leaf_count=76 54 20 35 25 24 90 20 37 33 42 31 211 32 42 48
internal_value=0 -3.17773 0.167949 1.08398 0.816678 0.566517 0.00177652 0.339386 -0.137738 -0.566296 -0.069583 0.375593 -1.5805 -3.52535 -0.556088
internal_count=820 109 89 711 686 662 572 552 515 482 440 409 198 122 80
shrinkage=0.05


Tree=35
num_leaves=16
num_cat=0
split_feature=89 60 68 0 60 53 5 63 149 99 48 148 118 26 3
split_gain=1726.3 1726.46 1981.05 1470.65 1311.47 1310.27 914.771 1361.43 1228.92 1022.27 899.307 1084.37 1092.44 1237.23 950.994
threshold=90.000000000000014 155.00000000000003 62.500000000000007 1.0000000180025095e-35 85.000000000000014 92.500000000000014 725.00000000000011 242.50000000000003 105.00000000000001 32.500000000000007 65.000000000000014 1.0000000180025095e-35 1.0000000180025095e-35 255.00000000000003 312.50000000000006
decision_type=2 2 2 2 2 2 2 2 2 2 2 2 2 2 2
left_child=1 2 3 4 6 -6 7 8 9 10 11 12 13 14 -1
right_child=-2 -3 -4 -5 5 -7 -8 -9 -10 -11 -12 -13 -14 -15 -16
leaf_value=0.030521345768301261 -0.40844608093130175 -0.40860567225350275 -0.43073712131724912 0.356219899058342 -0.044755082864027761 0.42676461303935337 0.21285013846862011 -0.37747848246778765 0.25435817092657093 -0.36596925051315976 0.30343466341495517 -0.3901531497637431 -0.30528301429003479 0.25890016461290966 -0.12718943595741092
leaf_count=252 29 27 26 30 26 34 39 28 38 23 20 21 32 41 154
internal_value=0 -0.313349 -0.0356177 0.266628 -0.0239555 4.44879 -0.438098 -0.73877 -0.410539 -0.795277 -0.50671 -0.769726 -0.461376 -0.0573104 -0.586
internal_count=820 791 764 738 708 60 648 609 581 543 520 500 479 447 406
shrinkage=0.05


Tree=36
num_leaves=16
num_cat=0
split_feature=89 0 68 83 151 43 170 2 2 99 52 9 10 53 120
split_gain=1557.99 1393.4 1507.48 1024.87 1007.06 880.942 922.357 1540.99 1675.13 1256.55 865.8 841.713 1102.8 827.839 859.741
threshold=90.000000000000014 1.0000000180025095e-35 45.000000000000007 1.0000000180025095e-35 415.00000000000006 135.00000000000003 175.00000000000003 390.00000000000006 103.50000000000001 32.500000000000007 210.00000000000003 637.50000000000011 77.500000000000014 115.00000000000001 65.000000000000014
decision_type=2 2 2 2 2 2 2 2 2 2 2 2 2 2 2
left_child=1 2 3 4 5 6 7 8 9 10 13 12 -10 14 -1
right_child=-2 -3 -4 -5 -6 -7 -8 -9 11 -11 -12 -13 -14 -15 -16
leaf_value=-0.11292955717458153 -0.38802378342069432 0.30831143613904716 -0.34899693633828849 0.28923559677269728 -0.29012435560717303 0.21337101437696596 0.23993760789594343 -0.37730608880519867 0.10105837998085453 -0.4259805212020874 -0.34815047283967337 0.30547686456105649 -0.27390606688416524 0.10967085393699441 0.20244509663898499
leaf_count=217 29 32 35 27 34 41 31 32 133 25 24 39 23 74 24
internal_value=0 -0.297681 -0.570205 -0.260342 -0.494512 -0.222308 -0.518255 -0.79715 -0.410805 -1.67783 -1.17327 1.95431 0.915503 -0.732152 -1.63046
internal_count=820 791 759 724 697 663 622 591 559 364 339 195 156 315 241
shrinkage=0.05


Tree=37
num_leaves=16
num_cat=0
split_feature=60 68 89 0 60 53 127 44 124 53 1 5 9 51 3
split_gain=1446.22 1652.76 1338.94 1137.93 994.587 1330.51 847.475 979.283 1366.37 1246.53 1123.46 1467.74 1113.16 1184.76 1060.44
threshold=177.50000000000003 62.500000000000007 77.500000000000014 1.0000000180025095e-35 85.000000000000014 92.500000000000014 17.500000000000004 252.50000000000003 35.000000000000007 240.00000000000003 77.500000000000014 355.00000000000006 850.50000000000011 200.50000000000003 860.00000000000011
decision_type=2 2 2 2 2 2 2 2 2 2 2 2 2 2 2
left_child=1 2 3 4 6 -6 7 8 9 14 11 12 13 -9 -1
right_child=-2 -3 -4 -5 5 -7 -8 10 -10 -11 -12 -13 -14 -15 -16
leaf_value=-0.11353570372117089 -0.38653792672687109 -0.3849224618796645 -0.3335938355018353 0.31975200669518833 -0.068887302169093376 0.40124699780169659 0.14752038768020229 -0.40272928826949173 0.10813514407140663 -0.40987488701939584 0.37433432589929838 0.33869337230347674 0.18324789365466973 0.045639182254672055 0.2255368356704712
leaf_count=297 27 29 29 29 27 34 69 34 83 33 26 26 26 26 25
internal_value=0 -0.288478 -0.00720981 0.25575 0.00356936 3.8631 -0.36144 -0.758172 -1.49006 -2.34409 1.56478 0.190053 -1.8004 -4.16873 -1.7442
internal_count=820 793 764 735 706 61 645 576 438 355 138 112 86 60 322
shrinkage=0.05


Tree=38
num_leaves=16
num_cat=0
split_feature=60 68 82 2 52 127 51 113 143 51 60 1 47 44 55
split_gain=1305.22 1491.62 1198.95 1881.68 1705.84 1091.8 1003.52 1213.04 1153.4 1308.27 1298.28 1541.67 1069.81 883.004 1092.76
threshold=177.50000000000003 62.500000000000007 297.50000000000006 390.00000000000006 92.500000000000014 145.00000000000003 610.00000000000011 105.00000000000001 40.000000000000007 405.00000000000006 85.000000000000014 215.00000000000003 6.0000000000000009 252.50000000000003 1.0000000180025095e-35
decision_type=2 2 2 2 2 2 2 2 2 2 2 2 2 2 2
left_child=1 2 3 5 -4 6 7 8 9 10 11 12 13 14 -1
right_child=-2 -3 4 -5 -6 -7 -8 -9 -10 -11 -12 -13 -14 -15 -16
leaf_value=-0.12927830663102213 -0.36721102043434428 -0.36567633665841204 0.25566686635816488 -0.38482508318764824 -0.14697779417037965 -0.331166223526001 -0.28027406674006888 0.34831153198524761 0.34310918251673383 0.25871614699320095 0.27618168549191568 -0.42460343484525326 0.32220723807811735 0.080667444967454482 0.1997187766911728
leaf_count=256 27 29 91 35 37 25 29 27 24 41 31 27 20 93 28
internal_value=0 -0.274054 -0.00684935 -0.568841 2.78555 -0.153753 0.127045 0.430963 0.0916315 -0.235976 -0.723497 -1.18025 -0.682967 -1.06106 -1.93684
internal_count=820 793 764 636 128 601 576 547 520 496 455 424 397 377 284
shrinkage=0.05


Tree=39
num_leaves=16
num_cat=0
split_feature=89 60 82 68 2 0 45 52 47 124 82 123 9 9 45
split_gain=1260.77 1284.02 1417.27 1271.63 1216.07 899.017 914.843 1023.83 863.064 963.421 1285.23 1145.7 1854.14 2581.02 1786.51
threshold=90.000000000000014 155.00000000000003 332.50000000000006 45.000000000000007 390.00000000000006 1.0000000180025095e-35 395.00000000000006 225.00000000000003 1.0000000180025095e-35 35.000000000000007 86.500000000000014 115.00000000000001 502.50000000000006 805.00000000000011 232.50000000000003
decision_type=2 2 2 2 2 2 2 2 2 2 2 2 2 2 2
left_child=1 2 3 4 5 6 7 8 9 11 -11 12 14 -14 -1
right_child=-2 -3 -4 -5 -6 -7 -8 -9 -10 10 -12 -13 13 -15 -16
leaf_value=0.0080192573271788553 -0.34787071655536522 -0.35107407923097966 0.17941110624621315 -0.32866133794640051 -0.28457559315781844 0.32082007405432789 0.25073134646271217 -0.35452410307797522 0.26896213756667242 -0.087565297233622261 0.28525093544344859 0.12080923638741176 -0.68435709527854272 -0.073979100307752926 -0.47365987527938125
leaf_count=231 29 27 96 33 38 22 33 22 27 41 53 75 29 43 21
internal_value=0 -0.244087 -0.0045722 -0.520902 -0.206372 0.142766 -0.0972685 -0.408509 -0.125811 -0.427304 2.45279 -1.10582 -1.9211 -6.39652 -0.642413
internal_count=820 791 764 668 635 597 575 542 520 493 94 399 324 72 252
shrinkage=0.05


Tree=40
num_leaves=16
num_cat=0
split_feature=186 45 54 66 5 49 2 3 1 27 117 63 151 117 61
split_gain=2387.27 4109.56 1488.83 1182.99 1007.1 1269.71 2875.65 1248.64 2402.69 1768.28 1470.99 1506.03 1102.38 1587.86 1012.12
threshold=92.500000000000014 35.000000000000007 40.000000000000007 1.0000000180025095e-35 251.00000000000003 1.0000000180025095e-35 122.50000000000001 55.000000000000007 185.00000000000003 145.00000000000003 192.50000000000003 183.50000000000003 335.00000000000006 152.50000000000003 1.0000000180025095e-35
decision_type=2 2 2 2 2 2 2 2 2 2 2 2 2 2 2
left_child=2 -2 3 4 5 7 -7 14 9 10 11 12 13 -9 -1
right_child=1 -3 -4 -5 -6 6 -8 8 -10 -11 -12 -13 -14 -15 -16
leaf_value=0.19776340740475251 -0.73523358681372242 0.13773599645266166 0.45478066802024841 -0.27049390761291281 0.15963905208581497 -0.40268053581129837 0.18646218128064102 0.15345029526988405 -0.51397066375483635 -0.41660013063387435 0.29507270762324334 -0.38776432502528896 -0.19932757699862125 -0.2695952914082087 -0.15994967053765838
leaf_count=141 28 26 20 34 126 53 34 151 23 22 50 23 40 26 23
internal_value=0 -6.2983 0.581037 0.352764 0.627947 0.0764637 -3.44882 0.691092 -0.415705 0.311427 0.967136 -0.0608471 0.754693 1.82616 2.95193
internal_count=820 54 766 746 712 586 87 499 335 312 290 240 217 177 164
shrinkage=0.05


Tree=41
num_leaves=16
num_cat=0
split_feature=186 117 54 66 5 49 3 1 27 117 63 52 27 51 61
split_gain=2154.51 3873.3 1343.67 1067.65 908.906 1145.91 1126.9 2168.43 1595.87 1327.57 1359.19 998.59 926.016 1064.06 913.44
threshold=92.500000000000014 77.500000000000014 40.000000000000007 1.0000000180025095e-35 251.00000000000003 1.0000000180025095e-35 55.000000000000007 185.00000000000003 145.00000000000003 192.50000000000003 183.50000000000003 185.00000000000003 82.500000000000014 200.50000000000003 1.0000000180025095e-35
decision_type=2 2 2 2 2 2 2 2 2 2 2 2 2 2 2
left_child=2 -2 3 4 5 6 14 8 9 10 11 -8 13 -7 -1
right_child=1 -3 -4 -5 -6 12 7 -9 -10 -11 -12 -13 -14 -15 -16
leaf_value=0.18787523647836338 -0.6923432596798601 0.15691280484199524 0.43204163432121279 -0.25696921331041001 0.15165709904616786 -0.43117271504904098 0.070023457805252626 -0.48827212375143303 -0.39577012712305248 0.28031907135248185 -0.36837610783784291 -0.30078138142824173 0.10047336171070737 -0.011161372423171998 -0.15195219477881558
leaf_count=141 29 25 20 34 126 38 197 23 22 50 23 20 24 25 23
internal_value=0 -5.98338 0.551985 0.335126 0.596549 0.0726405 0.656537 -0.39492 0.295856 0.918779 -0.0578047 0.716958 -3.27638 -5.29003 2.80433
internal_count=820 54 766 746 712 586 499 335 312 290 240 217 87 63 164
shrinkage=0.05


Tree=42
num_leaves=16
num_cat=0
split_feature=186 45 68 45 3 44 2 151 82 151 84 151 44 2 49
split_gain=1944.45 3653.79 1250.22 2454.91 921.689 2228.68 1495.66 1025.04 1188.55 1020.59 997.692 891.089 1101.62 1074.84 1121.29
threshold=92.500000000000014 35.000000000000007 1.0000000180025095e-35 35.000000000000007 132.50000000000003 437.50000000000006 307.50000000000006 359.00000000000006 393.50000000000006 275.00000000000006 40.000000000000007 155.00000000000003 252.50000000000003 72.500000000000014 1.0000000180025095e-35
decision_type=2 2 2 2 2 2 2 2 2 2 2 2 2 2 2
left_child=2 -2 4 -4 10 6 7 8 9 -6 11 12 13 14 -1
right_child=1 -3 3 -5 5 -7 -8 -9 -10 -11 -12 -13 -14 -15 -16
leaf_value=0.024850753694772722 -0.68053655113492706 0.14260177268431737 0.19052803970518567 -0.52462249557886809 0.086211905802191485 -0.40242152367577405 -0.36267948513445647 -0.19373139002033182 -0.27696384872709001 0.4572349443100393 -0.23796783924102782 0.3435280249067923 0.31040822792177403 0.18298788953187139 -0.35235652327537537
leaf_count=110 28 26 21 28 253 33 23 37 21 20 20 41 48 87 24
internal_value=0 -5.68421 0.524386 -4.36259 0.858363 -0.188606 0.544089 1.08592 1.71021 2.26786 2.08617 2.52782 1.86592 0.922803 -0.854175
internal_count=820 54 766 49 717 387 354 331 294 273 330 310 269 221 134
shrinkage=0.05


Tree=43
num_leaves=16
num_cat=0
split_feature=186 117 68 45 3 44 2 3 22 44 2 27 96 10 25
split_gain=1754.86 3443.71 1128.32 2215.56 831.824 2011.38 1349.84 933.536 973.679 908.743 847.482 871.774 1018.13 814.004 922.427
threshold=92.500000000000014 77.500000000000014 1.0000000180025095e-35 35.000000000000007 132.50000000000003 437.50000000000006 307.50000000000006 462.50000000000006 12.500000000000002 402.50000000000006 72.500000000000014 62.500000000000007 1.0000000180025095e-35 27.500000000000004 45.000000000000007
decision_type=2 2 2 2 2 2 2 2 2 2 2 2 2 2 2
left_child=2 -2 4 -4 9 6 7 8 13 10 11 12 -1 -6 -15
right_child=1 -3 3 -5 5 -7 -8 -9 -10 -11 -12 -13 -14 14 -16
leaf_value=0.034399534560538625 -0.64072969900123011 0.16004611372947694 0.18100163652783349 -0.49839137010276319 0.09606604190686574 -0.38230044570836158 -0.34454550276631896 0.16007285876079436 -0.27179431646100938 0.4022301895462948 0.17595072349917795 0.24844797253608705 -0.26257832231811989 0.04770969335849469 -0.40395200595259673
leaf_count=111 29 25 21 28 130 33 23 124 31 23 126 31 39 26 20
internal_value=0 -5.4 0.498167 -4.14446 0.815445 -0.179176 0.516885 1.03163 -0.268176 1.98186 1.52765 0.141401 -0.856294 0.642045 -2.9733
internal_count=820 54 766 49 717 387 354 331 207 330 307 181 150 176 46
shrinkage=0.05


Tree=44
num_leaves=16
num_cat=0
split_feature=186 45 54 66 113 59 170 80 62 117 63 10 51 9 51
split_gain=1583.76 3248.56 1205.67 926.577 884.958 1006.22 1303.27 827.069 983.202 1035.01 1091.35 1156.02 956.511 822.745 1149.76
threshold=92.500000000000014 35.000000000000007 40.000000000000007 1.0000000180025095e-35 105.00000000000001 1.0000000180025095e-35 75.000000000000014 35.000000000000007 285.00000000000006 233.00000000000003 183.50000000000003 122.50000000000001 145.00000000000003 440.00000000000006 200.50000000000003
decision_type=2 2 2 2 2 2 2 2 2 2 2 2 2 2 2
left_child=2 -2 3 4 5 6 7 8 9 10 11 13 -11 -1 -15
right_child=1 -3 -4 -5 -6 -7 -8 -9 -10 12 -12 -13 -14 14 -16
leaf_value=0.056108802503308353 -0.63020277779017186 0.14594881786749914 0.40677413940429691 -0.2416090875864029 0.23289527321855227 -0.30059979403018955 0.25315330733678171 -0.30745605556737809 0.18065928725401562 -0.048289425619717302 -0.32469113598699156 0.25461581853032111 -0.49775758787989616 -0.19133503211220515 0.13012375113291619
leaf_count=229 28 26 20 34 48 25 56 21 75 29 23 50 20 97 39
internal_value=0 -5.13 0.473258 0.267837 0.511377 0.211628 0.455119 0.012503 0.242742 -0.276321 0.211285 0.582893 -4.63492 -0.0348359 -1.98304
internal_count=820 54 766 746 712 664 639 583 562 487 438 415 49 365 136
shrinkage=0.05


Tree=45
num_leaves=16
num_cat=0
split_feature=0 66 60 54 48 68 117 81 82 44 147 3 3 51 51
split_gain=1694.17 1590.61 1115.66 1117.76 1005.28 1320.73 1390.83 896.568 1509.68 1835.04 701.106 920.333 1580.17 1234.04 1078.9
threshold=55.000000000000007 115.00000000000001 177.50000000000003 40.000000000000007 65.000000000000014 62.500000000000007 301.00000000000006 37.500000000000007 69.000000000000014 45.000000000000007 42.500000000000007 312.50000000000006 395.00000000000006 212.50000000000003 132.50000000000003
decision_type=2 2 2 2 2 2 2 2 2 2 2 2 2 2 2
left_child=1 2 3 4 5 6 7 10 -9 -10 11 13 -13 14 -1
right_child=-2 -3 -4 -5 -6 -7 -8 8 9 -11 -12 12 -14 -15 -16
leaf_value=0.095820738192350596 -0.45897074171475005 -0.4442946937680245 -0.33576213847035952 0.36094872951507573 0.2609199900884886 -0.3970340660640172 -0.36035925424098969 0.20534401564371019 -0.65467601390112018 -0.036372266922678267 -0.23044334416804105 -0.37801499089290358 0.023122795680537822 0.2155197524074195 -0.14251695849112611
leaf_count=163 21 20 23 23 37 21 25 21 21 28 23 29 160 138 67
internal_value=0 -0.0802195 0.145857 0.354594 0.139204 -0.130811 0.112163 0.393677 -2.98697 -6.02719 0.801686 1.0251 -0.768549 1.9463 0.527839
internal_count=820 799 779 756 733 696 675 650 70 49 580 557 189 368 230
shrinkage=0.05


Tree=46
num_leaves=16
num_cat=0
split_feature=0 66 142 117 48 54 117 120 99 47 3 46 45 45 117
split_gain=1528.99 1435.53 1051.35 1757.06 1275.31 1024.46 1064.98 1300.34 1054.56 793.173 791.849 785.196 890.85 1498.11 1252.73
threshold=55.000000000000007 115.00000000000001 1.0000000180025095e-35 52.500000000000007 45.000000000000007 40.000000000000007 301.00000000000006 65.000000000000014 90.000000000000014 1.0000000180025095e-35 222.50000000000003 7.5000000000000009 22.500000000000004 92.500000000000014 52.500000000000007
decision_type=2 2 2 2 2 2 2 2 2 2 2 2 2 2 2
left_child=1 2 4 -4 5 6 7 8 9 11 -5 12 -1 -14 -15
right_child=-2 -3 3 10 -6 -7 -8 -9 -10 -11 -12 -13 13 14 -16
leaf_value=0.069348858124526791 -0.43602224503244669 -0.42207995444536217 0.2231840489804745 -0.13316053071847331 0.30723123346504416 0.33737169555995777 -0.32217770457267764 0.27267449447377162 -0.31439531026063144 0.28676263665159546 -0.52338939652993133 -0.19994142651557922 -0.37670512447754545 -0.16962478317428328 0.11029497708144942
leaf_count=281 21 20 20 26 38 23 25 44 27 24 26 48 33 69 95
internal_value=0 -0.0762085 0.138564 -3.50184 0.509298 0.189205 -0.0442926 0.213327 -0.18627 0.113265 -6.5655 -0.143252 0.243919 -1.38653 -0.149523
internal_count=820 799 779 72 707 669 646 621 577 550 52 526 478 197 164
shrinkage=0.05


Tree=47
num_leaves=16
num_cat=0
split_feature=0 128 60 48 68 54 44 144 79 44 55 99 3 3 1
split_gain=1379.92 1159.93 1004.52 1150.13 1199.68 720.294 756.816 724.262 953.373 973.706 847.279 860.579 879.549 1545.87 2195.56
threshold=55.000000000000007 1.0000000180025095e-35 177.50000000000003 65.000000000000014 62.500000000000007 40.000000000000007 690.00000000000011 85.000000000000014 225.00000000000003 455.00000000000006 77.500000000000014 32.500000000000007 205.00000000000003 485.00000000000006 19.500000000000004
decision_type=2 2 2 2 2 2 2 2 2 2 2 2 2 2 2
left_child=1 2 3 4 5 6 7 8 9 10 11 12 -1 14 -14
right_child=-2 -3 -4 -5 -6 -7 -8 -9 -10 -11 -12 -13 13 -15 -16
leaf_value=0.034312245437869204 -0.41422110171545123 -0.37960073128342631 -0.31948635785476021 0.28779705352074392 -0.37040740194774813 0.29470124569806189 0.29944884862218585 0.25844850155711174 0.23764322910990035 -0.37383902221918108 0.20605940558971506 -0.30022477322611318 -0.076437726285722526 0.041243685107678174 -0.56395513358361582
leaf_count=301 21 20 23 37 21 22 21 25 35 20 39 29 72 100 34
internal_value=0 -0.0723981 0.12066 0.318727 0.0389264 0.262979 0.0797199 -0.109737 -0.31921 -0.617567 -0.378986 -0.706424 -0.403378 -1.9955 -4.65622
internal_count=820 799 779 756 719 698 676 655 630 595 575 536 507 206 106
shrinkage=0.05


Tree=48
num_leaves=16
num_cat=0
split_feature=0 66 60 60 89 39 127 79 45 51 38 51 45 14 9
split_gain=1245.37 1265.57 911.935 945.417 1635.48 1520.66 1034.79 896.266 945.938 935.722 1504.99 1622.47 1357.58 860.695 884.055
threshold=55.000000000000007 115.00000000000001 177.50000000000003 42.500000000000007 77.500000000000014 22.500000000000004 1.0000000180025095e-35 225.00000000000003 395.00000000000006 200.50000000000003 140.00000000000003 177.50000000000003 232.50000000000003 195.00000000000003 245.00000000000003
decision_type=2 2 2 2 2 2 2 2 2 2 2 2 2 2 2
left_child=1 2 3 4 5 7 -5 8 9 10 11 12 13 14 -1
right_child=-2 -3 -4 6 -6 -7 -8 -9 -10 -11 -12 -13 -14 -15 -16
leaf_value=0.13770472647129803 -0.39351006065096178 -0.39616893932223318 -0.30351203058076948 0.23675912061158352 -0.41244312226772312 -0.321982476058783 -0.10913203646396769 0.23626160872109395 0.2457337267887898 0.075176670356672637 0.33322981866923246 -0.42556457487922733 -0.41826887545378311 -0.31203033910556277 -0.073143068200041503
leaf_count=87 21 20 23 85 24 33 29 47 39 196 22 33 23 22 116
internal_value=0 -0.0687782 0.13288 0.3216 -0.149633 0.1649 2.97539 0.537464 0.171618 -0.199082 -1.30044 -1.92404 -1.04751 -0.299462 0.344405
internal_count=820 799 779 756 642 618 114 585 538 499 303 281 248 225 203
shrinkage=0.05


Tree=49
num_leaves=16
num_cat=0
split_feature=0 66 60 127 60 147 144 99 127 60 51 79 42 108 45
split_gain=1123.95 1142.18 823.022 863.398 1180.89 991.007 918.073 940.677 967.606 858.18 1094.51 705.93 780.785 836.299 998.247
threshold=55.000000000000007 115.00000000000001 177.50000000000003 145.00000000000003 65.000000000000014 42.500000000000007 85.000000000000014 90.000000000000014 17.500000000000004 1.0000000180025095e-35 132.50000000000003 225.00000000000003 335.00000000000006 232.50000000000003 65.000000000000014
decision_type=2 2 2 2 2 2 2 2 2 2 2 2 2 2 2
left_child=1 2 3 4 5 6 7 8 9 11 -11 12 13 -1 -15
right_child=-2 -3 -4 -5 -6 -7 -8 -9 -10 10 -12 -13 -14 14 -16
leaf_value=-0.00139644808355677 -0.37383451575324655 -0.37636049020104112 -0.28833643871804943 -0.2202714249894426 0.23065319492266731 -0.33934047460556033 0.31509105741977694 -0.32288457836423601 0.25195934241864743 0.012937353849411011 -0.40647162592836789 0.21860684014502027 -0.20951984868599821 0.44858578592538834 -0.01237972132537676
leaf_count=356 21 20 23 37 65 20 25 21 41 35 28 42 39 24 23
internal_value=0 -0.0653393 0.126236 0.30552 0.547947 0.143921 0.362556 0.118744 0.353617 0.00241334 -3.46933 0.454314 0.0820324 0.495493 4.46014
internal_count=820 799 779 756 719 654 634 609 588 547 63 484 442 403 47
shrinkage=0.05


Tree=50
num_leaves=16
num_cat=0
split_feature=54 59 117 147 89 141 63 82 46 82 124 22 44 53 45
split_gain=2645.68 1169.82 846.594 716.875 736.352 638.648 675.314 879.89 1719.5 1434.44 1268.47 1555.39 1201.84 1548.51 1212.36
threshold=22.500000000000004 1.0000000180025095e-35 355.00000000000006 42.500000000000007 1.0000000180025095e-35 310.00000000000006 55.000000000000007 82.500000000000014 77.500000000000014 102.50000000000001 125.00000000000001 12.500000000000002 65.000000000000014 60.500000000000007 65.000000000000014
decision_type=2 2 2 2 2 2 2 2 2 2 2 2 2 2 2
left_child=1 2 3 4 5 6 7 10 9 -9 11 -1 13 14 -11
right_child=-2 -3 -4 -5 -6 -7 -8 8 -10 12 -12 -13 -14 -15 -16
leaf_value=0.052605496085387594 -0.44381576861654015 -0.27910685699719651 -0.24375873208045962 -0.18695637927605557 0.32710983670991045 0.31299930673379167 0.19857612790969703 0.34631412177635679 -0.33593931252306164 0.28421874699138461 -0.36241452986231221 -0.41119047853164381 0.16833073267260112 -0.23097152268064433 -0.16738072737403539
leaf_count=188 28 26 22 26 29 26 78 58 22 42 26 20 148 58 23
internal_value=0 1.01454 1.23844 1.41922 1.60601 1.39825 1.20759 0.839071 1.84043 2.41278 -0.66297 0.160195 1.44679 -0.863239 2.48844
internal_count=820 792 766 744 718 689 663 585 351 329 234 208 271 123 65
shrinkage=0.05


Tree=51
num_leaves=16
num_cat=0
split_feature=54 59 117 147 43 56 53 81 82 82 27 117 9 44 1
split_gain=2387.72 1055.76 764.051 646.98 651.68 837.125 1061.73 1238.53 1473.76 1112.64 1400.29 1122.07 1263.46 1227.45 933.632
threshold=22.500000000000004 1.0000000180025095e-35 355.00000000000006 42.500000000000007 105.00000000000001 1.0000000180025095e-35 355.00000000000006 22.500000000000004 427.50000000000006 86.500000000000014 12.500000000000002 152.50000000000003 105.00000000000001 27.500000000000004 135.00000000000003
decision_type=2 2 2 2 2 2 2 2 2 2 2 2 2 2 2
left_child=1 2 3 4 5 6 7 8 9 10 11 12 -1 -14 -11
right_child=-2 -3 -4 -5 -6 -7 -8 -9 -10 14 -12 -13 13 -15 -16
leaf_value=0.24837260680222834 -0.42162499172346934 -0.26515151743705456 -0.23157080073248257 -0.17760856839326711 0.24332256496504501 0.35907947446988975 -0.21569584710257395 0.25488850304058625 -0.30626974979351307 0.16498432883329817 -0.28994408771395686 -0.17843384315138278 -0.36808186485653832 0.093257133533125341 -0.10515153440269265
leaf_count=74 28 26 22 26 54 23 35 77 29 236 40 46 21 46 37
internal_value=0 0.963809 1.17652 1.34826 1.52571 1.25403 1.04134 1.35064 0.805211 1.20719 -0.428726 0.719971 2.1191 -1.02683 2.56745
internal_count=820 792 766 744 718 664 641 606 529 500 227 187 141 67 273
shrinkage=0.05


Tree=52
num_leaves=16
num_cat=0
split_feature=54 63 99 70 10 108 61 60 5 51 3 170 82 117 18
split_gain=2154.92 894.633 808.243 810.837 780.802 844.791 970.129 1112.53 1745.88 1374.91 1053.25 986.559 840.485 794.965 825.606
threshold=22.500000000000004 55.000000000000007 90.000000000000014 90.000000000000014 55.000000000000007 382.50000000000006 32.500000000000007 1.0000000180025095e-35 1.0000000180025095e-35 132.50000000000003 132.50000000000003 75.000000000000014 182.50000000000003 142.50000000000003 45.000000000000007
decision_type=2 2 2 2 2 2 2 2 2 2 2 2 2 2 2
left_child=1 2 3 4 5 6 7 11 9 -9 -11 12 13 14 -1
right_child=-2 -3 -4 -5 -6 -7 -8 8 -10 10 -12 -13 -14 -15 -16
leaf_value=-0.14132258280597884 -0.40054371953010559 0.19058929379395351 -0.23214125016639972 -0.22589298401560104 0.18128198250343927 0.22404218322160296 0.28706690843763022 0.2649003897721951 -0.49927653692386764 0.002922045658616459 -0.43517498652572217 0.3062343796094259 0.13202721968293191 -0.19613911802806552 0.091089087032014515
leaf_count=58 28 94 29 28 95 49 29 26 27 34 23 30 95 63 112
internal_value=0 0.915618 0.52559 0.749632 0.979725 0.519355 0.128786 -0.219 -3.0005 -0.728257 -3.47708 0.635649 0.133603 -0.88854 0.235914
internal_count=820 792 698 669 641 546 497 468 110 83 57 358 328 233 170
shrinkage=0.05


Tree=53
num_leaves=16
num_cat=0
split_feature=54 63 51 117 99 23 82 46 44 82 44 9 62 186 2
split_gain=1944.81 807.406 766.517 1090.36 729.439 774.939 1087.07 1292.53 1097.19 889.331 918.424 1680.85 833.937 841.736 808.8
threshold=22.500000000000004 55.000000000000007 129.00000000000003 62.500000000000007 90.000000000000014 45.000000000000007 82.500000000000014 72.500000000000014 511.50000000000006 102.50000000000001 65.000000000000014 405.00000000000006 205.00000000000003 52.500000000000007 182.50000000000003
decision_type=2 2 2 2 2 2 2 2 2 2 2 2 2 2 2
left_child=1 4 -3 -4 5 6 12 8 9 -8 11 14 13 -1 -11
right_child=-2 2 3 -5 -6 -7 7 -9 -10 10 -12 -13 -14 -15 -16
leaf_value=-0.093890630363303931 -0.38051652993474688 0.32083347737789158 0.2786406610323035 -0.20822253112235797 -0.22053418241698167 -0.23200685662718923 0.32701910703667791 -0.24531006884574891 -0.22337048479488919 -0.25491757624003353 0.19379997946471977 0.2573324509138285 0.20580956384991156 0.21838199074069659 0.0858964567107183
leaf_count=214 28 48 23 23 29 26 58 25 21 49 149 43 33 24 27
internal_value=0 0.869837 3.6212 0.704181 0.49931 0.71215 0.928572 2.03835 2.53868 2.98999 2.22162 0.150175 -0.594813 -1.24802 -2.67678
internal_count=820 792 94 46 698 669 643 372 347 326 268 119 271 238 76
shrinkage=0.05


Tree=54
num_leaves=16
num_cat=0
split_feature=54 59 117 147 89 186 43 56 62 62 85 22 22 25 79
split_gain=1755.2 911.466 676.911 580.391 675.666 537.452 637.273 815.166 632.071 922.107 773.221 726.845 933.346 1260.6 1166.18
threshold=22.500000000000004 14.000000000000002 355.00000000000006 42.500000000000007 1.0000000180025095e-35 52.500000000000007 105.00000000000001 1.0000000180025095e-35 455.00000000000006 355.00000000000006 17.500000000000004 85.000000000000014 27.000000000000004 45.000000000000007 255.00000000000003
decision_type=2 2 2 2 2 2 2 2 2 2 2 2 2 2 2
left_child=1 2 3 4 5 6 7 8 9 10 11 12 13 -1 -15
right_child=-2 -3 -4 -5 -6 -7 -8 -9 -10 -11 -12 -13 -14 14 -16
leaf_value=0.10606575515158326 -0.36149069411414014 -0.26210857766369977 -0.22254692735997114 -0.17322107943204734 0.30367510729822622 0.18762539786771992 0.21939296486212856 0.33363468618620012 -0.21968270760995373 0.33795683021130773 -0.24112136968012368 0.31684621260279705 -0.26366638009037291 -0.11701289383219737 0.28033645351727804
leaf_count=251 28 24 22 26 29 71 47 21 27 23 28 21 28 153 21
internal_value=0 0.826345 1.01599 1.17721 1.34482 1.14637 0.847925 0.557564 0.324923 0.567593 0.283917 0.585557 0.318938 0.687369 -1.38114
internal_count=820 792 768 746 720 691 620 573 552 525 502 474 453 425 174
shrinkage=0.05


Tree=55
num_leaves=16
num_cat=0
split_feature=53 18 68 44 3 167 3 45 118 42 82 3 3 27 45
split_gain=1669.43 6674.23 1458.88 1402.98 1343.17 1188.55 1137.93 1012.28 985.166 857.832 1724.7 1401 2856.3 1264.22 1168.18
threshold=187.50000000000003 155.00000000000003 1.0000000180025095e-35 45.000000000000007 84.000000000000014 1.0000000180025095e-35 145.00000000000003 155.00000000000003 65.000000000000014 95.000000000000014 182.50000000000003 432.50000000000006 212.50000000000003 104.00000000000001 52.500000000000007
decision_type=2 2 2 2 2 2 2 2 2 2 2 2 2 2 2
left_child=2 3 5 4 -2 8 -4 -5 9 13 11 12 -11 14 -1
right_child=1 -3 6 7 -6 -7 -8 -9 -10 10 -12 -13 -14 -15 -16
leaf_value=-0.048133939886692824 -0.45508952935536701 -1.0273443332314491 -0.55175847142934797 0.22880008650601519 0.059268574653701347 0.36413523912429813 -0.018390551805496216 -0.19331642627716064 0.32645573491851487 -0.08394235992538078 0.17143125467534578 0.079023620749221132 -0.58986791261495686 0.3927606736421585 0.15041662361472846
leaf_count=205 30 20 20 49 22 25 20 20 24 98 56 51 39 25 116
internal_value=0 -3.62423 0.157125 -0.827091 -4.74953 0.523861 -5.70149 2.12895 0.248664 -0.00681212 -1.44269 -2.89372 -4.5593 1.00577 0.472328
internal_count=820 141 679 121 52 639 40 69 614 590 244 188 137 346 321
shrinkage=0.05


Tree=56
num_leaves=16
num_cat=0
split_feature=53 18 68 44 3 167 3 45 51 117 120 96 42 77 96
split_gain=1506.66 6023.49 1316.64 1266.19 1212.21 1072.67 1026.98 913.585 857.617 773.924 984.892 903.831 918.911 1223.27 1123.32
threshold=187.50000000000003 155.00000000000003 1.0000000180025095e-35 45.000000000000007 84.000000000000014 1.0000000180025095e-35 145.00000000000003 155.00000000000003 295.00000000000006 301.00000000000006 75.000000000000014 152.50000000000003 72.500000000000014 160.00000000000003 1.0000000180025095e-35
decision_type=2 2 2 2 2 2 2 2 2 2 2 2 2 2 2
left_child=2 3 5 4 -2 9 -4 8 -5 10 11 12 13 14 -1
right_child=1 -3 6 7 -6 -7 -8 -9 -10 -11 -12 -13 -14 -15 -16
leaf_value=0.12181450999058459 -0.43233505129814154 -0.97597711727023118 -0.5241705369949341 0.4223130412101746 0.056305148520252923 0.34592847871780397 -0.017471023797988892 -0.18365060806274414 0.0038674192192653814 -0.25514280956525071 0.31301038531320441 0.23514735829539415 -0.086576247320948471 -0.32963924974203113 -0.13967385315895081
leaf_count=230 30 20 20 25 22 25 20 20 24 26 28 41 219 20 50
internal_value=0 -3.44301 0.149268 -0.785737 -4.51205 0.497668 -5.41642 2.0225 4.3472 0.236231 0.472313 0.182918 -0.174156 0.962724 1.5024
internal_count=820 141 679 121 52 639 40 69 49 614 588 560 519 300 280
shrinkage=0.05


Tree=57
num_leaves=16
num_cat=0
split_feature=54 53 18 68 167 82 44 117 120 47 82 63 10 108 18
split_gain=1417 1250.71 5365.05 1041.23 1048.99 1015.56 1515.45 920.606 965.589 918.538 878.672 850.569 1210.99 1580.33 1381.91
threshold=40.000000000000007 187.50000000000003 155.00000000000003 1.0000000180025095e-35 1.0000000180025095e-35 232.50000000000003 65.000000000000014 301.00000000000006 75.000000000000014 1.0000000180025095e-35 142.50000000000003 242.50000000000003 1.0000000180025095e-35 1.0000000180025095e-35 172.50000000000003
decision_type=2 2 2 2 2 2 2 2 2 2 2 2 2 2 2
left_child=1 3 5 4 7 10 -7 8 9 11 -3 12 13 14 -1
right_child=-2 2 -4 -5 -6 6 -8 -9 -10 -11 -12 -13 -14 -15 -16
leaf_value=-0.1541182515923113 0.37360690290277659 -0.067821775612078222 -0.92717825083062066 -0.25500598351160686 0.32863205885887148 -0.47756704533329375 0.057255333303301431 -0.2989560141563416 0.29735986334936965 0.29225170052051547 0.30131272737468995 -0.32227147194472228 0.16481584361914933 0.18748475890606642 0.058315118687308355
leaf_count=229 22 38 20 39 25 26 27 25 28 25 28 22 87 64 115
internal_value=0 -0.663275 -3.38919 -0.0883088 0.22695 -0.842239 -4.10221 -0.0396754 0.220827 -0.0750007 1.77561 -0.361269 -0.0908621 -0.813128 -1.66203
internal_count=820 798 139 659 620 119 53 595 570 542 66 517 495 408 344
shrinkage=0.05


Tree=58
num_leaves=16
num_cat=0
split_feature=54 82 60 68 82 62 18 42 51 2 59 1 45 9 44
split_gain=1278.85 1201.32 5383.01 1378.61 1117.45 1947.45 1572.82 1176.09 1115.27 995.364 858.434 775.949 700.532 684.383 644.256
threshold=40.000000000000007 52.500000000000007 47.500000000000007 1.0000000180025095e-35 27.500000000000004 55.000000000000007 147.50000000000003 47.500000000000007 35.000000000000007 122.50000000000001 1.0000000180025095e-35 255.00000000000003 395.00000000000006 555.00000000000011 45.000000000000007
decision_type=2 2 2 2 2 2 2 2 2 2 2 2 2 2 2
left_child=1 2 4 10 7 6 -6 9 13 -1 11 12 14 -9 -3
right_child=-2 3 -4 -5 5 -7 -8 8 -10 -11 -12 -13 -14 -15 -16
leaf_value=0.2516380256130582 0.35492655255577787 -0.03122307281422464 -0.90612874537706378 -0.31624338984489442 -0.6052466027438641 0.13234336257779175 -0.056060347231951628 0.24594514377060392 -0.34540491099610476 -0.09828412927687169 -0.25263858950138091 -0.20717567886625018 0.31102943497675439 -0.1412401076182723 0.09717279173637508
leaf_count=63 22 158 20 30 32 28 22 21 33 30 25 28 27 25 256
internal_value=0 -0.630111 -2.32686 0.257122 -1.08311 -4.12088 -7.63008 0.365134 -2.47203 2.7752 0.656838 0.961188 1.2853 0.710368 0.963429
internal_count=820 798 274 524 254 82 54 172 79 93 494 469 441 46 414
shrinkage=0.05


Tree=59
num_leaves=16
num_cat=0
split_feature=53 18 44 3 68 3 167 118 83 45 0 44 47 45 39
split_gain=1217.36 4923.96 1011.57 1039.33 989.025 944.859 877.723 833.92 846.125 798.866 786.587 853.597 782.943 859.515 976.652
threshold=187.50000000000003 155.00000000000003 45.000000000000007 84.000000000000014 1.0000000180025095e-35 145.00000000000003 1.0000000180025095e-35 65.000000000000014 27.500000000000004 155.00000000000003 1.0000000180025095e-35 690.00000000000011 1.0000000180025095e-35 395.00000000000006 12.500000000000002
decision_type=2 2 2 2 2 2 2 2 2 2 2 2 2 2 2
left_child=4 2 3 -2 6 -6 7 8 10 -4 11 12 13 14 -1
right_child=1 -3 9 -5 5 -7 -8 -9 -10 -11 -12 -13 -14 -15 -16
leaf_value=-0.057909748852086655 -0.39159962852795921 -0.88053814962506294 0.20055130686686962 0.060856465707448397 -0.4765187507867813 0.0095005762577056885 0.31318943023681645 0.29986801221966747 0.31885840803384785 -0.17443773329257967 0.29600109010934833 -0.33584670438652947 0.27450705954562066 0.21902968655614294 0.26948090915878614
leaf_count=448 30 20 49 22 20 20 25 24 20 20 20 21 23 34 24
internal_value=0 -3.07541 -0.672874 -4.00352 0.153616 -4.67018 0.455575 0.219084 -0.0159642 1.83718 -0.240285 -0.464296 -0.216081 -0.475455 -0.825255
internal_count=820 141 121 52 679 40 639 614 590 69 570 550 529 506 472
shrinkage=0.05


Tree=60
num_leaves=16
num_cat=0
split_feature=183 83 54 61 0 124 68 49 120 124 45 124 3 3 5
split_gain=1084.54 1130.9 1937.6 1027.13 1230.15 1132.33 1345.24 1248.57 1461.02 1228.73 874.314 639.15 990.251 926.143 1258.95
threshold=1.0000000180025095e-35 1.0000000180025095e-35 22.500000000000004 7.5000000000000009 1.0000000180025095e-35 165.00000000000003 45.000000000000007 135.00000000000003 65.000000000000014 125.00000000000001 35.000000000000007 45.000000000000007 122.50000000000001 104.00000000000001 155.00000000000003
decision_type=2 2 2 2 2 2 2 2 2 2 2 2 2 2 2
left_child=1 2 3 4 5 6 7 8 9 11 -5 13 -13 -1 -15
right_child=-2 -3 -4 10 -6 -7 -8 -9 -10 -11 -12 12 -14 14 -16
leaf_value=0.055057919727116038 0.2030793331428008 0.27946626605658698 -0.47150276470184327 -0.45147843408584598 0.3692657822654361 0.18908415254900013 -0.37892504291875023 -0.34904302273477827 0.32659965347378489 -0.36880565810203558 -0.028978991229087116 -0.049080673827911203 0.43197786490432916 -0.15772834586350051 0.11172633691315066
leaf_count=189 55 29 25 25 21 59 28 28 31 25 24 23 20 181 57
internal_value=0 -0.53588 -0.777226 -0.472977 -0.145979 -0.392714 -0.815891 -0.474099 -0.127731 -0.544805 -4.8908 -0.181437 3.49335 -0.551498 -1.8639
internal_count=820 765 736 711 662 641 582 554 526 495 49 470 43 427 238
shrinkage=0.05


Tree=61
num_leaves=16
num_cat=0
split_feature=145 54 49 2 186 47 42 61 108 3 117 44 70 151 108
split_gain=1247.39 1978.2 981.561 2456.69 2647.95 1009.72 1006.89 879.669 1290.95 908.697 1462.89 1524.04 1149.55 1010.44 916.601
threshold=35.000000000000007 22.500000000000004 35.000000000000007 103.50000000000001 12.000000000000002 1.0000000180025095e-35 22.500000000000004 7.5000000000000009 739.50000000000011 132.50000000000003 192.50000000000003 242.50000000000003 1.0000000180025095e-35 67.500000000000014 210.00000000000003
decision_type=2 2 2 2 2 2 2 2 2 2 2 2 2 2 2
left_child=1 2 5 4 6 7 -4 8 9 13 12 -12 14 -1 -11
right_child=-2 -3 3 -5 -6 -7 -8 -9 -10 10 11 -13 -14 -15 -16
leaf_value=0.055711949691859955 0.36060369231484157 -0.45001519918441774 -0.82496755009605782 0.15347094957421467 0.087127400740333233 0.28981296443380417 -0.329256449341774 -0.21639804652957029 -0.36719020207722985 -0.14394830103225753 0.44747885694106426 -0.093502199325872504 0.26118170541265739 0.31594901489714783 0.1765671925544739
leaf_count=218 22 26 21 41 23 32 20 43 21 207 30 23 23 45 25
internal_value=0 -0.420925 -0.131982 -2.97394 -6.84547 0.315403 -11.6631 0.0392024 0.356412 0.639607 -0.526112 4.25427 -1.51968 2.00478 -2.1882
internal_count=820 798 772 105 64 667 41 635 592 571 308 53 255 263 232
shrinkage=0.05


Tree=62
num_leaves=16
num_cat=0
split_feature=183 83 54 186 49 51 70 68 38 42 117 3 52 18 5
split_gain=974.75 1020.02 1606.51 948.25 2567.06 2387.38 1307.3 1412.53 1157.95 790.038 1037.82 1017.95 1186.27 2390.77 1085.66
threshold=1.0000000180025095e-35 1.0000000180025095e-35 22.500000000000004 21.500000000000004 35.000000000000007 212.50000000000003 1.0000000180025095e-35 62.500000000000007 42.500000000000007 225.00000000000003 265.00000000000006 132.50000000000003 45.000000000000007 65.000000000000014 155.00000000000003
decision_type=2 2 2 2 2 2 2 2 2 2 2 2 2 2 2
left_child=1 2 3 4 6 -6 7 9 -5 10 11 14 -13 -14 -1
right_child=-2 -3 -4 8 5 -7 -8 -9 -10 -11 -12 12 13 -15 -16
leaf_value=0.13316125611179613 0.19304365005682816 0.265975703864262 -0.43029057407379157 0.15012088824510575 -0.65625369008630519 -0.024057168194225858 0.33003692076756408 -0.44533696651458743 -0.23591423630714417 -0.1789507515495643 0.29312205890814463 -0.01780671039878419 -0.63595934922878561 0.056080829833323756 -0.1704895266407245
leaf_count=144 55 29 25 125 32 28 26 20 23 64 30 132 26 24 37
internal_value=0 -0.497672 -0.726882 -0.449845 -1.04196 -7.22457 -0.304467 -0.680851 1.80258 -0.320856 0.209734 -0.257431 -1.92742 -6.0756 1.42178
internal_count=820 765 736 711 563 60 503 477 148 457 393 363 182 50 181
shrinkage=0.05


Tree=63
num_leaves=16
num_cat=0
split_feature=145 54 43 49 2 186 42 47 61 108 10 3 117 14 5
split_gain=1155.63 1647.43 894.599 894.124 2029.64 2469.54 1193.64 986.783 1122.09 1093.72 1124.01 1154.75 2244.66 1141.97 969.094
threshold=35.000000000000007 22.500000000000004 105.00000000000001 35.000000000000007 122.50000000000001 12.000000000000002 22.500000000000004 1.0000000180025095e-35 7.5000000000000009 739.50000000000011 65.000000000000014 132.50000000000003 242.50000000000003 22.500000000000004 677.50000000000011
decision_type=2 2 2 2 2 2 2 2 2 2 2 2 2 2 2
left_child=1 2 3 7 5 6 -5 8 9 10 11 14 -13 -12 -1
right_child=-2 -3 -4 4 -6 -7 -8 -9 -10 -11 13 12 -14 -15 -16
leaf_value=0.11573806497456625 0.3477363547140902 -0.41107529218380273 0.18983943475134396 -0.84368227005004892 0.12950723594740818 0.079662395171497188 -0.29741412520408633 0.27630931481478677 -0.2758983818323989 -0.3487917548134214 0.33050869460783755 -0.14262707464468594 0.34195313277067962 -0.10758673236483621 -0.18191500208340586
leaf_count=188 22 26 54 20 38 23 20 31 38 21 51 208 27 21 32
internal_value=0 -0.392176 -0.128494 -0.42371 -3.18186 -6.66339 -11.411 0.0277869 -0.263084 0.101306 0.383317 -0.197636 -1.73904 4.05462 1.44886
internal_count=820 798 772 718 101 63 40 617 586 548 527 455 235 72 220
shrinkage=0.05


Tree=64
num_leaves=16
num_cat=0
split_feature=145 54 43 49 2 51 70 120 61 3 1 117 10 5 38
split_gain=1042.96 1486.81 807.376 806.947 1831.75 2332.75 942.61 898.201 985.492 1364.65 1643.83 2673.22 1166.45 1032.4 976.173
threshold=35.000000000000007 22.500000000000004 105.00000000000001 35.000000000000007 122.50000000000001 295.00000000000006 1.0000000180025095e-35 65.000000000000014 7.5000000000000009 132.50000000000003 215.00000000000003 265.00000000000006 65.000000000000014 522.50000000000011 155.00000000000003
decision_type=2 2 2 2 2 2 2 2 2 2 2 2 2 2 2
left_child=1 2 3 6 5 -5 7 8 9 13 11 12 -11 14 -1
right_child=-2 -3 -4 4 -6 -7 -8 -9 -10 10 -12 -13 -14 -15 -16
leaf_value=0.15362939967117351 0.33034953691742641 -0.39052153367262621 0.18034746125340462 -0.58000171482563023 0.12303187329518168 0.034809391807626794 0.22711532947628998 0.23765084560621871 -0.28010750147136482 -0.15634232380236035 -0.52626185059547426 0.43519879341125489 0.17431747509587198 -0.18956430475227537 -0.1988822520456531
leaf_count=183 22 26 54 36 38 27 43 33 37 191 20 25 31 32 22
internal_value=0 -0.372567 -0.122069 -0.402525 -3.02277 -6.33022 0.0263975 -0.311902 -0.620853 -0.255163 -1.80545 -1.0994 -2.20338 1.49137 2.31598
internal_count=820 798 772 718 101 63 617 574 541 504 267 247 222 237 205
shrinkage=0.05


Tree=65
num_leaves=16
num_cat=0
split_feature=54 22 18 186 9 81 117 124 39 38 142 14 42 117 18
split_gain=1604.55 1247.65 1146.08 1451.35 2136.2 1141.84 1104.35 1237.12 1223.51 1277.21 1630.73 1474.69 1040.78 932.222 896.238
threshold=40.000000000000007 35.000000000000007 510.00000000000006 85.000000000000014 235.00000000000003 95.000000000000014 77.500000000000014 115.00000000000001 1.0000000180025095e-35 82.500000000000014 72.500000000000014 151.00000000000003 152.50000000000003 92.500000000000014 45.000000000000007
decision_type=2 2 2 2 2 2 2 2 2 2 2 2 2 2 2
left_child=1 2 3 5 -5 6 7 12 9 10 11 13 -1 -8 -15
right_child=-2 -3 -4 4 -6 -7 8 -9 -10 -11 -12 -13 -14 14 -16
leaf_value=0.14686893166633705 0.39091763595740003 0.16455700186234487 0.26309601397349919 -0.64219004644453526 0.033361137997020375 -0.32924331333488227 -0.47313233841033214 -0.24487431030119622 0.1882171112137872 0.13582075848135838 -0.54227260637283325 0.28233224735373547 -0.10247696966484741 -0.010978724695341563 -0.2276712202448018
leaf_count=186 24 79 29 25 22 32 21 31 37 43 25 21 54 93 98
internal_value=0 -0.480556 -0.896127 -1.1557 -6.51949 -0.762406 -0.456464 1.04744 -1.66225 -2.32931 -3.17026 -2.34675 1.81532 -3.13855 -2.44323
internal_count=820 796 717 688 47 641 609 271 338 301 258 233 240 212 191
shrinkage=0.05


Tree=66
num_leaves=16
num_cat=0
split_feature=54 22 170 113 60 151 53 68 42 45 2 25 18 42 9
split_gain=1448.1 1126.01 1038.62 1233.63 1229.25 4414.13 1443.11 1213.09 1115.03 1030.02 802.518 1003.4 1141.7 1707.22 959.23
threshold=40.000000000000007 35.000000000000007 175.00000000000003 105.00000000000001 12.500000000000002 67.500000000000014 92.500000000000014 1.0000000180025095e-35 47.500000000000007 505.00000000000006 390.00000000000006 27.500000000000004 210.00000000000003 265.00000000000006 502.50000000000006
decision_type=2 2 2 2 2 2 2 2 2 2 2 2 2 2 2
left_child=1 2 3 4 7 6 8 9 -6 10 11 12 13 14 -1
right_child=-2 -3 -4 -5 5 -7 -8 -9 -10 -11 -12 -13 -14 -15 -16
leaf_value=0.10748045463114977 0.37137175202369693 0.15632915009591211 0.21181298831575798 0.20239031342572944 -0.39579783807907787 -0.75519581961220705 0.16415564501008323 -0.38603581339120868 0.052358504481937573 0.32947993338108067 -0.32492711375588956 -0.1188809970752841 0.24532728512894431 -0.36370927081753812 -0.1510688945806275
leaf_count=142 24 79 38 43 35 29 43 24 23 20 23 166 53 30 48
internal_value=0 -0.456528 -0.85132 -1.13604 -1.48653 -4.22933 -1.10693 -0.781852 -4.36161 -0.436348 -0.740501 -0.438827 0.740072 -0.263669 0.843254
internal_count=820 796 717 679 636 130 101 506 58 482 462 439 273 220 190
shrinkage=0.05


Tree=67
num_leaves=16
num_cat=0
split_feature=54 59 0 10 10 62 49 42 2 99 46 148 53 96 117
split_gain=1306.91 1093.57 940.547 844.256 1781.82 874.966 921.494 1899.15 1115.59 769.225 890.819 1070.56 848.251 762.517 1186.53
threshold=40.000000000000007 14.000000000000002 55.000000000000007 190.00000000000003 312.50000000000006 285.00000000000006 1.0000000180025095e-35 145.00000000000003 72.500000000000014 90.000000000000014 55.000000000000007 87.500000000000014 345.00000000000006 1.0000000180025095e-35 128.00000000000003
decision_type=2 2 2 2 2 2 2 2 2 2 2 2 2 2 2
left_child=1 2 3 5 -5 6 9 8 -8 10 11 12 13 -1 -15
right_child=-2 -3 -4 4 -6 -7 7 -9 -10 -11 -12 -13 -14 14 -16
leaf_value=0.014428114884033583 0.35280316968758907 -0.37770762159710841 -0.30767837906113038 -0.45273905500769618 0.10185655291591372 0.15038324656151236 -0.54206929653882985 0.17398618658383688 -0.079224809356357742 -0.28116569178445 -0.2513106953214716 -0.29625923145901073 0.37928044438362124 0.071314722618886411 0.51996426701545717
leaf_count=345 24 21 26 30 28 100 30 27 23 21 27 22 20 56 20
internal_value=0 -0.433702 -0.240761 -0.0355097 -3.70006 0.27208 -0.190794 -3.34666 -6.82425 0.303274 0.55727 0.882873 1.2225 0.920219 3.78761
internal_count=820 796 775 749 58 691 591 80 53 511 490 463 441 421 76
shrinkage=0.05


Tree=68
num_leaves=16
num_cat=0
split_feature=54 59 170 22 43 43 18 113 120 124 117 63 53 10 1
split_gain=1179.49 986.945 1320.43 937.208 1049.87 4251.58 1074.44 1023.09 1029.5 1280.46 1097.52 1100.26 882.721 880.961 1102.47
threshold=40.000000000000007 14.000000000000002 75.000000000000014 35.000000000000007 135.00000000000003 85.000000000000014 185.00000000000003 1.0000000180025095e-35 1.0000000180025095e-35 172.50000000000003 212.50000000000003 183.50000000000003 35.000000000000007 55.000000000000007 12.500000000000002
decision_type=2 2 2 2 2 2 2 2 2 2 2 2 2 2 2
left_child=1 2 3 4 5 6 7 8 9 10 11 13 -4 14 -1
right_child=-2 -3 12 -5 -6 -7 -8 -9 -10 -11 -12 -13 -14 -15 -16
leaf_value=-0.063974101279463097 0.33516300519307457 -0.35882224681831543 0.37607059487274719 0.14499888468695724 0.21748190026198114 -0.70266829884052284 0.080680393181384022 0.17962823228703606 0.14922648166355335 0.22126564304530622 -0.41900458186864853 -0.46038970947265628 -0.017631922600169977 0.11516254017519396 -0.30121153527322941
leaf_count=175 24 21 35 69 35 25 146 36 38 25 34 22 24 43 68
internal_value=0 -0.412017 -0.228723 -0.603416 -0.97704 -1.28167 -0.737731 -1.51618 -1.97029 -2.48332 -2.98834 -2.39315 4.31841 -1.86894 -2.60723
internal_count=820 796 775 716 647 612 587 441 405 367 342 308 59 286 243
shrinkage=0.05


Tree=69
num_leaves=16
num_cat=0
split_feature=54 22 186 9 81 10 3 39 62 170 117 142 117 86 120
split_gain=1064.49 895.82 938.634 1585.24 1010.9 1025.95 1790.8 1165.85 801.328 766.547 787.908 1142.12 1223.75 1209.23 709.919
threshold=40.000000000000007 35.000000000000007 85.000000000000014 384.50000000000006 95.000000000000014 190.00000000000003 305.00000000000006 65.000000000000014 205.00000000000003 110.00000000000001 65.500000000000014 72.500000000000014 92.500000000000014 1.0000000180025095e-35 1.0000000180025095e-35
decision_type=2 2 2 2 2 2 2 2 2 2 2 2 2 2 2
left_child=1 2 4 -4 5 7 -7 8 9 10 14 12 -12 -14 -1
right_child=-2 -3 3 -5 -6 6 -8 -9 -10 -11 11 -13 13 -15 -16
leaf_value=-0.0067278028837318635 0.31840485831101739 0.14022664838953863 -0.46781723307025047 0.10314404010772704 -0.29113966682643605 -0.49988775298827232 0.10782540305094286 0.36005791892176092 0.12920281349044099 0.22845240632692973 -0.39445014550135687 -0.45163386328653854 -0.072482435872037732 0.33905710265040401 0.29388981217687782
leaf_count=183 24 79 31 20 33 27 22 23 95 27 26 22 166 20 22
internal_value=0 -0.391416 -0.74355 -4.87822 -0.426931 -0.14563 -4.54074 0.223137 -0.0629491 -0.602575 -0.920647 -2.17458 -1.46289 -0.564617 0.510672
internal_count=820 796 717 51 666 633 49 584 561 466 439 234 212 186 205
shrinkage=0.05


Tree=70
num_leaves=16
num_cat=0
split_feature=54 151 141 49 123 117 82 44 42 10 82 63 51 51 51
split_gain=1260.2 1064.02 934.681 846.957 1364.65 865.73 833.623 703.213 954.514 870.209 1002.52 809.252 719.794 1403.53 1982.64
threshold=22.500000000000004 105.00000000000001 345.00000000000006 1.0000000180025095e-35 47.500000000000007 107.50000000000001 46.500000000000007 102.50000000000001 95.000000000000014 27.500000000000004 37.500000000000007 90.000000000000014 252.50000000000003 129.00000000000003 97.500000000000014
decision_type=2 2 2 2 2 2 2 2 2 2 2 2 2 2 2
left_child=1 2 3 7 5 -5 -3 11 9 10 -9 12 13 14 -1
right_child=-2 6 -4 4 -6 -7 -8 8 -10 -11 -12 -13 -14 -15 -16
leaf_value=-0.11485128663480282 -0.31757836999564337 0.28419188177376464 0.30008366652156998 -0.096903061299096982 0.038139454457494948 -0.51844183504581454 0.050678709708154204 -0.15770782518386842 -0.031245718804890649 0.47463144510984423 0.22009005213187913 -0.32860189305890042 0.077391463749617057 -0.2701813421226465 0.40291820042408433
leaf_count=64 29 57 23 21 45 29 116 25 114 20 59 24 103 65 26
internal_value=0 0.360248 -0.253394 -0.495186 -3.23232 -6.82791 2.55233 0.0248685 1.37369 3.56447 2.153 -1.01784 -0.501169 -1.86276 0.694531
internal_count=820 791 618 595 95 50 173 500 218 104 84 282 258 155 90
shrinkage=0.05


Tree=71
num_leaves=16
num_cat=0
split_feature=43 18 141 66 80 63 14 117 117 9 53 9 108 10 46
split_gain=1181.11 4121.66 1000.38 1013.24 977.232 1058.3 1361.54 969.327 920.42 1443.92 1051.89 1126.79 917.243 909.137 787.727
threshold=45.000000000000007 165.00000000000003 110.00000000000001 115.00000000000001 27.500000000000004 295.00000000000006 235.00000000000003 132.50000000000003 285.00000000000006 637.50000000000011 115.00000000000001 245.00000000000003 275.00000000000006 122.50000000000001 35.000000000000007
decision_type=2 2 2 2 2 2 2 2 2 2 2 2 2 2 2
left_child=2 -2 3 4 5 6 7 12 9 10 11 -9 13 14 -1
right_child=1 -3 -4 -5 -6 -7 -8 8 -10 -11 -12 -13 -14 -15 -16
leaf_value=0.014302863576998212 0.0050674887593178189 -0.77717231504973916 0.20847118899858158 -0.33215458563395911 0.29461619392518074 -0.32588037919739021 0.3735323755213848 0.031534736584394409 0.150752887027017 0.15439052108143059 -0.49345531747826654 -0.38865906022213126 0.3016259773168713 0.24681369304656983 -0.30988318234682088
leaf_count=297 85 21 70 21 31 23 26 39 29 28 31 27 32 40 20
internal_value=0 -2.99809 0.57916 0.188914 0.419206 0.132607 0.401421 0.0629311 -2.06056 -3.2381 -5.06413 -2.80725 0.903592 0.443856 -0.12301
internal_count=820 106 714 644 623 592 569 543 154 125 97 66 389 357 317
shrinkage=0.05


Tree=72
num_leaves=16
num_cat=0
split_feature=54 151 59 2 2 49 42 123 127 124 82 82 27 53 42
split_gain=1151.07 950.422 1003.83 846.977 1080.64 1076.33 1387.69 1715.42 862.134 984.079 755.312 690.323 630.185 794.259 615.1
threshold=22.500000000000004 105.00000000000001 1.0000000180025095e-35 410.00000000000006 205.00000000000003 1.0000000180025095e-35 115.00000000000001 47.500000000000007 12.000000000000002 45.000000000000007 46.500000000000007 75.500000000000014 27.500000000000004 35.000000000000007 302.50000000000006
decision_type=2 2 2 2 2 2 2 2 2 2 2 2 2 2 2
left_child=1 2 3 4 5 8 7 -7 14 -10 -3 -6 13 -12 -1
right_child=-2 10 -4 -5 11 6 -8 -9 9 -11 12 -13 -14 -15 -16
