tree
version=v2
num_class=1
num_tree_per_iteration=1
label_index=0
max_feature_idx=192
objective=regression
feature_names=111 112 113 114 115 120 121 122 123 124 131 132 141 142 151 152 190 192 211 212 213 221 222 311 312 313 314 315 321 322 331 332 341 351 352 391 392 393 411 412 413 414 421 422 431 432 441 442 443 444 445 451 452 453 454 460 471 472 473 480 510 520 611 612 613 619 621 622 623 629 631 632 633 639 641 642 643 650 661 662 710 720 811 812 813 814 821 822 823 831 832 833 841 842 843 890 911 912 913 921 922 923 931 932 933 942 943 990 1011 1012 1013 1021 1022 1030 1040 1050 1090 1111 1112 1121 1122 1131 1141 1211 1212 1213 1214 1221 1222 1223 1230 1241 1242 1243 1290 1293 1310 1311 1312 1313 1330 1410 1419 1421 1422 1423 1510 1521 1522 1523 1524 1525 1530 1531 1532 1533 1534 1610 1619 1620 1640 1650 1661 1662 1670 1680 1690 1711 1712 1713 1721 1810 1820 1821 1822 1823 1824 1830 1840 1910 1920 2010 2020 2031 2032 2040 2050 2060 2071 2072 2074 2110 2190
feature_infos=none [0:1660] [0:1200] [0:5200] none [0:3074] [0:1350] [0:1350] none [0:2500] [0:950] none none none [0:2420] none none none [0:2810] [0:400] none none [0:850] [0:390] none [0:750] [0:1200] [0:500] none none none none none none none none none none [0:3240] [0:280] none none [0:1720] [0:480] [0:900] [0:4250] [0:200] [0:150] [0:350] [0:600] none [0:2100] [0:1250] [0:1502] none [0:710] [0:520] [0:1503] none [0:200] [0:610] [0:286] [0:2400] [0:600] none none [0:600] none [0:350] none [0:600] none none none none [0:600] none [0:700] none [0:1300] [0:300] [0:400] [0:1780] none [0:250] [0:300] [0:700] none none [0:1100] none none none none none none [0:450] none none none none none none none none none none none [0:1200] none none none none [0:1080] none none none [0:740] [0:350] none [0:300] none none [0:1000] [0:620] none none [0:1500] [0:200] none none none none none none none none none none none none [0:1300] [0:450] [0:450] [0:400] none none none [0:550] [0:450] [0:600] [0:2250] none none none none none none none none none none none none none none none none none none [0:750] none none none none none none none none none none none none [0:180] none none [0:750] none none none none none none
tree_sizes=1269 1304 1300 1304 1303 1289 1293 1290 1295 1296 1303 1294 1297 1309 1308 1305 1303 1312 1295 1305 1299 1297 1299 1301 1294 1290 1305 1308 1308 1299 1308 1304 1305 1300 1307 1294 1309 1312 1303 1323 1297 1311 1304 1300 1325 1298 1293 1293 1300 1299 1305 1288 1308 1309 1312 1305 1312 1312 1313 1310 1299 1298 1297 1301 1297 1307 1300 1313 1307 1302 1312 1291 1305 1305 1301 1296 1304 1301 1308 1320 1312 1304 1303 1306 1300 1304 1304 1301 1300 1313 1310 1301 1298 1318 1304 1300 1293 1304 1298 1298 1302 1301 1305 1302 1302 1317 1310 1314 1297 1317 1308 1292 1315 1309 1303 1298 1321 1303 1298 1318 1297 1314 1312 1301 1308 1315 1320 1307 1309 1300 1300 1310 1308 1303 1300 1308 1310 1302 1301 1306 1311 1304 1308 1311 1312 1314 1309 1307 1324 1316 1304 1300 1305 1319 1312 1310 1307 1310 1310 1308 1312 1307 1309 1303 1315 1316 1303 1317 1316 1318 1304 1302 1307 1300 1308 1304 1301 1311 1305 1309 1314 1303 1318 1315 1317 1322 1315 1319 1312 1303 1321 1317 1312 1302 1320 1315 1295 1316 1311 1318 1294 1310 1306 1320 1313 1311 1311 1308 1320 1311 1303 1318 1312 1313 1314 1314 1313 1313 1324 1310 1319 1324 1321 1320 1329 1312 1323 1305 1322 1309 1305 1319 1299 1314 1311 1314 1308 1307 1317 1318 1313 1303 1321 1325 1307 1314 1335 1332 1317 1317 1309 1306 1319 1307 1311 1310 1317 1318 1332 1323 1309 1310 1312 1319 1298 1311 1301 1317 1303 1301 1316 1312 1320 1323 1311 1319 1319 1314 1311 1314 1318 1316 1317 1326 1315 1325 1330 1329 1322 1328 1306 1318 1313 1322 1316 1327 1317 1328 1329 1329 1315 1317 1317 1315 1326 1315 1312 1323 1317 1318 1309 1320 1325 1319 1315 1318 1321 1315 1323 1321 1313 1331 1322 1329 1318 1324 1324 1319 1323 1323 1313 1310 1319 1312 1327 1319 1310 1320 1327 1308 1321 1325 1326 1317 1320 1321 1314 1317 1317 1322 1306 1323 1333 1331 1309 1330 1318 1327 1328 1326 1320 1325 1345 1325 1317 1323 1318 1315 1320 1312 1319 1326 1321 1333 1323 1326 1312 1326 1320 1315 1319 1323 1324 1316 1332 1319 1322 1320 1321 1323 1318 1331 1324 1318 1325 1328 1321 1325 1329 1328 1323 1329 1314 1330 1327 1321 1317 1318 1314 1321 1321 1325 1315 1312 1328 1326 1315 1336 1327 1320 1326 1322 1326 1311 1316 1328 1321 1328 1320 1324 1327 1320 1338 1328 1332 1324 1332 1331 1332 1324 1324 1332 1336 1328 1317 1326 1322 1331 1330 1330 1320 1329 1328 1335 1326 1319 1320 1322 1324 1328 1318 1326 1330 1333 1330 1326 1329 1315 1325 1323 1315 1330 1324 1323 1332 1320 1324 1322 1326 1332 1316 1321 1332 1318 1323 1331 1334 1322 1328 1324 1326 1332 1332 1332 1335 1335 1319 1328 1322 1320

Tree=0
num_leaves=16
num_cat=0
split_feature=80 3 9 86 96 82 14 62 9 45 51 82 82 3 44
split_gain=5461.28 4010.76 3650.96 3726.46 3194.2 2805.57 2995.25 2649.15 2662.45 3596.99 2024.64 1763.77 1654.52 1417.96 1939.25
threshold=1.0000000180025095e-35 515.00000000000011 905.00000000000011 105.00000000000001 82.500000000000014 32.500000000000007 35.000000000000007 135.00000000000003 1.0000000180025095e-35 85.000000000000014 112.50000000000001 135.00000000000003 72.500000000000014 235.00000000000003 115.00000000000001
decision_type=2 2 2 2 2 2 2 2 2 2 2 2 2 2 2
left_child=1 2 3 4 5 13 7 8 11 -10 -9 -7 -3 14 -1
right_child=-2 12 -4 -5 -6 6 -8 10 9 -11 -12 -13 -14 -15 -16
leaf_value=71.754606858218381 70.362008253630094 71.229496991740291 71.552802674137325 71.672341536378951 71.404173988803834 70.766529067821821 70.469324581642127 71.655833355482514 70.29738055371368 71.083335891262792 70.986686992847709 71.382618248665125 71.649804051157915 70.928527229489205 71.066661572750505
leaf_count=21 20 38 45 24 47 21 39 20 37 24 26 26 61 23 20
internal_value=0 0.435211 -1.06657 -2.22539 -3.17246 -4.55866 -6.46129 -4.47881 -7.18563 -11.5439 1.87634 -1.52917 6.09342 1.17897 4.70441
internal_count=492 472 373 328 304 257 193 154 108 61 46 47 99 64 41
shrinkage=1


Tree=1
num_leaves=16
num_cat=0
split_feature=80 96 5 5 82 82 86 53 18 44 14 53 82 82 96
split_gain=4928.8 3483.93 2137.9 3661.09 2477.46 2827.55 1918.2 2614.94 2722.4 2121.1 1690.98 1240.33 1755.11 1388.12 1034.13
threshold=1.0000000180025095e-35 77.500000000000014 550.00000000000011 260.00000000000006 385.00000000000006 252.50000000000003 25.000000000000004 122.00000000000001 335.00000000000006 92.500000000000014 105.00000000000001 42.500000000000007 92.500000000000014 1.0000000180025095e-35 115.00000000000001
decision_type=2 2 2 2 2 2 2 2 2 2 2 2 2 2 2
left_child=1 2 3 4 5 6 7 8 10 -8 11 12 13 -1 -3
right_child=-2 14 -4 -5 -6 -7 9 -9 -10 -11 -12 -13 -14 -15 -16
leaf_value=-0.24503702675854722 -0.78070509910583497 0.54070517132359164 -0.44123696329132206 0.48513287656447468 -0.56046899505283532 0.45640060986791342 0.56240750810374385 0.17117175812409682 0.32397952079772951 -0.14164658308029174 -0.0071611002871864726 -0.67465510286133867 -0.0303276452753279 -0.77363104509270719 0.17838766917034432
leaf_count=27 20 31 31 34 23 28 23 55 20 20 38 29 36 23 54
internal_value=0 0.413451 -0.859811 -0.166236 -1.20829 -0.438979 -1.42745 -2.58284 -4.49235 4.69881 -5.92659 -7.83762 -5.93054 -9.76381 6.21054
internal_count=492 472 387 356 322 299 271 228 173 43 153 115 86 50 85
shrinkage=0.05


Tree=2
num_leaves=16
num_cat=0
split_feature=80 3 9 1 82 44 42 141 151 117 42 96 3 14 9
split_gain=4448.24 3606.01 3248.19 3323.78 3035.74 3148.04 3898.17 3743.77 4490.54 2992.92 2448.13 2232.57 1542.51 2027.31 1318.7
threshold=1.0000000180025095e-35 515.00000000000011 905.00000000000011 275.00000000000006 32.500000000000007 165.00000000000003 51.000000000000007 1.0000000180025095e-35 155.00000000000003 175.00000000000003 161.00000000000003 35.000000000000007 735.00000000000011 22.500000000000004 1.0000000180025095e-35
decision_type=2 2 2 2 2 2 2 2 2 2 2 2 2 2 2
left_child=1 2 3 4 14 6 7 8 11 10 -7 -6 -3 -14 -1
right_child=-2 12 -4 -5 5 9 -8 -9 -10 -11 -12 -13 13 -15 -16
leaf_value=-0.16012427365338361 -0.74166982889175426 0.54337768103625328 0.34679138210084703 0.43624550379239602 -0.86574041573114169 -1.1293017408122188 0.21528211962093008 0.29432854425339472 0.18324954623267764 -0.047425791195460726 -0.38261280513945084 -0.23678726412001111 -0.25009574131532147 0.34746845658868553 0.2750570115994434
leaf_count=27 20 37 45 26 43 23 55 21 21 21 21 21 22 40 49
internal_value=0 0.392779 -1.03121 -2.12425 -3.05828 -4.89686 -2.52543 -6.06985 -9.0238 -10.7707 -15.4585 -13.1873 5.7579 2.70859 2.40906
internal_count=492 472 373 328 302 226 161 106 85 65 44 64 99 62 76
shrinkage=0.05


Tree=3
num_leaves=16
num_cat=0
split_feature=80 3 82 86 53 39 82 82 117 52 44 18 9 117 82
split_gain=4014.54 3254.43 3079.18 3452.52 3269.92 4319.68 4304.01 3668.04 2859.99 2982.42 3202.57 2716.72 1766.08 1764.62 1399.42
threshold=1.0000000180025095e-35 515.00000000000011 405.00000000000006 105.00000000000001 105.00000000000001 1.0000000180025095e-35 252.50000000000003 32.500000000000007 175.00000000000003 65.000000000000014 27.500000000000004 172.50000000000003 90.000000000000014 76.000000000000014 72.500000000000014
decision_type=2 2 2 2 2 2 2 2 2 2 2 2 2 2 2
left_child=1 2 3 4 5 6 7 -1 9 10 -9 -12 -6 -14 -3
right_child=-2 14 -4 -5 12 -7 -8 8 -10 -11 11 -13 13 -15 -16
leaf_value=0.13587286945651561 -0.70458633959293371 0.035323628626371686 -0.60938926416894668 0.57997060444044035 -0.069893109798431399 -0.8506957113742829 0.53455098342895513 0.13131762257328741 0.10176886281659525 -0.99398989915847791 -0.86172946691513064 -0.13406539170638374 0.69947453212738042 0.11113994855147143 0.42187259241205749
leaf_count=68 20 38 23 23 33 20 25 27 31 20 29 23 25 26 61
internal_value=0 0.37314 -0.979648 -0.243113 -1.07607 -2.93529 -1.67264 -3.23371 -6.34662 -8.97129 -6.20964 -10.7976 4.30239 7.99079 5.47001
internal_count=492 472 373 350 327 243 223 198 130 99 79 52 84 51 99
shrinkage=0.05


Tree=4
num_leaves=16
num_cat=0
split_feature=80 3 61 86 53 52 82 82 18 44 117 117 117 3 14
split_gain=3623.12 2937.12 2834.23 2907.74 2842.5 2827.48 2457.11 4486.02 3000.84 3240.11 4645.02 1674.81 1657.81 1378.95 1878.44
threshold=1.0000000180025095e-35 515.00000000000011 12.500000000000002 25.000000000000004 105.00000000000001 45.000000000000007 32.500000000000007 167.50000000000003 172.50000000000003 17.500000000000004 155.00000000000003 95.000000000000014 1.0000000180025095e-35 735.00000000000011 85.000000000000014
decision_type=2 2 2 2 2 2 2 2 2 2 2 2 2 2 2
left_child=1 2 3 4 6 -6 -1 8 9 -8 -11 -5 -9 -3 -15
right_child=-2 13 -4 11 5 -7 7 12 -10 10 -12 -13 -14 14 -16
leaf_value=0.10002399067724906 -0.66935703992843631 0.50138354196741775 -0.62556900382041936 0.59897829735720609 -0.0021732970520302103 0.68157096363249281 -0.16592173680015232 -0.27587349951267243 -0.073833727836608895 -1.3368903643809833 -0.33708326248895554 0.056169136762619025 0.29188735749986439 -0.15954622001417224 0.39088522849544405
leaf_count=62 20 37 20 27 54 21 23 20 33 26 21 30 36 31 31
internal_value=0 0.354483 -0.930665 -0.274534 -1.53399 3.7855 -3.33924 -5.4214 -9.33798 -13.044 -17.8034 6.26579 1.78231 5.19651 2.31339
internal_count=492 472 373 353 296 75 221 159 103 70 47 57 56 99 62
shrinkage=0.05


Tree=5
num_leaves=16
num_cat=0
split_feature=118 5 3 82 53 3 51 51 45 44 123 3 53 18 45
split_gain=5120 5853.67 4136.02 3543.33 1937.17 2606.81 1810.35 1329.71 1245.96 2648.36 2034.7 1113.05 620.616 419.534 399.735
threshold=1.0000000180025095e-35 550.00000000000011 515.00000000000011 302.50000000000006 114.00000000000001 405.00000000000006 135.00000000000003 55.000000000000007 15.000000000000002 72.500000000000014 32.500000000000007 125.00000000000001 1.0000000180025095e-35 115.00000000000001 165.00000000000003
decision_type=2 2 2 2 2 2 2 2 2 2 2 2 2 2 2
left_child=1 2 3 4 5 8 -6 -4 10 -10 12 -11 13 -1 -9
right_child=-2 -3 7 -5 6 -7 -8 14 9 11 -12 -13 -14 -15 -16
leaf_value=0.28567713300387065 -0.61951039989789336 -0.54863253219707597 0.10583545310156686 -0.46051860591944527 0.53278938134511311 -0.54272749304771428 0.054046609401702889 0.59907505978708686 0.25480970465219938 -0.040869847791535518 -0.24982828355970838 -0.4694742126446782 0.097325447698434209 0.57706286453065425 0.339943528175354
leaf_count=30 30 37 28 34 39 20 40 46 39 28 21 33 24 21 22
internal_value=0 1.09122 2.14149 0.456358 1.57049 0.0207477 5.80776 7.91658 1.13047 -1.33989 3.70376 -5.45476 6.13985 8.11319 10.3048
internal_count=492 462 425 329 295 216 79 96 196 100 96 61 75 51 68
shrinkage=0.05


Tree=6
num_leaves=16
num_cat=0
split_feature=118 5 3 5 38 18 25 151 51 9 9 2 3 117 117
split_gain=4620.8 5282.94 3732.75 2776.79 3002.09 5958.51 1518.58 1379.48 1200.07 1186.73 1973.24 959.706 1742.52 743.265 619.332
threshold=1.0000000180025095e-35 550.00000000000011 515.00000000000011 151.50000000000003 15.000000000000002 45.000000000000007 185.00000000000003 1.0000000180025095e-35 55.000000000000007 812.00000000000011 565.00000000000011 122.50000000000001 85.000000000000014 57.500000000000007 76.000000000000014
decision_type=2 2 2 2 2 2 2 2 2 2 2 2 2 2 2
left_child=1 2 3 4 6 -6 7 9 -4 10 11 12 -1 -9 -5
right_child=-2 -3 8 14 5 -7 -8 13 -10 -11 -12 -13 -14 -15 -16
leaf_value=0.1851613943775495 -0.58853487094243373 -0.52120091270756086 0.10054367525236947 0.54331880311171221 -0.73904296645992684 0.25486781787872315 -0.32670874198277794 0.50310123395919804 0.48947647038628078 0.27526359250468596 -0.52302757531404498 0.23891135490301885 -0.42386830086293426 0.1439656559158774 0.19718118937952178
leaf_count=24 30 37 28 24 38 25 24 25 68 31 20 33 23 34 28
internal_value=0 1.03666 2.03442 0.43354 -0.825198 -6.89268 0.961023 1.90779 7.52075 0.0994805 -1.57631 0.644744 -2.25749 5.92283 7.13874
internal_count=492 462 425 329 277 63 214 190 96 131 100 80 47 59 52
shrinkage=0.05


Tree=7
num_leaves=16
num_cat=0
split_feature=118 5 3 5 38 18 14 60 27 51 44 151 2 3 45
split_gain=4170.27 4767.85 3368.81 2506.05 2709.38 5377.56 2092.76 1832.43 2379.83 1083.06 771.257 765.305 1071.28 1283.34 360.761
threshold=1.0000000180025095e-35 550.00000000000011 515.00000000000011 151.50000000000003 15.000000000000002 45.000000000000007 67.500000000000014 22.500000000000004 62.500000000000007 55.000000000000007 115.00000000000001 88.000000000000014 185.00000000000003 85.000000000000014 165.00000000000003
decision_type=2 2 2 2 2 2 2 2 2 2 2 2 2 2 2
left_child=1 2 3 4 6 -6 7 8 11 -4 -5 12 13 -1 -11
right_child=-2 -3 9 10 5 -7 -8 -9 -10 14 -12 -13 -14 -15 -16
leaf_value=0.13479424650604663 -0.55910812536875409 -0.49514084538897951 0.09551649008478437 0.49132278971374038 -0.70209081792517714 0.24212443256378174 -0.29085277381696201 0.41578825443983081 -0.43279973527659543 0.54464747750240827 0.095517938137054448 0.34662534080702684 0.35798649106706892 -0.32358332494130504 0.29847253290089698
leaf_count=37 30 37 28 32 38 25 38 40 23 46 20 29 21 26 22
internal_value=0 0.98483 1.9327 0.411863 -0.783938 -6.54804 0.912972 2.36605 0.616129 7.14472 6.7818 2.50338 0.974271 -1.08755 9.30005
internal_count=492 462 425 329 277 63 214 176 136 96 52 113 84 63 68
shrinkage=0.05


Tree=8
num_leaves=16
num_cat=0
split_feature=118 5 3 82 53 3 51 117 117 9 3 123 51 51 3
split_gain=3763.67 4302.99 3040.35 3074.51 1690.9 2265.14 1552.79 1467.65 2177.77 2458.35 1474.18 1459.42 1431.45 977.461 463.956
threshold=1.0000000180025095e-35 550.00000000000011 515.00000000000011 302.50000000000006 114.00000000000001 405.00000000000006 135.00000000000003 52.500000000000007 155.00000000000003 190.00000000000003 177.50000000000003 95.000000000000014 185.00000000000003 55.000000000000007 151.00000000000003
decision_type=2 2 2 2 2 2 2 2 2 2 2 2 2 2 2
left_child=1 2 3 4 5 7 -6 11 9 -9 -10 12 -1 -4 -11
right_child=-2 -3 13 -5 6 -7 -8 8 10 14 -12 -13 -14 -15 -16
leaf_value=0.51292723596096035 -0.53115271647771201 -0.4703838138966947 0.090740666219166349 -0.43066316097974777 0.49388989179562304 -0.50781886458396908 0.050508281290531157 0.13384666287899016 0.49018334312872452 -0.66848477602005008 -0.065936683691464937 -0.1282094691110694 -0.0051438226550817494 0.44175251529497261 -0.32791326791048053
leaf_count=40 30 37 28 34 39 20 40 25 22 20 26 23 20 68 20
internal_value=0 0.935589 1.83606 0.39127 1.42908 -0.0188052 5.38786 1.01564 -1.32958 -5.10209 3.77903 4.20853 6.80474 6.78748 -9.96398
internal_count=492 462 425 329 295 216 79 196 113 65 48 83 60 96 40
shrinkage=0.05


Tree=9
num_leaves=16
num_cat=0
split_feature=118 5 3 82 53 3 51 117 117 5 44 3 123 51 51
split_gain=3396.71 3883.45 2743.92 2774.74 1526.04 2044.29 1401.39 1324.56 1965.44 1705.22 1930.88 1330.45 1317.13 1291.89 882.158
threshold=1.0000000180025095e-35 550.00000000000011 515.00000000000011 302.50000000000006 114.00000000000001 405.00000000000006 135.00000000000003 52.500000000000007 155.00000000000003 25.000000000000004 135.00000000000003 177.50000000000003 95.000000000000014 185.00000000000003 55.000000000000007
decision_type=2 2 2 2 2 2 2 2 2 2 2 2 2 2 2
left_child=1 2 3 4 5 7 -6 12 9 10 -9 -10 13 -1 -4
right_child=-2 -3 14 -5 6 -7 -8 8 11 -11 -12 -13 -14 -15 -16
leaf_value=0.4872808849811554 -0.50459508180618284 -0.44686462347571915 0.086203634738922119 -0.40913000268971222 0.4691954062535213 -0.48242792010307317 0.047982870936393744 -0.78211061455309394 0.46567418629472912 0.12834877293734323 -0.11690902958313626 -0.062639843500577483 -0.12179899607663569 -0.0048866281658411026 0.41966488694443421
leaf_count=40 30 37 28 34 39 20 40 20 22 21 24 26 23 20 68
internal_value=0 0.888809 1.74426 0.371707 1.35763 -0.0178649 5.11846 0.964859 -1.2631 -4.84699 -8.38547 3.59008 3.9981 6.4645 6.44811
internal_count=492 462 425 329 295 216 79 196 113 65 44 48 83 60 96
shrinkage=0.05


Tree=10
num_leaves=16
num_cat=0
split_feature=80 1 82 86 44 151 18 62 3 3 44 2 62 117 53
split_gain=3518.08 2055.57 2160.47 2054.56 3233.66 2188.19 3480.9 2829.65 4015.01 2564.74 2278.36 2032.56 1987.38 1691.96 2089.83
threshold=1.0000000180025095e-35 275.00000000000006 422.50000000000006 25.000000000000004 147.50000000000003 88.000000000000014 105.00000000000001 135.00000000000003 52.500000000000007 455.00000000000006 147.50000000000003 35.000000000000007 1.0000000180025095e-35 45.000000000000007 127.50000000000001
decision_type=2 2 2 2 2 2 2 2 2 2 2 2 2 2 2
left_child=1 2 3 5 -5 6 7 8 11 10 -10 -1 -8 -7 -15
right_child=-2 -3 -4 4 -6 13 12 -9 9 -11 -12 -13 -14 14 -16
leaf_value=0.23483288884162903 -0.63460843488574037 0.44441085320252638 -0.5208328420296312 0.56266876396379972 -0.18848025954287986 0.4483074745711158 0.25017388011958147 0.14699979180639441 -0.48988595187131856 -0.23334079797451315 -1.2179921399463307 -0.39457283331000292 -0.23227389097213746 -0.16239152587189967 0.42421264214949173
leaf_count=29 22 26 20 38 23 34 74 33 21 26 22 23 30 49 22
internal_value=0 0.246071 -0.260001 0.219087 5.58897 -0.683291 -2.24959 -5.26809 -7.50666 -12.5073 -17.2481 -0.871162 2.22013 3.16532 0.387463
internal_count=492 470 444 424 61 363 258 154 121 69 43 52 104 105 71
shrinkage=0.05


Tree=11
num_leaves=16
num_cat=0
split_feature=39 1 82 10 124 25 5 51 53 117 27 117 9 3 2
split_gain=3331.13 2440.73 2321.26 1983.91 1956.22 2272.7 2995.67 1570.55 1251.3 1186.15 1621.88 2261.16 1709.89 1122.84 1091.54
threshold=25.000000000000004 275.00000000000006 405.00000000000006 105.00000000000001 55.000000000000007 162.50000000000003 550.00000000000011 345.00000000000006 85.000000000000014 225.00000000000003 32.500000000000007 102.50000000000001 565.00000000000011 392.50000000000006 72.500000000000014
decision_type=2 2 2 2 2 2 2 2 2 2 2 2 2 2 2
left_child=1 2 3 4 5 6 7 9 -6 10 11 12 14 -7 -1
right_child=-2 -3 -4 -5 8 13 -8 -9 -10 -11 -12 -13 -14 -15 -16
leaf_value=0.25305943962718763 -0.48591098666191102 0.51101909081141161 -0.51976671318213152 0.47036961679873263 4.6783685684204107e-05 0.045209719340006511 -0.64389806175231934 0.21297756956844793 0.40176540442875458 0.21807754798368975 0.098290017389115844 -0.58970465144595585 -0.43826034461458524 0.52190888722737627 -0.16577887501035418
leaf_count=28 35 24 21 23 36 30 25 41 42 22 42 37 30 21 35
internal_value=0 0.40425 -0.139832 0.3829 -0.150681 -1.27374 -2.471 -1.36387 4.32714 -2.55233 -3.43666 -5.18207 -2.55149 4.82995 0.40743
internal_count=492 457 433 412 389 311 260 235 78 194 172 130 93 51 63
shrinkage=0.05


Tree=12
num_leaves=16
num_cat=0
split_feature=80 81 123 39 5 44 117 117 1 2 25 51 51 2 82
split_gain=3045.06 1777.21 1838.06 1776.38 1816.69 2567.95 1695.45 3700.86 1703.1 1777.59 1250.81 1139.8 1122.06 1232.9 586.663
threshold=1.0000000180025095e-35 90.000000000000014 210.00000000000003 1.0000000180025095e-35 550.00000000000011 505.00000000000006 183.00000000000003 52.500000000000007 95.000000000000014 202.50000000000003 25.000000000000004 290.00000000000006 27.500000000000004 35.000000000000007 62.500000000000007
decision_type=2 2 2 2 2 2 2 2 2 2 2 2 2 2 2
left_child=1 2 3 4 5 6 7 10 9 12 11 -1 -9 -14 -8
right_child=-2 -3 -4 -5 -6 -7 14 8 -10 -11 -12 -13 13 -15 -16
leaf_value=0.31464298148365583 -0.58994279707019981 -0.37438850317682543 -0.35568546567644393 -0.26770588449529703 -0.25903066324465202 -0.39329856254837736 0.21688226560751597 -0.52648711436324658 0.29842093174274148 0.21236152098729064 0.50575397343051687 -0.10321114535133045 0.095982011433305425 -0.3575730350709731 0.53784201145172117
leaf_count=51 22 28 28 37 33 22 24 27 26 26 49 24 29 31 35
internal_value=0 0.238189 0.727617 1.25795 1.90688 2.58678 3.30095 2.21411 -1.32893 -3.00797 6.18575 3.61859 -5.17619 -2.7671 8.14564
internal_count=492 470 442 414 377 344 322 263 139 113 124 75 87 60 59
shrinkage=0.05


Tree=13
num_leaves=16
num_cat=0
split_feature=80 14 82 96 42 22 124 25 14 151 45 82 44 18 45
split_gain=2748.16 1623.71 2668.18 2215.87 2280.11 2460.57 1807.02 1999.57 1684.11 2941.11 1923.89 2633 1342.02 1565 1556.93
threshold=1.0000000180025095e-35 425.00000000000006 405.00000000000006 62.500000000000007 27.500000000000004 1.0000000180025095e-35 55.000000000000007 105.00000000000001 67.500000000000014 190.00000000000003 1.0000000180025095e-35 82.000000000000014 172.50000000000003 147.50000000000003 15.000000000000002
decision_type=2 2 2 2 2 2 2 2 2 2 2 2 2 2 2
left_child=1 2 3 4 5 8 7 12 9 10 11 -1 14 -14 -6
right_child=-2 -3 -4 -5 6 -7 -8 -9 -10 -11 -12 -13 13 -15 -16
leaf_value=-0.13862514760759143 -0.56044565737247465 0.44103706791287378 -0.55904319343112763 0.2611150256225041 0.32936322450637823 0.24536716620127363 0.43645602229141423 0.34139163394769034 -0.60044669168336062 0.26684920212318158 0.012367074165878626 -0.83064066810267312 -0.54743350331599894 0.0011658631838285007 -0.17591243069018089
leaf_count=27 22 21 21 77 30 30 31 36 28 29 29 28 26 26 31
internal_value=0 0.22628 -0.175688 0.364285 -0.701433 -3.31638 1.78277 0.337551 -5.06611 -3.34576 -6.34337 -9.81848 -1.73015 -5.46268 1.45168
internal_count=492 470 449 428 351 171 180 149 141 113 84 55 113 52 61
shrinkage=0.05


Tree=14
num_leaves=16
num_cat=0
split_feature=39 1 82 151 26 25 5 42 120 5 14 96 44 42 51
split_gain=2717.84 2061.94 1888.85 1768.85 1861.92 1737.23 1725.88 1685.24 1208.43 1489.64 1493.99 1304.09 974.645 887.655 864.461
threshold=25.000000000000004 275.00000000000006 405.00000000000006 155.00000000000003 233.50000000000003 175.00000000000003 550.00000000000011 85.000000000000014 1.0000000180025095e-35 151.50000000000003 22.500000000000004 55.000000000000007 225.00000000000003 42.500000000000007 165.00000000000003
decision_type=2 2 2 2 2 2 2 2 2 2 2 2 2 2 2
left_child=1 2 3 4 5 6 8 -7 9 10 11 14 -5 -12 -1
right_child=-2 -3 -4 12 -6 7 -8 -9 -10 -11 13 -13 -14 -15 -16
leaf_value=-0.14774774710337321 -0.43818254811423163 0.47009848256905873 -0.46857760633741113 0.30400282464165618 -0.38682056665420533 -0.0082584792917424991 -0.41644141695329123 0.61794266587211977 0.33525230189164484 0.32789971331755319 0.32431777140923912 0.11192324089684658 -0.092410821914672855 -0.10571484697450484 -0.45667421420415244
leaf_count=54 35 24 21 69 34 22 28 21 24 24 28 28 20 21 39
internal_value=0 0.37964 -0.120443 0.351094 -0.73656 0.0869524 -0.938101 5.95121 0.0111663 -0.816943 -1.85811 -3.7446 4.29842 2.80036 -5.54595
internal_count=492 457 433 412 323 289 246 43 218 194 170 121 89 49 93
shrinkage=0.05


Tree=15
num_leaves=16
num_cat=0
split_feature=96 82 62 52 77 26 43 82 45 151 18 82 53 3 45
split_gain=2986 1512.09 1400.18 1379.61 1499.94 1692.55 1384.12 1430.53 1435.44 2087.7 1910.28 1352.38 3004.89 2167.89 1744.34
threshold=62.500000000000007 327.50000000000006 72.500000000000014 185.00000000000003 1.0000000180025095e-35 325.00000000000006 1.0000000180025095e-35 51.000000000000007 15.000000000000002 125.00000000000001 122.50000000000001 162.50000000000003 42.500000000000007 455.00000000000006 85.000000000000014
decision_type=2 2 2 2 2 2 2 2 2 2 2 2 2 2 2
left_child=1 3 -2 4 5 6 7 8 9 -1 -10 13 -13 14 -9
right_child=2 -3 -4 -5 -6 -7 -8 11 10 -11 -12 12 -14 -15 -16
leaf_value=-0.25043483894804253 0.11031345050289948 -0.31838904064755114 0.50503019063900678 0.30870247408747675 0.32887991787149362 -0.49988800116947724 0.32858775407075885 0.19491329601277477 -0.78835013151168831 0.35122759909856893 -0.11317477781664242 0.27556273986895879 -0.45516091795528635 0.61572921156883242 -0.35505115191141767
leaf_count=46 53 43 39 32 26 21 24 46 20 21 22 24 34 20 21
internal_value=0 -0.765571 5.55278 -0.0907955 -0.707642 -1.34114 -0.687224 -1.37311 -4.11029 -1.23708 -8.69374 0.684491 -3.05585 3.17805 0.450728
internal_count=492 400 92 357 325 299 278 254 109 67 42 145 58 87 67
shrinkage=0.05


Tree=16
num_leaves=16
num_cat=0
split_feature=124 39 10 3 18 9 2 2 3 3 25 123 117 117 186
split_gain=1454.63 2388.65 1808.71 1624.6 2717.87 1390.52 2241.05 1526.62 1414.02 2113.4 1216.3 877.316 1967.05 1315.68 863.591
threshold=55.000000000000007 1.0000000180025095e-35 65.000000000000014 62.500000000000007 347.50000000000006 565.00000000000011 255.00000000000003 122.50000000000001 525.00000000000011 205.00000000000003 140.50000000000003 180.00000000000003 45.000000000000007 142.50000000000003 14.500000000000002
decision_type=2 2 2 2 2 2 2 2 2 2 2 2 2 2 2
left_child=1 2 3 11 5 6 7 8 9 -5 14 12 -1 -14 -2
right_child=10 -3 -4 4 -6 -7 -8 -9 -10 -11 -12 -13 13 -15 -16
leaf_value=0.51457786187529564 0.36204890277650625 -0.43832184476777913 0.34358568062653416 -0.0039311278859774272 0.30054515249588909 -0.48039268038489608 -0.51158012686104615 0.23919332686223482 0.20844788745045664 -0.63342548807462062 -0.16318887412548067 -0.13318154525756837 -0.16332203098705839 0.34504600942134855 -0.015069693326950073
leaf_count=32 63 32 37 30 34 33 29 38 20 24 20 25 35 20 20
internal_value=0 -0.489672 0.252223 -0.513155 -2.16655 -3.76444 -2.39683 -0.368186 -3.01383 -5.67413 3.73668 2.55743 4.05773 0.430781 5.42354
internal_count=492 389 357 320 208 174 141 112 74 54 103 112 87 55 83
shrinkage=0.05


Tree=17
num_leaves=16
num_cat=0
split_feature=96 82 62 124 39 14 1 26 117 86 117 22 42 51 51
split_gain=2713.29 1335.94 1244.89 1130.26 3488.16 1543.13 1601.42 1762.54 1446.19 1562.89 1253.11 1252.09 1097.83 1013.83 1485.84
threshold=62.500000000000007 327.50000000000006 72.500000000000014 55.000000000000007 1.0000000180025095e-35 255.00000000000003 52.500000000000007 1.0000000180025095e-35 183.00000000000003 1.0000000180025095e-35 112.50000000000001 15.000000000000002 145.00000000000003 185.00000000000003 75.000000000000014
decision_type=2 2 2 2 2 2 2 2 2 2 2 2 2 2 2
left_child=1 3 -2 4 5 6 7 8 9 11 -9 13 -5 14 -1
right_child=2 -3 -4 12 -6 -7 -8 10 -10 -11 -12 -13 -14 -15 -16
leaf_value=-0.31956028174131346 0.10582781917643998 -0.30083327515180724 0.47801264111812297 0.041663719892501838 -0.687275091232732 0.41980246484279632 0.2154819489121437 -0.10978196650743484 0.37247361063957218 0.31277745820227126 -0.66278962351026993 0.19142232622419086 0.46550973518328231 -0.48739877002579829 0.17423174023628235
leaf_count=39 53 43 39 50 20 20 50 20 20 21 21 21 22 28 25
internal_value=0 -0.750878 5.27204 -0.116624 -1.01096 -0.0498589 -0.739321 -2.03393 -0.48267 -1.66657 -7.8606 -3.13882 3.42344 -4.72918 -2.53346
internal_count=492 400 92 357 285 265 245 195 154 134 41 113 72 92 64
shrinkage=0.05


Tree=18
num_leaves=16
num_cat=0
split_feature=96 42 117 53 82 82 117 117 18 45 25 44 62 45 82
split_gain=2448.74 1273.65 2500.74 3788.84 2420.7 2379.97 2262.24 1694.42 1943.02 2276.13 1453.3 1217.45 1123.51 944.756 508.857
threshold=62.500000000000007 125.00000000000001 95.000000000000014 72.500000000000014 172.50000000000003 227.50000000000003 165.00000000000003 68.000000000000014 185.00000000000003 22.500000000000004 82.500000000000014 1.0000000180025095e-35 72.500000000000014 35.000000000000007 162.50000000000003
decision_type=2 2 2 2 2 2 2 2 2 2 2 2 2 2 2
left_child=1 2 5 6 -5 10 -4 8 9 -3 11 -1 13 -2 -9
right_child=12 7 3 4 -6 -7 -8 14 -10 -11 -12 -13 -14 -15 -16
leaf_value=0.044598017316876043 0.27154846303164959 0.46325369005401928 -0.87273649626544536 0.25047997939280975 -0.41536637374332974 -0.32106184258180509 -0.26583774948821354 0.38386654533990999 -0.41125072284981057 -0.22536337201793991 -0.13606522639592489 0.44634903323921293 0.45411200920740769 -0.1600533343496777 0.081201707181476415
leaf_count=33 32 24 28 39 21 34 34 41 27 24 30 44 39 21 21
internal_value=0 -0.713334 -2.00122 -5.31624 0.348675 0.867097 -10.7984 1.75903 -1.43851 2.3789 3.18302 5.4834 5.00843 2.01073 5.62702
internal_count=492 400 263 122 60 141 62 137 75 48 107 77 92 53 62
shrinkage=0.05


Tree=19
num_leaves=16
num_cat=0
split_feature=96 124 39 151 2 43 52 27 62 38 14 44 45 62 25
split_gain=2209.99 1157.37 3516.12 1421.2 1565.17 1421.78 1543.8 1981.74 1442.82 1231.86 1122.5 1026.2 1942.32 1013.97 907.192
threshold=62.500000000000007 55.000000000000007 1.0000000180025095e-35 88.000000000000014 305.00000000000006 55.000000000000007 65.000000000000014 62.500000000000007 135.00000000000003 1.0000000180025095e-35 45.000000000000007 275.00000000000006 92.000000000000014 72.500000000000014 115.00000000000001
decision_type=2 2 2 2 2 2 2 2 2 2 2 2 2 2 2
left_child=1 2 3 4 5 6 7 8 9 11 -5 12 -1 -2 -3
right_child=13 14 -4 10 -6 -7 -8 -9 -10 -11 -12 -13 -14 -15 -16
leaf_value=0.22585679739713671 0.095509609636270781 0.23342816720406218 -0.67198989339496784 0.30711345216061209 0.32674131810665136 0.25204660268056961 -0.53903273023091836 -0.58634110808372497 -0.39480552256107332 -0.31699092813900542 -0.084357842206954969 0.40485040843486786 -0.33594967031478884 0.43140641213991704 -0.15541465893387796
leaf_count=40 53 60 23 47 20 21 26 20 25 21 30 22 25 39 20
internal_value=0 -0.677668 -1.52817 -0.605723 -1.89987 -2.74334 -3.65658 -2.44595 -1.05033 0.534339 3.09184 2.19362 0.195548 4.75801 2.72435
internal_count=492 400 320 297 220 200 179 153 133 108 77 87 65 92 80
shrinkage=0.05


Tree=20
num_leaves=16
num_cat=0
split_feature=60 96 142 55 66 151 3 44 44 82 82 44 27 53 3
split_gain=1948.17 2156.73 1651.54 1679.33 1222.83 1561.39 1776.76 2467.5 2445.1 1644.26 1603.31 1183.36 1050.03 817.067 807.04
threshold=185.00000000000003 175.00000000000003 1.0000000180025095e-35 40.500000000000007 1.0000000180025095e-35 155.00000000000003 392.50000000000006 185.00000000000003 72.500000000000014 212.50000000000003 212.50000000000003 135.00000000000003 15.000000000000002 52.500000000000007 52.500000000000007
decision_type=2 2 2 2 2 2 2 2 2 2 2 2 2 2 2
left_child=1 2 3 4 5 6 8 -8 9 -1 11 -10 -7 -4 -13
right_child=-2 -3 13 -5 -6 12 7 -9 10 -11 -12 14 -14 -15 -16
leaf_value=0.15247720163315537 -0.41348955726623537 0.39550942728916805 0.073575408458709718 0.3627866708315336 -0.41450985466892071 0.055052673189263594 -0.20326070785522463 0.3775909139615734 -0.72694707167148598 -0.35739899476369225 0.040092000636187473 -0.077745344693010504 0.4686427661350796 0.51514296856793496 -0.471139661828056
leaf_count=64 25 39 20 26 22 57 33 41 25 21 22 22 21 22 32
internal_value=0 0.791029 0.14232 -0.505647 -1.06619 -0.59599 -1.77321 2.37125 -3.42208 0.530156 -6.74822 -8.85077 3.32808 6.09745 -6.21736
internal_count=492 467 428 386 360 338 260 74 186 85 101 79 78 42 54
shrinkage=0.05


Tree=21
num_leaves=16
num_cat=0
split_feature=46 3 9 53 39 186 52 44 82 82 51 44 3 117 44
split_gain=1597.56 1573.7 2351.08 1681.29 2323.16 1603.95 2061.61 2406.39 1812.79 1698.23 1547 1388.39 1366.82 920.859 809.493
threshold=55.000000000000007 525.00000000000011 812.00000000000011 177.50000000000003 1.0000000180025095e-35 31.500000000000004 55.000000000000007 72.500000000000014 111.00000000000001 97.500000000000014 135.00000000000003 31.000000000000004 225.00000000000003 57.500000000000007 235.00000000000003
decision_type=2 2 2 2 2 2 2 2 2 2 2 2 2 2 2
left_child=1 2 3 4 5 6 7 13 12 -8 -5 -3 -9 -1 -13
right_child=-2 11 -4 10 -6 -7 9 8 -10 -11 -12 14 -14 -15 -16
leaf_value=0.39142470592405743 0.45339993447065352 -0.13592661160689135 0.26627997159957889 0.50091435551643382 -0.63242631787839143 -0.45562646717860783 -0.70582473874092111 -0.18553193053195366 -0.41472237235621406 -0.075849487988845166 -0.042364393723638434 0.45760743589037001 0.29920787490331213 0.036583915984991826 0.11991575590201786
leaf_count=41 20 26 51 20 23 29 20 33 38 23 38 36 26 33 35
internal_value=0 -0.056838 -0.985504 -1.97892 -3.04263 -2.13343 -1.18766 0.368782 -2.90775 -7.37722 2.89946 3.53337 0.561644 4.6637 5.82279
internal_count=492 472 375 324 266 243 214 171 97 43 58 97 59 74 71
shrinkage=0.05


Tree=22
num_leaves=16
num_cat=0
split_feature=60 96 142 55 1 82 5 5 44 3 9 151 51 3 44
split_gain=1726.37 1885.26 1435.4 1509.88 1110.69 1413.58 1065 2444.02 1443.77 2775.93 2975.59 3689.82 1802.48 1171.28 1136.01
threshold=185.00000000000003 175.00000000000003 1.0000000180025095e-35 40.500000000000007 305.00000000000006 385.00000000000006 550.00000000000011 260.00000000000006 72.500000000000014 480.00000000000006 765.00000000000011 190.00000000000003 177.50000000000003 445.00000000000006 215.00000000000003
decision_type=2 2 2 2 2 2 2 2 2 2 2 2 2 2 2
left_child=1 2 3 4 5 6 7 8 13 10 11 14 -11 -1 -10
right_child=-2 -3 -4 -5 -6 -7 -8 -9 9 12 -12 -13 -14 -15 -16
leaf_value=0.16201156966569949 -0.38988247179985047 0.36939221238478637 0.28385369124866666 0.3440297475227943 0.30234749998365129 -0.48013953864574432 -0.31576144839778092 0.38893252105423898 -0.90550833354393656 -0.13875328790057789 0.16873289394378663 0.0065498190266745429 0.51709578514099119 -0.23512528240680697 -0.43247623768719762
leaf_count=82 25 39 42 26 21 20 33 33 30 22 25 28 20 24 22
internal_value=0 0.731792 0.125283 -0.478798 -1.01031 -1.44748 -0.936181 -0.315521 -1.37128 -3.39982 -6.14819 -9.12408 3.47112 1.44188 -14.1076
internal_count=492 467 428 386 360 339 319 286 253 147 105 80 42 106 52
shrinkage=0.05


Tree=23
num_leaves=16
num_cat=0
split_feature=60 96 18 62 42 151 45 22 45 82 62 38 45 117 82
split_gain=1558.05 1701.45 1791.01 2168.77 1812.72 2399.9 1185.67 1115.96 1065.49 1414.88 1195.16 1060.05 1762.99 2135.68 981.031
threshold=185.00000000000003 175.00000000000003 22.500000000000004 225.00000000000003 105.00000000000001 155.00000000000003 22.500000000000004 15.000000000000002 72.500000000000014 32.500000000000007 135.00000000000003 25.000000000000004 55.000000000000007 1.0000000180025095e-35 97.500000000000014
decision_type=2 2 2 2 2 2 2 2 2 2 2 2 2 2 2
left_child=1 2 3 4 5 11 -6 8 9 -4 -10 12 13 -1 -11
right_child=-2 -3 7 -5 6 -7 -8 -9 10 14 -12 -13 -14 -15 -16
leaf_value=-0.50411265492439272 -0.37038833904266361 0.35092259851785812 0.24607474688560732 0.27054747974171356 0.39885553121566775 0.12472181841731073 -0.12240918378035229 0.38089987784624102 0.358618396647433 -0.39684368548569859 -0.063863408336272617 -0.64680804564402661 -0.65893731008876455 0.11972569731228494 -0.022828034043312073
leaf_count=23 25 39 31 34 20 32 24 32 47 27 26 26 22 34 50
internal_value=0 0.695203 0.119019 -1.91707 -3.29361 -5.08707 2.29059 2.17423 1.2118 -0.782938 4.16291 -7.39763 -5.57482 -2.63997 -3.07953
internal_count=492 467 428 215 181 137 44 213 181 108 73 105 79 57 77
shrinkage=0.05


Tree=24
num_leaves=16
num_cat=0
split_feature=117 60 141 81 6 9 18 51 123 45 9 82 2 3 3
split_gain=1438.97 2121.98 1454.74 1658.59 2041.34 1044.65 1530.22 1797.86 2144.13 1584.55 1315.98 1276.54 1314.67 993.06 1490.79
threshold=290.00000000000006 185.00000000000003 155.00000000000003 65.000000000000014 110.00000000000001 105.00000000000001 285.00000000000006 245.00000000000003 27.500000000000004 22.500000000000004 436.50000000000006 222.50000000000003 185.00000000000003 480.00000000000006 205.00000000000003
decision_type=2 2 2 2 2 2 2 2 2 2 2 2 2 2 2
left_child=1 2 3 4 5 11 7 8 9 -7 -11 12 13 14 -1
right_child=-2 -3 -4 -5 -6 6 -8 -9 -10 10 -12 -13 -14 -15 -16
leaf_value=0.045225810574160683 0.36155573853424622 -0.48681271590969777 0.34660104205531461 -0.37314298851736666 -0.41770027923583986 0.35204030003236686 0.34896713222066561 -0.33404132723808289 -0.33233904484659438 -0.36874861836433415 0.15485753178596498 0.45255969847951621 0.34629327339284566 0.23948817341415973 -0.45699892098253425
leaf_count=45 28 22 31 29 25 46 24 49 32 20 30 28 34 27 22
internal_value=0 -0.150817 0.326286 -0.171956 0.381542 0.993275 -0.513737 -1.52975 0.44215 2.80513 -1.0917 2.935 1.59708 -0.330348 -2.39368
internal_count=492 464 442 411 382 357 201 177 128 96 50 156 128 94 67
shrinkage=0.05


Tree=25
num_leaves=16
num_cat=0
split_feature=117 9 82 48 2 60 2 44 44 42 27 62 51 3 2
split_gain=1699.48 1484.14 1782.72 1743.68 1893.49 1893.5 2152.88 2189.23 1698.12 1463.8 1307.07 1241.53 1239.52 1056.4 967.065
threshold=290.00000000000006 905.00000000000011 365.00000000000006 70.000000000000014 170.00000000000003 95.000000000000014 65.000000000000014 147.50000000000003 255.00000000000003 27.500000000000004 45.000000000000007 135.00000000000003 135.00000000000003 177.50000000000003 305.00000000000006
decision_type=2 2 2 2 2 2 2 2 2 2 2 2 2 2 2
left_child=1 2 3 4 5 6 7 9 10 11 14 12 -1 -3 -6
right_child=-2 13 -4 -5 8 -7 -8 -9 -10 -11 -12 -13 -14 -15 -16
leaf_value=0.038469591968018441 0.41744552946090696 0.50530376952627432 -0.4196437903812954 0.34704311452805997 -0.025510650109022093 0.30135563802719117 -0.39305737150066045 -0.31491427562453533 -0.23326856195926668 0.33846852575029646 0.57472837729887527 0.28083415806293488 -0.44729910989602406 0.0084380114078521726 0.38327666365582014
leaf_count=29 25 23 28 32 39 25 68 55 24 35 22 20 24 20 23
internal_value=0 -0.113861 -0.681575 -0.136332 -0.758503 -2.2399 -3.1346 -1.16279 2.75297 1.4525 4.87249 -1.09668 -3.63002 5.48407 2.52273
internal_count=492 467 424 396 364 256 231 163 108 108 84 73 53 43 62
shrinkage=0.05


Tree=26
num_leaves=16
num_cat=0
split_feature=128 2 18 44 60 60 2 96 26 2 149 9 151 44 53
split_gain=2285.97 1492.49 1877.75 2123.44 1243.45 1885.74 1289.12 1510.44 1365.5 1861.55 1224.34 829.595 668.141 1118.64 1045.89
threshold=1.0000000180025095e-35 305.00000000000006 355.00000000000006 465.00000000000006 95.000000000000014 42.500000000000007 255.00000000000003 55.000000000000007 325.00000000000006 170.00000000000003 55.000000000000007 90.000000000000014 110.00000000000001 62.500000000000007 122.00000000000001
decision_type=2 2 2 2 2 2 2 2 2 2 2 2 2 2 2
left_child=1 2 3 4 5 6 7 8 9 10 12 -3 14 -14 -1
right_child=-2 11 -4 -5 -6 -7 -8 -9 -10 -11 -12 -13 13 -15 -16
leaf_value=-0.077884893313698147 -0.50855779290199288 0.53945175466083339 0.39638726608506564 -0.49780371351675551 0.27111109882593154 -0.37680354188470283 -0.37182558894157414 0.28981369093937032 -0.39528961231311166 0.36038507120949886 0.31874150073244456 0.11316459560394287 0.35163616061210634 -0.17719157934188845 -0.4689494087582543
leaf_count=92 20 21 29 22 40 34 20 51 21 35 21 25 20 20 21
internal_value=0 0.744058 0.159726 -0.407711 0.15246 -0.476766 0.320631 0.872741 -0.218999 0.553358 -0.785159 6.15548 -1.7679 1.74445 -3.01121
internal_count=492 472 426 397 375 335 301 281 230 209 174 46 153 40 113
shrinkage=0.05


Tree=27
num_leaves=16
num_cat=0
split_feature=118 5 117 117 26 3 14 44 44 82 25 82 45 42 53
split_gain=2229.32 1546.49 1484.1 1182.36 1083.03 1566.28 1535.58 1018.01 1064.03 1713.8 934.152 1237.63 878.109 690.392 1191.67
threshold=1.0000000180025095e-35 550.00000000000011 290.00000000000006 76.000000000000014 255.00000000000003 565.00000000000011 190.00000000000003 385.00000000000006 125.00000000000001 135.00000000000003 1.0000000180025095e-35 192.50000000000003 92.000000000000014 42.500000000000007 92.500000000000014
decision_type=2 2 2 2 2 2 2 2 2 2 2 2 2 2 2
left_child=1 2 3 10 5 6 7 8 13 -10 11 12 -1 14 -5
right_child=-2 -3 -4 4 -6 -7 -8 -9 9 -11 -12 -13 -14 -15 -16
leaf_value=0.25807271499121404 -0.41899859053747995 -0.30677983860174818 0.4465690751870473 -0.27055150660184712 -0.39702143371105197 0.38565139177847996 -0.47396171530708675 0.32480104327201847 0.043949413028630341 -0.59556260704994202 0.24975681733881491 -0.20738475516035751 -0.049827597538630169 0.30646039247512818 0.23585578089668635
leaf_count=57 28 30 24 26 20 22 20 20 22 20 86 37 39 20 21
internal_value=0 0.808239 1.28823 0.840824 -0.977574 -0.163206 -1.32614 -0.0620937 -1.26542 -5.2116 2.42673 0.76596 2.65976 1.20831 -0.885688
internal_count=492 464 434 410 191 171 149 129 109 42 219 133 96 67 47
shrinkage=0.05


Tree=28
num_leaves=16
num_cat=0
split_feature=128 2 18 44 127 25 77 96 151 82 51 82 51 3 2
split_gain=2107.8 1290.95 1642.72 1895.87 1243.53 1340.31 1082.83 1149.02 1261.97 1053.58 1906.21 1405.86 1846.34 924.254 919.859
threshold=1.0000000180025095e-35 305.00000000000006 355.00000000000006 455.00000000000006 57.500000000000007 205.00000000000003 1.0000000180025095e-35 82.500000000000014 155.00000000000003 22.500000000000004 345.00000000000006 111.00000000000001 135.00000000000003 225.00000000000003 110.00000000000001
decision_type=2 2 2 2 2 2 2 2 2 2 2 2 2 2 2
left_child=1 2 3 4 5 6 7 8 9 -1 11 14 -13 -10 -11
right_child=-2 -3 -4 -5 -6 -7 -8 -9 13 10 -12 12 -14 -15 -16
leaf_value=-0.41776386436663177 -0.48920361161231996 0.2864960761173912 0.37096537803781443 -0.44033603644371033 0.35757757127285006 0.29382127504795791 0.24541116922066131 0.13749757291605841 0.3065588889213709 -0.19813282888483358 0.19953704697745189 -0.17324432044318228 -0.77297445649192453 -0.11922967529296875 0.22274128079414368
leaf_count=38 20 46 29 25 24 32 29 52 26 37 35 33 21 25 20
internal_value=0 0.697131 0.153684 -0.377054 0.189456 -0.290688 -0.915206 -1.50364 -2.44486 -3.66487 -2.44408 -4.47308 -8.12945 1.95678 -1.00915
internal_count=492 472 426 397 372 348 316 287 235 184 146 111 54 51 57
shrinkage=0.05


Tree=29
num_leaves=16
num_cat=0
split_feature=118 5 117 117 18 117 124 82 53 117 124 53 2 2 2
split_gain=1969.6 1372.34 1335.81 1050.05 1682.91 1442.17 1395.1 1308.2 982.147 1099.33 844.719 925.429 1221.79 1187 1983.61
threshold=1.0000000180025095e-35 550.00000000000011 290.00000000000006 76.000000000000014 285.00000000000006 112.50000000000001 65.000000000000014 192.50000000000003 65.000000000000014 175.00000000000003 147.50000000000003 92.500000000000014 27.500000000000004 72.500000000000014 170.00000000000003
decision_type=2 2 2 2 2 2 2 2 2 2 2 2 2 2 2
left_child=1 2 3 10 5 -5 7 8 9 -7 11 13 -13 -1 -15
right_child=-2 -3 -4 4 -6 6 -8 -9 -10 -11 -12 12 -14 14 -16
leaf_value=0.37606314683798703 -0.39437034896441869 -0.28960843543211617 0.42262172599633535 -0.41309321003575478 0.32703932615426873 -0.36213644919572058 0.24201937405502094 -0.42609776335733907 0.23537422847747802 0.12021545909699941 -0.19619056701660156 -0.22337714135646822 0.203702052025234 -0.30168184041976931 0.26911547669106062
leaf_count=64 28 30 24 31 26 27 34 27 25 21 20 33 34 23 45
internal_value=0 0.749017 1.20117 0.776708 -0.936927 -2.11523 -0.693251 -2.57469 -0.375015 -3.02215 2.27125 2.89387 -0.133008 4.43024 1.52103
internal_count=492 464 434 410 191 165 134 100 73 48 219 199 67 132 68
shrinkage=0.05


Tree=30
num_leaves=16
num_cat=0
split_feature=39 86 68 117 123 44 82 96 82 3 1 9 42 42 51
split_gain=1435.94 1793.58 2493.85 2024.07 1922.1 1729.4 1301.18 2026.35 1641.78 1444.79 1615.54 2220.33 2168.99 998.753 989.557
threshold=25.000000000000004 25.000000000000004 1.0000000180025095e-35 195.00000000000003 265.00000000000006 147.50000000000003 252.50000000000003 1.0000000180025095e-35 32.500000000000007 515.00000000000011 52.500000000000007 436.50000000000006 85.000000000000014 85.000000000000014 177.50000000000003
decision_type=2 2 2 2 2 2 2 2 2 2 2 2 2 2 2
left_child=1 2 3 4 6 -3 7 8 -1 10 11 12 -10 -5 -8
right_child=-2 5 -4 13 -6 -7 14 -9 9 -11 -12 -13 -14 -15 -16
leaf_value=0.030304680082757596 -0.3173132872208953 0.43740898852652688 0.4911339324453603 0.41874761119965581 -0.52659168631459286 -0.070801457762718206 -0.096845487356185922 0.17235716581344607 -1.0460919111967086 -0.017953483292034694 -0.0014626288414001465 -0.1355520989894867 -0.34106746315956116 0.0027888602680630156 0.36032109096132481
leaf_count=59 32 47 23 31 24 26 20 50 24 35 20 25 20 27 29
internal_value=0 0.581565 -0.276041 -0.914147 -1.94078 5.12805 -1.20963 -2.19469 -3.73618 -5.80226 -7.94283 -10.2366 -14.5125 4.50223 3.47445
internal_count=492 460 387 364 306 73 282 233 183 124 89 69 44 58 49
shrinkage=0.05


Tree=31
num_leaves=16
num_cat=0
split_feature=128 39 186 86 42 44 42 96 9 18 51 117 117 44 45
split_gain=1939.67 2050.96 1659.23 1795.28 1576.55 1567.7 1352.32 1231.84 1408.27 1393.21 1738.3 1212.51 913.295 1015.5 794.87
threshold=1.0000000180025095e-35 25.000000000000004 85.000000000000014 25.000000000000004 335.00000000000006 147.50000000000003 210.00000000000003 77.500000000000014 1.0000000180025095e-35 72.500000000000014 75.000000000000014 76.000000000000014 22.500000000000004 45.000000000000007 22.500000000000004
decision_type=2 2 2 2 2 2 2 2 2 2 2 2 2 2 2
left_child=1 2 3 4 6 -5 7 8 12 11 -11 -10 -1 -14 -6
right_child=-2 -3 -4 5 14 -7 -8 -9 9 10 -12 -13 13 -15 -16
leaf_value=0.31926051425306423 -0.47606814622879035 -0.37340507706006371 -0.34183829796314241 0.48909152529456401 -0.040042126178741456 -0.027843477780168709 0.41574219534030327 0.26441413539648057 -0.10455792585144873 -0.1929084473186069 0.39861375870911975 -0.52187852093151643 -0.25796164688856704 0.14347993433475495 -0.48581963896751407
leaf_count=38 20 30 25 44 20 22 26 50 46 27 23 28 23 50 20
internal_value=0 0.533145 1.07622 1.55062 0.650876 6.3356 1.41094 0.781109 -0.177864 -2.49398 1.58384 -5.24926 2.40951 0.339967 -5.25862
internal_count=492 472 442 417 351 66 311 285 235 124 50 74 111 73 40
shrinkage=0.05


Tree=32
num_leaves=16
num_cat=0
split_feature=128 39 186 86 68 51 27 44 44 123 82 38 45 117 82
split_gain=1750.56 1850.99 1497.46 1620.24 1500.66 1616.85 1498.42 1414.85 1413.08 1252.29 1201.9 1292.56 1151.9 1141.8 813.192
threshold=1.0000000180025095e-35 25.000000000000004 85.000000000000014 25.000000000000004 1.0000000180025095e-35 75.000000000000014 135.00000000000003 147.50000000000003 282.50000000000006 95.000000000000014 242.50000000000003 52.500000000000007 35.000000000000007 76.000000000000014 92.500000000000014
decision_type=2 2 2 2 2 2 2 2 2 2 2 2 2 2 2
left_child=1 2 3 4 5 9 8 -5 10 12 11 13 14 -7 -1
right_child=-2 -3 -4 7 -6 6 -8 -9 -10 -11 -12 -13 -14 -15 -16
leaf_value=-0.08609058062235514 -0.45226474285125734 -0.35473481843868893 -0.32474638485908508 0.46463695493611423 0.44074711281628842 0.057983741883573858 -0.29861552606929437 -0.026451304013078866 0.45830536094205138 -0.47932810268618847 0.35057584270834924 0.31157497253130984 -0.27360028713941575 -0.29749414920806888 0.27690707489296246
leaf_count=36 20 30 25 44 21 58 22 22 29 22 32 27 40 37 27
internal_value=0 0.506488 1.02241 1.47309 0.618332 0.0967296 1.82517 6.01882 2.76258 -2.73792 1.55672 0.12595 -1.2751 -1.60931 1.3896
internal_count=492 472 442 417 351 330 205 66 183 125 154 122 103 95 63
shrinkage=0.05


Tree=33
num_leaves=16
num_cat=0
split_feature=151 56 9 123 25 3 79 3 45 82 123 9 53 117 18
split_gain=1316.25 2143.28 1298.62 1265.76 1383.25 2113.06 2003.04 2628.66 1804.83 1616.76 1078.41 1118.49 1628.28 1357.17 905.338
threshold=88.000000000000014 85.000000000000014 436.50000000000006 210.00000000000003 205.00000000000003 190.00000000000003 225.00000000000003 515.00000000000011 15.000000000000002 92.500000000000014 95.000000000000014 710.00000000000011 127.50000000000001 57.500000000000007 45.000000000000007
decision_type=2 2 2 2 2 2 2 2 2 2 2 2 2 2 2
left_child=1 3 14 4 5 10 7 8 -7 -9 11 12 13 -1 -2
right_child=2 -3 -4 -5 -6 6 -8 9 -10 -11 -12 -13 -14 -15 -16
leaf_value=0.056277197599411015 -0.064654253773165471 0.40055678653717042 0.39938503793307717 -0.37844899725168946 0.34371640284856164 -0.25126686812408511 0.22071568153121254 -0.32288251633827508 -0.79080488643338609 0.22952817523920976 0.32048070248096222 0.29450861175099147 0.2947757136821747 -0.41253495843786941 0.24170301180136833
leaf_count=26 66 25 35 32 21 31 22 26 31 27 31 23 20 38 38
internal_value=0 -0.914084 2.71885 -1.59436 -0.948455 -1.54583 -4.32791 -6.00033 -10.4207 -0.829315 1.21609 -0.288581 -1.98038 -4.4416 0.94568
internal_count=492 353 139 328 296 275 137 115 62 53 138 107 84 64 104
shrinkage=0.05


Tree=34
num_leaves=16
num_cat=0
split_feature=128 39 186 86 52 123 44 82 52 1 51 82 151 44 5
split_gain=1569.54 1669.84 1340.72 1456.88 1520.48 1350.96 1273.55 1231.72 1452.22 1413.35 1049.37 790.673 711.887 549.597 1363.3
threshold=1.0000000180025095e-35 25.000000000000004 85.000000000000014 25.000000000000004 127.50000000000001 210.00000000000003 147.50000000000003 242.50000000000003 65.000000000000014 52.500000000000007 320.00000000000006 302.50000000000006 88.000000000000014 312.50000000000006 25.000000000000004
decision_type=2 2 2 2 2 2 2 2 2 2 2 2 2 2 2
left_child=1 2 3 4 5 7 -5 8 9 10 12 -9 13 14 -1
right_child=-2 -3 -4 6 -6 -7 -8 11 -10 -11 -12 -13 -14 -15 -16
leaf_value=-0.11566403308043294 -0.4285065466165543 -0.33726558317740762 -0.30743452906608582 0.44037151282483883 0.32335572792933537 -0.36029922294616701 -0.025549707900394094 0.46731507259866467 -0.41958872588972257 0.26207479543012119 0.19959864621324575 0.052724350017050038 0.059264968820782596 0.016831915378570556 -0.59433498382568362
leaf_count=51 20 30 25 44 39 25 22 23 21 46 34 23 43 25 21
internal_value=0 0.474341 0.964363 1.3908 0.580286 -0.155567 5.70129 0.45858 -0.446496 0.311917 -0.991305 5.20039 -2.20153 -3.70291 -5.10553
internal_count=492 472 442 417 351 312 66 287 241 220 174 46 140 97 72
shrinkage=0.05


Tree=35
num_leaves=16
num_cat=0
split_feature=96 45 123 38 18 9 25 3 2 82 82 96 2 117 44
split_gain=2044.29 2141.32 1921.08 1865.54 3200.21 1477.15 1668.51 1398.81 2585.88 2077.07 1407.86 1066.97 832.187 566.022 439.944
threshold=62.500000000000007 127.50000000000001 210.00000000000003 25.000000000000004 65.000000000000014 905.00000000000011 205.00000000000003 205.00000000000003 145.00000000000003 167.50000000000003 32.500000000000007 122.50000000000001 185.00000000000003 68.000000000000014 62.500000000000007
decision_type=2 2 2 2 2 2 2 2 2 2 2 2 2 2 2
left_child=1 2 3 5 -5 6 7 9 -9 10 -1 -2 13 -3 -13
right_child=11 12 -4 4 -6 -7 -8 8 -10 -11 -12 14 -14 -15 -16
leaf_value=0.16105289614718896 0.45671662608782448 -0.10227989801338742 -0.58235710234869098 -0.64316499573843822 0.097515590071678163 0.34998607337474824 0.33572337044321976 -0.56336273520420765 0.016193013755898728 0.32386260830304203 -0.3216691601005468 0.24557546701120292 0.33211317581086847 0.18866781592369081 -0.047248950497857461
leaf_count=23 30 35 21 35 25 24 23 39 38 34 44 23 37 32 29
internal_value=0 -1.08434 -2.41665 -1.73651 -6.69096 -0.415325 -1.3007 -2.33637 -5.54696 0.111307 -3.11917 4.38525 2.83572 0.733604 1.64539
internal_count=492 410 306 285 60 225 201 178 77 101 67 82 104 67 52
shrinkage=0.05


Tree=36
num_leaves=16
num_cat=0
split_feature=96 45 123 38 18 25 14 49 96 151 27 5 53 124 42
split_gain=1844.97 1932.55 1733.77 1683.65 2888.19 1327.06 1600.81 1063.3 962.939 863.252 1084.05 1016.57 1596.87 763.45 950.513
threshold=62.500000000000007 127.50000000000001 210.00000000000003 25.000000000000004 65.000000000000014 205.00000000000003 125.00000000000001 1.0000000180025095e-35 122.50000000000001 190.00000000000003 62.500000000000007 25.000000000000004 1.0000000180025095e-35 85.000000000000014 155.00000000000003
decision_type=2 2 2 2 2 2 2 2 2 2 2 2 2 2 2
left_child=1 2 3 5 -5 6 7 9 -2 10 11 12 -1 14 -3
right_child=8 13 -4 4 -6 -7 -8 -9 -10 -11 -12 -13 -14 -15 -16
leaf_value=0.32895376943051818 0.43388079722722372 0.30407764579429003 -0.55323924791245227 -0.61100676434380674 0.092639815658330918 0.31621425553010063 -0.4002059808373451 0.3121142921240434 0.078156065711608311 0.23499421206387608 -0.42318719219077716 -0.28073878328005475 -0.14492296319454909 -0.14293425679206848 -0.073112079501152047
leaf_count=32 30 61 21 35 25 26 30 23 52 22 22 30 40 20 23
internal_value=0 -1.03013 -2.29582 -1.64969 -6.35641 -0.394559 -1.2724 -0.0774175 4.16599 -1.07299 -2.09721 -0.724032 1.31378 2.69394 4.01599
internal_count=492 410 306 285 60 225 199 169 82 146 124 102 72 104 84
shrinkage=0.05


Tree=37
num_leaves=16
num_cat=0
split_feature=96 118 5 38 60 44 5 81 5 96 52 44 14 53 44
split_gain=1665.09 1784.5 1447.23 1648.82 2298.48 1264.74 1473.38 942.505 1086 869.053 774.75 915.657 841.361 870.516 488.228
threshold=62.500000000000007 1.0000000180025095e-35 655.00000000000011 25.000000000000004 1.0000000180025095e-35 505.00000000000006 260.00000000000006 51.000000000000007 55.000000000000007 122.50000000000001 1.0000000180025095e-35 72.500000000000014 1.0000000180025095e-35 1.0000000180025095e-35 72.500000000000014
decision_type=2 2 2 2 2 2 2 2 2 2 2 2 2 2 2
left_child=1 2 3 5 14 6 7 8 10 -2 11 -1 13 -13 -5
right_child=9 -3 -4 4 -6 -7 -8 -9 -10 -11 -12 12 -14 -15 -16
leaf_value=-0.096945505845360463 0.41218675613403327 -0.50956233024597164 -0.41923922185193413 0.16855497181415557 -0.63205049970875615 -0.31782164001329383 0.38443508121897196 -0.27898575826124711 -0.25399041945735612 0.074248261348559316 0.2795548924026971 0.20553945302963259 0.3902983610446637 -0.16992591320035549 -0.17277903448451648
leaf_count=64 30 20 22 20 23 22 34 22 24 52 47 38 26 26 22
internal_value=0 -0.97862 -0.506177 -0.0351734 -4.60529 0.945215 1.51687 0.667311 1.27813 3.95769 2.03729 0.952684 3.00893 1.06013 -0.204781
internal_count=492 410 390 368 65 303 281 247 225 82 201 154 90 64 42
shrinkage=0.05


Tree=38
num_leaves=16
num_cat=0
split_feature=96 45 82 5 5 151 151 49 44 51 96 123 51 42 3
split_gain=1502.74 1720.06 1744.55 1581.16 1995.26 821.161 1456.39 1346.72 923.474 1358.31 784.32 753.327 678.789 570.442 414.207
threshold=62.500000000000007 127.50000000000001 282.50000000000006 550.00000000000011 260.00000000000006 190.00000000000003 1.0000000180025095e-35 1.0000000180025095e-35 165.00000000000003 185.00000000000003 122.50000000000001 32.500000000000007 177.50000000000003 105.00000000000001 190.00000000000003
decision_type=2 2 2 2 2 2 2 2 2 2 2 2 2 2 2
left_child=1 2 3 4 5 6 7 8 9 14 -2 13 -7 -3 -1
right_child=10 11 -4 -5 -6 12 -8 -9 -10 -11 -12 -13 -14 -15 -16
leaf_value=0.29371819469061766 0.39157741606235508 0.14758760580476724 -0.4438611791414373 -0.4703598927367818 0.33400234543915952 -0.059706960405622213 -0.5145519259301099 0.29234644146192645 -0.34231276072752781 -0.25877449047274709 0.070535846627675577 0.36839911460876468 0.321678341627121 -0.13834571663576822 -0.0066408316294352225
leaf_count=22 30 53 34 22 33 28 22 21 39 41 52 25 20 26 24
internal_value=0 -0.929689 -2.12377 -1.27959 -0.564364 -1.66605 -2.70277 -1.56711 -2.80278 -0.990192 3.7598 2.58368 1.98407 1.06966 2.74018
internal_count=492 410 306 272 250 217 169 147 126 87 82 104 48 79 46
shrinkage=0.05


Tree=39
num_leaves=16
num_cat=0
split_feature=96 118 5 113 38 60 26 45 5 5 52 53 117 51 45
split_gain=1356.22 1563.41 1181.2 1227.59 1408.53 2301.38 1232.81 1153.51 1009.76 1670.13 1278.58 1298.65 1358.72 1232.59 726.75
threshold=62.500000000000007 1.0000000180025095e-35 590.00000000000011 1.0000000180025095e-35 25.000000000000004 1.0000000180025095e-35 325.00000000000006 340.00000000000006 260.00000000000006 67.500000000000014 1.0000000180025095e-35 1.0000000180025095e-35 57.500000000000007 320.00000000000006 92.000000000000014
decision_type=2 2 2 2 2 2 2 2 2 2 2 2 2 2 2
left_child=1 2 3 4 6 -6 7 8 9 10 11 13 -13 14 -1
right_child=-2 -3 -4 -5 5 -7 -8 -9 -10 -11 -12 12 -14 -15 -16
leaf_value=0.11604120260790776 0.17859057533304867 -0.47531345725059515 -0.34763466967986179 0.38201832979917527 -0.011157770690165068 -0.6633693150111607 -0.3534322822466493 0.40036535669456835 0.28400339707732203 -0.44054018997010735 0.26562313823537392 -0.556872747540474 -0.052134657129645351 0.41573105085463757 -0.22322891362839276
leaf_count=38 82 20 26 20 38 21 20 22 32 21 44 20 40 21 27
internal_value=0 -0.883204 -0.440996 0.0241256 -0.418679 -4.86602 0.501998 1.07337 0.445603 -0.348249 0.587086 -0.837001 -4.40761 1.65412 -0.497728
internal_count=492 410 390 364 344 59 285 265 243 211 190 146 60 86 65
shrinkage=0.05


Tree=40
num_leaves=16
num_cat=0
split_feature=117 60 124 117 18 42 82 124 27 62 2 62 22 18 186
split_gain=1531.98 1478.32 1356.89 1434.33 2395.07 1514.31 1318.41 1217.45 1106.61 859.584 764.839 710.794 666.854 754.756 908.034
threshold=183.00000000000003 185.00000000000003 55.000000000000007 102.50000000000001 95.000000000000014 377.50000000000006 167.50000000000003 155.00000000000003 135.00000000000003 205.00000000000003 35.000000000000007 72.500000000000014 15.000000000000002 210.00000000000003 31.500000000000004
decision_type=2 2 2 2 2 2 2 2 2 2 2 2 2 2 2
left_child=1 2 3 5 11 8 10 -4 9 12 -2 -5 13 14 -1
right_child=6 -3 7 4 -6 -7 -8 -9 -10 -11 -12 -13 -14 -15 -16
leaf_value=0.10425676659533852 0.29284067494528637 -0.47326448351144795 0.33714662605807899 -0.3009156056245168 0.13630982780456544 -0.41278923898935321 0.49480318180285399 -0.06532788143000183 -0.28328519967886118 0.32582164892443904 -0.086851445668273505 -0.67508798241615298 0.29165546655654911 -0.27897034080132194 -0.23441577911376954
leaf_count=95 21 20 42 30 25 22 24 34 26 27 36 22 20 23 25
internal_value=0 -1.07965 -0.650714 -1.56574 -5.31731 -0.352 3.67859 3.14184 0.453015 1.29031 1.0607 -9.18439 0.424637 -0.331793 0.674
internal_count=492 411 391 315 77 238 81 76 216 190 57 52 163 143 120
shrinkage=0.05


Tree=41
num_leaves=16
num_cat=0
split_feature=128 39 68 186 45 62 63 9 48 5 117 117 96 9 117
split_gain=1417.82 1677.93 1428.24 1065.94 1212.48 961.558 910.453 837.202 1218.57 1277.1 992.45 1030.52 943.72 836.587 747.073
threshold=1.0000000180025095e-35 25.000000000000004 1.0000000180025095e-35 85.000000000000014 210.00000000000003 365.00000000000006 37.500000000000007 501.00000000000006 1.0000000180025095e-35 590.00000000000011 76.000000000000014 122.50000000000001 55.000000000000007 710.00000000000011 62.500000000000007
decision_type=2 2 2 2 2 2 2 2 2 2 2 2 2 2 2
left_child=1 2 3 4 5 6 7 8 9 10 -1 -12 13 -9 -15
right_child=-2 -3 -4 -5 -6 -7 -8 12 -10 -11 11 -13 -14 14 -16
leaf_value=0.19177984555180258 -0.42641133487224581 -0.38705184710426976 0.40135278205076858 -0.33402092639695513 0.29612371615461403 0.26678920070330303 -0.2525178927183151 -0.4936772808432579 0.40875037420879717 -0.34242507490244778 -0.25306316195307554 0.10138907225235649 0.14804912390916244 -0.29559294246137141 0.1127662948199681
leaf_count=78 20 26 24 22 37 30 40 20 22 22 37 46 23 24 21
internal_value=0 0.067974 0.523208 0.0964487 0.469176 -0.0866694 -0.575179 0.0357673 1.14327 0.297928 1.27446 -1.1324 -2.54422 -4.49221 -2.10051
internal_count=492 472 446 422 400 363 333 293 205 183 161 83 88 65 45
shrinkage=0.05


Tree=42
num_leaves=16
num_cat=0
split_feature=117 60 82 124 117 18 9 123 5 124 81 1 9 53 82
split_gain=1348.55 1337.83 1215.22 1206.65 1285.43 2159.13 3549.16 1407.62 1804.02 1082.21 806.468 1121.73 986.847 1329.23 874.505
threshold=183.00000000000003 185.00000000000003 167.50000000000003 55.000000000000007 102.50000000000001 95.000000000000014 190.00000000000003 210.00000000000003 477.50000000000006 155.00000000000003 32.500000000000007 1.0000000180025095e-35 605.00000000000011 92.500000000000014 97.500000000000014
decision_type=2 2 2 2 2 2 2 2 2 2 2 2 2 2 2
left_child=1 3 -2 4 7 6 -6 8 10 -5 11 12 13 14 -1
right_child=2 -3 -4 9 5 -7 -8 -9 -10 -11 -12 -13 -14 -15 -16
leaf_value=0.090270030895868936 0.047428697347640991 -0.44898053735494614 0.47155644738425812 0.31886503696441654 -0.036535323107684099 0.13141671943664551 -0.86330094861984252 -0.35533515259071635 -0.36189810633659364 -0.06059660635450307 -0.20883916024814383 0.34312111834685011 -0.16789999243460205 -0.14981842305925158 0.48250473781868264
leaf_count=30 57 20 24 42 27 25 25 27 26 34 21 42 38 27 27
internal_value=0 -1.00237 3.46192 -0.594323 -1.45721 -5.00872 -8.68038 -0.308194 0.561758 2.98212 1.65793 2.40506 0.870563 2.78348 5.52131
internal_count=492 411 81 391 315 77 52 238 211 76 185 164 122 84 57
shrinkage=0.05


Tree=43
num_leaves=16
num_cat=0
split_feature=117 60 82 124 117 123 5 42 9 124 81 1 52 9 82
split_gain=1217.06 1207.39 1096.73 1089 1160.1 1270.38 1628.13 1254.31 1401.37 976.692 727.837 1012.36 925.432 919.383 987.49
threshold=183.00000000000003 185.00000000000003 167.50000000000003 55.000000000000007 102.50000000000001 210.00000000000003 477.50000000000006 145.00000000000003 190.00000000000003 155.00000000000003 32.500000000000007 1.0000000180025095e-35 25.000000000000004 501.00000000000006 97.500000000000014
decision_type=2 2 2 2 2 2 2 2 2 2 2 2 2 2 2
left_child=1 3 -2 4 5 6 10 8 -6 -5 11 12 13 14 -1
right_child=2 -3 -4 9 7 -7 -8 -9 -10 -11 -12 -13 -14 -15 -16
leaf_value=-0.1161066222190857 0.045057257225638941 -0.42653151378035548 0.44797862358391288 0.30292178562709265 -0.11136984484536308 -0.33756839655063775 -0.34380321365136368 0.091628647985912512 -0.61161526963114743 -0.057566781604991235 -0.19839720818258466 0.32596506362869626 0.29966238781257915 -0.23571927223886766 0.28957996686299642
leaf_count=30 57 20 24 42 28 27 26 21 28 34 21 42 27 35 30
internal_value=0 -0.952248 3.28883 -0.564607 -1.38435 -0.292784 0.53367 -4.75828 -7.22985 2.83301 1.57504 2.28481 0.827034 -0.641258 1.73473
internal_count=492 411 81 391 315 238 211 77 56 76 185 164 122 95 60
shrinkage=0.05


Tree=44
num_leaves=16
num_cat=0
split_feature=128 142 186 26 9 45 75 60 51 51 52 3 51 18 82
split_gain=1269.26 831.167 904.173 733.706 994.281 768.949 909.034 912.521 1030.53 864.065 955.433 1165.39 1898.24 995.706 712.188
threshold=1.0000000180025095e-35 1.0000000180025095e-35 85.000000000000014 210.00000000000003 90.000000000000014 210.00000000000003 1.0000000180025095e-35 42.500000000000007 185.00000000000003 460.00000000000006 1.0000000180025095e-35 255.00000000000003 55.000000000000007 95.000000000000014 82.000000000000014
decision_type=2 2 2 2 2 2 2 2 2 2 2 2 2 2 2
left_child=1 2 3 5 -5 6 7 9 -9 10 11 12 -1 14 -14
right_child=-2 -3 -4 4 -6 -7 -8 8 -10 -11 -12 -13 13 -15 -16
leaf_value=-0.39261977009867371 -0.40220436513423918 0.2225146618485451 -0.32799764234911311 -0.45152114152908329 0.003607378751039505 0.25991222150623799 0.29938122431437175 0.0075828605779895072 -0.43344859618407033 -0.27975138263268906 0.24154550248384477 0.15541277208190035 -0.3033179811068944 0.31557738936465718 0.081873587944677903
leaf_count=38 20 40 22 20 30 32 24 27 26 22 50 69 21 23 28
internal_value=0 0.0893046 -0.314491 0.0206317 -3.56888 0.519175 0.0626805 -0.405078 -4.17544 0.391055 0.966137 -0.113409 -2.13427 0.883629 -1.66417
internal_count=492 472 432 410 50 360 328 304 53 251 229 179 110 72 49
shrinkage=0.05


Tree=45
num_leaves=16
num_cat=0
split_feature=82 186 48 18 22 186 5 9 14 25 82 53 82 53 51
split_gain=1548.73 2925.91 1096.32 983.268 1715.6 1260.61 763.379 874.299 917.467 815.631 648.284 647.299 606.133 554.204 788.582
threshold=335.00000000000006 14.500000000000002 95.000000000000014 105.00000000000001 29.000000000000004 31.500000000000004 55.000000000000007 1.0000000180025095e-35 45.000000000000007 1.0000000180025095e-35 111.00000000000001 155.00000000000003 82.000000000000014 92.500000000000014 85.000000000000014
decision_type=2 2 2 2 2 2 2 2 2 2 2 2 2 2 2
left_child=2 -2 3 4 5 6 7 12 9 -9 -8 13 -1 14 -5
right_child=1 -3 -4 11 -6 -7 10 8 -10 -11 -12 -13 -14 -15 -16
leaf_value=0.113708724624435 -0.52504397667944436 0.22400654229250822 0.36099530725643558 0.0094581068182984993 -0.36925276994705203 -0.22835457477814114 -0.29419107840142472 0.027630888951836893 -0.18669128171328842 0.36526160805865571 0.094196866807483501 0.38131386661529543 0.46726533075173693 -0.13862408638000487 0.29916428612626117
leaf_count=22 32 22 29 48 30 39 22 53 29 27 21 25 27 20 46
internal_value=0 -4.3975 1.27842 0.857146 -0.255353 0.635859 1.64539 2.66205 1.08485 2.83163 -2.09026 3.01812 6.17051 2.00756 3.02458
internal_count=492 54 438 409 270 240 201 158 109 80 43 139 49 114 94
shrinkage=0.05


Tree=46
num_leaves=16
num_cat=0
split_feature=82 186 45 186 53 45 39 10 53 123 3 42 51 3 5
split_gain=1397.73 2640.63 1140.86 2037.25 2054.18 1778.66 743.412 1100.45 711.929 1177.92 701.549 894.925 474.649 589.614 923.538
threshold=335.00000000000006 14.500000000000002 127.50000000000001 31.500000000000004 275.00000000000006 85.000000000000014 1.0000000180025095e-35 90.000000000000014 105.00000000000001 32.500000000000007 77.500000000000014 155.00000000000003 345.00000000000006 405.00000000000006 45.000000000000007
decision_type=2 2 2 2 2 2 2 2 2 2 2 2 2 2 2
left_child=2 -2 3 4 5 6 7 8 9 12 -4 -12 13 14 -1
right_child=1 -3 10 -5 -6 -7 -8 -9 -10 -11 11 -13 -14 -15 -16
leaf_value=0.38771755284554255 -0.49879176430404187 0.21280621398578992 0.40577636109044157 -0.3304618027649428 0.52335675738074572 -0.30620097253057693 -0.19178032924731572 0.45470195114612583 -0.13194640617112857 -0.14103977837732859 0.22105311381320161 -0.15819244693432535 0.40514917767473629 -0.065814560517668722 0.020903340540826321
leaf_count=37 32 22 30 38 22 36 24 20 37 35 60 21 21 25 32
internal_value=0 -4.17763 1.2145 0.274201 1.17929 0.413999 1.43291 2.04375 1.28971 2.25878 3.98458 2.4546 3.80473 2.84449 4.35202
internal_count=492 54 438 327 289 267 231 207 187 150 111 81 115 94 69
shrinkage=0.05


Tree=47
num_leaves=16
num_cat=0
split_feature=82 186 45 186 53 45 42 62 53 123 42 44 117 3 42
split_gain=1261.45 2383.17 1029.63 1838.62 1853.9 1605.24 710.124 1150.89 1548.39 1696.02 806.755 776.767 727.583 633.148 807.67
threshold=335.00000000000006 14.500000000000002 127.50000000000001 31.500000000000004 275.00000000000006 85.000000000000014 235.00000000000003 185.00000000000003 92.500000000000014 32.500000000000007 85.000000000000014 72.500000000000014 57.500000000000007 77.500000000000014 155.00000000000003
decision_type=2 2 2 2 2 2 2 2 2 2 2 2 2 2 2
left_child=2 -2 3 4 5 6 7 8 9 10 -1 -10 -8 -4 -15
right_child=1 -3 13 -5 -6 -7 12 -9 11 -11 -12 -13 -14 14 -16
leaf_value=0.33841860677514757 -0.47385218981653454 0.20216590328650041 0.3854875414570173 -0.31393871409328367 0.49718892140821974 -0.29089092297686475 0.040951312035322193 0.24506720540964089 -0.040632685025533043 -0.28782971445471051 -0.00446473503934926 -0.44290915597230196 0.46233591692788267 0.21000046093637745 -0.15028281846926328
leaf_count=42 32 22 30 38 22 36 20 46 21 24 29 28 21 60 21
internal_value=0 -3.96875 1.15378 0.260491 1.12033 0.393299 1.36127 0.546794 -0.844243 1.51078 3.96735 -5.4101 5.13565 3.78535 2.33187
internal_count=492 54 438 327 289 267 231 190 144 95 71 49 41 111 81
shrinkage=0.05


Tree=48
num_leaves=16
num_cat=0
split_feature=27 66 45 48 79 53 51 39 186 51 51 26 45 3 44
split_gain=1224.46 923.007 1293.1 1325.54 1032.2 984.332 1648.97 1167.99 1468.04 1258.89 1273.57 1190.71 756.064 514.968 469.234
threshold=135.00000000000003 115.00000000000001 210.00000000000003 95.000000000000014 225.00000000000003 177.50000000000003 245.00000000000003 1.0000000180025095e-35 31.500000000000004 290.00000000000006 185.00000000000003 160.00000000000003 92.000000000000014 140.00000000000003 45.000000000000007
decision_type=2 2 2 2 2 2 2 2 2 2 2 2 2 2 2
left_child=1 2 3 4 5 7 -7 8 9 10 11 12 13 -1 -11
right_child=-2 -3 -4 -5 -6 6 -8 -9 -10 14 -12 -13 -14 -15 -16
leaf_value=0.38865380419625178 -0.24850970867115096 -0.26534420631148598 0.31135391077647606 0.36119407790488212 0.3413881502368234 0.33359906103875903 -0.18682871072188667 -0.41346153978790556 -0.30199824839830403 0.36226673664585241 -0.30997319204466689 -0.25596716128013752 -0.08017071217298509 0.089970116269203926 0.067784280950824422
leaf_count=27 37 22 48 29 22 45 23 21 40 31 35 27 30 31 24
internal_value=0 1.01184 1.33288 0.722699 0.193109 -0.243904 3.15144 -1.11189 -0.498401 0.58288 -0.917676 0.689825 2.47218 4.58025 4.67531
internal_count=492 455 433 385 356 334 68 266 245 205 150 115 88 58 55
shrinkage=0.05


Tree=49
num_leaves=16
num_cat=0
split_feature=82 186 183 61 79 142 62 44 18 3 9 82 51 186 82
split_gain=1110.85 1879.49 985.435 776.317 872.931 796.704 1166.77 881.967 2026.27 1058.47 1041.81 1675.14 821.606 804.294 813.839
threshold=315.00000000000006 14.500000000000002 9.0000000000000018 12.500000000000002 225.00000000000003 1.0000000180025095e-35 365.00000000000006 17.500000000000004 105.00000000000001 425.00000000000006 1.0000000180025095e-35 135.00000000000003 135.00000000000003 18.000000000000004 142.50000000000003
decision_type=2 2 2 2 2 2 2 2 2 2 2 2 2 2 2
left_child=2 -2 3 4 5 6 7 9 10 13 11 -9 -12 14 -1
right_child=1 -3 -4 -5 -6 -7 -8 8 -10 -11 12 -13 -14 -15 -16
leaf_value=0.1344501840216773 -0.38146241748562226 0.1965157606384971 0.38902055507614497 -0.2582689989180792 0.33963573294878008 0.27247000671923161 0.28428626332964219 -0.33436726399443373 0.14035167479887606 -0.19577219200134277 -0.13798383537899048 0.2696611477682988 -0.46861558882963089 -0.086955828016454531 0.50984923216429623
leaf_count=42 39 22 21 21 25 32 35 22 64 25 34 24 42 22 22
internal_value=0 -3.46023 1.09916 0.756954 1.07667 0.684083 0.224775 -0.418771 -1.75 1.81194 -4.14058 -0.38444 -6.41403 3.47688 5.26987
internal_count=492 61 431 410 389 364 332 297 186 111 122 46 76 86 64
shrinkage=0.05


Tree=50
num_leaves=16
num_cat=0
split_feature=3 170 9 62 25 151 42 3 1 117 2 3 14 51 42
split_gain=941.7 1181.27 1087.98 1114.04 1596.42 1019.99 1557.04 1320.62 905.102 1146.1 901.526 854.703 1015.15 820.974 752.117
threshold=565.00000000000011 1.0000000180025095e-35 1010.0000000000001 155.00000000000003 82.500000000000014 110.00000000000001 235.00000000000003 382.50000000000006 145.00000000000003 72.500000000000014 1.0000000180025095e-35 755.00000000000011 85.000000000000014 210.00000000000003 1.0000000180025095e-35
decision_type=2 2 2 2 2 2 2 2 2 2 2 2 2 2 2
left_child=1 2 3 5 -5 6 7 8 9 13 -7 -2 -13 -1 -11
right_child=11 -3 -4 4 -6 10 -8 -9 -10 14 -12 12 -14 -15 -16
leaf_value=0.077525253819696827 0.32419864448743896 -0.41327907979488376 0.25528568842194299 0.30956575462351676 -0.15030610021203758 -0.12294237951437632 0.10944026516543495 -0.59326110013893674 0.070100147877970059 -0.57522905705303984 0.25058387483869282 -0.16542600191790949 0.25697277069091795 -0.32238726275307794 -0.18232260374795825
leaf_count=33 37 20 33 46 32 30 45 21 31 29 35 33 25 21 21
internal_value=0 -0.7764 -0.379096 -0.905255 2.41801 -1.87975 -2.99331 -4.48815 -3.34061 -4.75427 1.56374 2.72855 0.332849 -1.55993 -8.20417
internal_count=492 397 377 344 78 266 201 156 135 104 65 95 58 54 50
shrinkage=0.05


Tree=51
num_leaves=16
num_cat=0
split_feature=46 3 117 18 123 3 25 62 45 9 27 3 124 42 14
split_gain=1124.83 1078.06 1064.82 2250.66 1103 1488.41 1013.11 1531.78 1351.03 958.424 895.403 790.602 755.643 713.401 679.862
threshold=55.000000000000007 565.00000000000011 76.000000000000014 285.00000000000006 265.00000000000006 205.00000000000003 151.50000000000003 185.00000000000003 115.00000000000001 62.500000000000007 95.000000000000014 735.00000000000011 77.500000000000014 42.500000000000007 35.000000000000007
decision_type=2 2 2 2 2 2 2 2 2 2 2 2 2 2 2
left_child=1 2 4 6 5 10 7 8 12 -7 -1 -3 13 -4 -13
right_child=-2 11 3 -5 -6 9 -8 -9 -10 -11 -12 14 -14 -15 -16
leaf_value=0.20633468635173308 0.32201989698410038 0.35173188666147848 -0.6466430842876435 0.29675105412801112 -0.32564685855593001 -0.39938377837340039 -0.53835806792432617 0.17113425937982707 0.041521381569543374 0.027767894596889105 -0.15787984132766725 -0.14113489965597789 -0.12078700434593928 -0.2708237243735272 0.18115028358168073
leaf_count=108 25 28 28 24 21 24 22 26 27 29 20 30 21 23 36
internal_value=0 -0.444492 -1.20722 -3.0436 0.347329 1.14327 -4.5095 -3.40815 -5.2021 -3.31319 2.98852 2.5821 -7.4643 -9.54312 0.69314
internal_count=492 467 373 171 202 181 147 125 99 53 128 94 72 51 66
shrinkage=0.05


Tree=52
num_leaves=16
num_cat=0
split_feature=46 128 48 117 18 3 123 18 27 86 52 25 10 82 82
split_gain=1015.16 1035.26 878.375 1046.08 1760.59 1403.29 900.558 1017.63 1025.21 892.995 782.392 805.391 709.758 589.945 611.811
threshold=55.000000000000007 1.0000000180025095e-35 70.000000000000014 76.000000000000014 252.50000000000003 595.00000000000011 210.00000000000003 210.00000000000003 95.000000000000014 25.000000000000004 65.000000000000014 105.00000000000001 35.000000000000007 172.50000000000003 62.500000000000007
decision_type=2 2 2 2 2 2 2 2 2 2 2 2 2 2 2
left_child=1 2 3 6 5 9 7 8 12 10 11 -5 13 14 -1
right_child=-2 -3 -4 4 -6 -7 -8 -9 -10 -11 -12 -13 -14 -15 -16
leaf_value=0.27171351686120032 0.30591890335083011 -0.34820001591806826 0.236236717743533 -0.13866243925359514 0.23970646540323895 0.15763586851266714 -0.24016295721133551 -0.18388132065534593 -0.16284704780578615 -0.018994462128841517 -0.58229547469368714 -0.49197410085926885 -0.041170965773718704 0.37807728389844947 -0.033022778055497574
leaf_count=40 25 23 35 54 30 26 24 30 25 33 22 23 28 46 28
internal_value=0 -0.422267 -0.0833936 -0.494847 -2.22881 -3.56227 0.980194 1.68478 2.64808 -4.88492 -6.3866 -4.88394 3.6877 4.79569 2.92468
internal_count=492 467 444 409 188 158 221 197 167 132 99 77 142 114 68
shrinkage=0.05


Tree=53
num_leaves=16
num_cat=0
split_feature=46 128 48 117 18 60 44 9 82 52 82 45 6 42 42
split_gain=916.179 934.318 792.733 944.09 1588.94 1355.84 1227.89 1030.18 970.292 1142.83 723.829 936.397 695.144 731.094 844.483
threshold=55.000000000000007 1.0000000180025095e-35 70.000000000000014 76.000000000000014 252.50000000000003 65.000000000000014 245.00000000000003 212.50000000000003 167.50000000000003 65.000000000000014 32.500000000000007 35.000000000000007 55.000000000000007 305.00000000000006 161.00000000000003
decision_type=2 2 2 2 2 2 2 2 2 2 2 2 2 2 2
left_child=1 2 3 6 5 8 12 -8 9 10 -5 -12 13 14 -1
right_child=-2 -3 -4 4 -6 -7 7 -9 -10 -11 11 -13 -14 -15 -16
leaf_value=0.12543876573443413 0.29062295341491701 -0.33079002758731013 0.22442488108362468 0.024620601534843446 0.22772114594777426 0.16862462222576144 0.049598945081233983 -0.45788979992270473 -0.040638387745076963 -0.65007824159803851 -0.082989176965895153 -0.52816243105464522 -0.1760501229763031 -0.14640404611825944 0.46913498242696128
leaf_count=120 25 23 35 20 30 25 20 20 44 21 21 27 20 20 21
internal_value=0 -0.401154 -0.0792239 -0.470105 -2.11736 -3.38416 0.931184 -4.08291 -4.65421 -6.55335 -4.56198 -6.66798 2.03927 2.72999 3.53255
internal_count=492 467 444 409 188 158 221 40 133 89 68 48 181 161 141
shrinkage=0.05


Tree=54
num_leaves=16
num_cat=0
split_feature=46 128 25 62 151 25 53 27 9 18 117 42 117 53 151
split_gain=826.851 843.222 704.764 999.084 749.042 970.468 1689.06 843.101 1017.92 1440.62 1609.12 1311.65 1142.82 679.171 592.735
threshold=55.000000000000007 1.0000000180025095e-35 205.00000000000003 365.00000000000006 155.00000000000003 125.00000000000001 42.500000000000007 135.00000000000003 245.00000000000003 45.000000000000007 57.500000000000007 85.000000000000014 85.000000000000014 135.00000000000003 235.00000000000003
decision_type=2 2 2 2 2 2 2 2 2 2 2 2 2 2 2
left_child=1 2 3 4 5 7 -7 8 9 -1 -11 12 -10 14 -6
right_child=-2 -3 -4 -5 13 6 -8 -9 11 10 -12 -13 -14 -15 -16
leaf_value=0.24222997169603003 0.27609180545806888 -0.31425051818723265 0.21498920689610876 0.21224973521581514 0.17539154899617038 0.0012765840937693914 -0.59833795713341764 -0.31955011701583863 0.2222136674448848 0.20684355549190359 -0.34903124729792279 -0.3569256072625136 -0.20035662855952979 0.31936138764671657 -0.16323199804340091
leaf_count=66 25 23 34 41 24 24 23 25 32 23 30 39 32 23 28
internal_value=0 -0.381096 -0.0752628 -0.438072 -0.958412 -1.67802 -5.84304 -0.885489 -0.265498 1.72666 -2.15605 -2.56712 0.21857 1.86246 -0.138884
internal_count=492 467 444 410 369 294 47 247 222 119 53 103 64 75 52
shrinkage=0.05


Tree=55
num_leaves=16
num_cat=0
split_feature=80 7 127 10 82 48 9 82 3 96 3 82 51 82 117
split_gain=930.717 1210.35 878.265 1063.21 1027.57 907.195 1416.91 870.896 1127.22 1412.13 1262.77 1097.14 1014.01 934.513 875.1
threshold=1.0000000180025095e-35 1.0000000180025095e-35 22.500000000000004 72.500000000000014 167.50000000000003 70.000000000000014 1010.0000000000001 22.500000000000004 525.00000000000011 55.000000000000007 205.00000000000003 167.50000000000003 45.000000000000007 97.500000000000014 45.000000000000007
decision_type=2 2 2 2 2 2 2 2 2 2 2 2 2 2 2
left_child=1 2 3 5 -5 6 7 12 9 10 11 -9 -1 -10 -14
right_child=-2 -3 -4 4 -6 -7 -8 8 13 -11 -12 -13 14 -15 -16
leaf_value=0.28636544607579711 -0.30677319719241214 0.37155116484278727 0.20661791235208515 0.36954258567300341 -0.096322532892227183 0.17660673260688783 0.21029966876787298 -0.35245312874094914 -0.24873776866123079 0.054522040532901883 -0.55912741610878391 -0.0051487882395048409 0.11963800816308885 0.18440247611566024 -0.3223289349116385
leaf_count=24 26 21 40 29 20 34 34 59 20 32 38 37 21 33 24
internal_value=0 0.0122239 -0.337877 -0.779381 3.58787 -1.38049 -1.89922 -2.61997 -3.59606 -4.878 -6.3033 -4.37192 0.478051 0.419067 -2.32155
internal_count=492 466 445 405 49 356 322 288 219 166 134 96 69 53 45
shrinkage=0.05


Tree=56
num_leaves=16
num_cat=0
split_feature=80 7 44 117 86 117 2 3 186 123 44 18 117 3 44
split_gain=839.972 1092.34 793.464 872.265 1203.53 890.201 1501.82 1101.57 884.464 881.172 1135.43 705.448 648.951 703.099 613.252
threshold=1.0000000180025095e-35 1.0000000180025095e-35 505.00000000000006 195.00000000000003 105.00000000000001 52.500000000000007 245.00000000000003 525.00000000000011 15.500000000000002 32.500000000000007 72.500000000000014 115.00000000000001 27.500000000000004 205.00000000000003 235.00000000000003
decision_type=2 2 2 2 2 2 2 2 2 2 2 2 2 2 2
left_child=1 2 3 4 5 6 8 9 12 10 -7 -12 13 -1 -5
right_child=-2 -3 -4 14 -6 7 -8 -9 -10 -11 11 -13 -14 -15 -16
leaf_value=0.20544747834981877 -0.29143452506798967 0.35297360732441857 -0.26892146694249125 0.05148770533502102 0.32878041213208981 -0.043665404416419362 -0.34721066770346271 0.1373954151570797 0.26876023437665858 0.045699757132036938 -0.51392585393928347 -0.17846226644515994 -0.23614912805232136 -0.10137965046998226 0.37118857453266779
leaf_count=43 26 21 29 40 22 37 23 30 46 29 42 25 22 33 24
internal_value=0 0.0116127 -0.320983 0.0315795 -0.585863 -1.06329 0.559348 -2.72576 1.75783 -3.96042 -5.31963 -7.77506 0.0598841 1.4444 3.42751
internal_count=492 466 445 416 352 330 167 163 144 133 104 67 98 76 64
shrinkage=0.05


Tree=57
num_leaves=16
num_cat=0
split_feature=80 7 127 10 82 48 9 82 3 96 108 1 14 9 3
split_gain=758.075 985.841 767.441 921.091 910.238 818.498 1251.53 798.158 1238.99 1682.56 1283.04 872.008 1303.96 671.392 582.257
threshold=1.0000000180025095e-35 1.0000000180025095e-35 22.500000000000004 72.500000000000014 167.50000000000003 70.000000000000014 1010.0000000000001 32.500000000000007 525.00000000000011 55.000000000000007 420.00000000000006 102.50000000000001 1.0000000180025095e-35 384.50000000000006 805.00000000000011
decision_type=2 2 2 2 2 2 2 2 2 2 2 2 2 2 2
left_child=1 2 3 5 -5 6 7 -1 9 10 11 12 13 -9 -10
right_child=-2 -3 -4 4 -6 -7 -8 8 14 -11 -12 -13 -14 -15 -16
leaf_value=0.014215929920856768 -0.2768628031015396 0.33532492958364035 0.19368769317865372 0.34632715623954247 -0.092134446054697047 0.16945778937900768 0.19839994889848375 -0.19118263098326596 0.20592110818968368 0.087488869938158229 0.044213060140609745 -0.11151903048157692 -0.78623581321343128 -0.52094261492120808 -0.12870184045571548
leaf_count=78 26 21 40 29 20 34 34 33 26 31 20 22 23 29 26
internal_value=0 0.0110321 -0.304934 -0.717644 3.34726 -1.27714 -1.76985 -2.44724 -3.46182 -4.85529 -6.46755 -7.84172 -9.29407 -6.9085 0.772193
internal_count=492 466 445 405 49 356 322 288 210 158 127 107 85 62 52
shrinkage=0.05


Tree=58
num_leaves=16
num_cat=0
split_feature=60 127 80 86 18 42 82 53 62 186 3 26 117 62 53
split_gain=726.257 1124.41 905.327 738.987 684.616 1215.59 1167.85 1137.95 1171.59 1000.01 765.093 927.543 664.65 616.291 1002.34
threshold=185.00000000000003 90.000000000000014 1.0000000180025095e-35 105.00000000000001 115.00000000000001 377.50000000000006 167.50000000000003 52.500000000000007 72.500000000000014 14.500000000000002 85.000000000000014 1.0000000180025095e-35 122.50000000000001 1.0000000180025095e-35 72.500000000000014
decision_type=2 2 2 2 2 2 2 2 2 2 2 2 2 2 2
left_child=1 2 3 4 6 13 7 8 9 -1 -8 -12 -9 14 -6
right_child=-2 -3 -4 -5 5 -7 10 12 -10 -11 11 -13 -14 -15 -16
leaf_value=-0.044616356514902283 -0.27595855575799944 0.34153290753779203 -0.32970463118769905 0.25237070399302025 0.38138468792272168 -0.26592408445748417 0.21845233037750772 0.12533189157230987 -0.59273472443223008 -0.42092777077968302 -0.25801269489305989 0.19123840391635896 -0.21532926672980901 -0.0079653391311335 -0.01187720665564904
leaf_count=55 25 23 22 27 43 22 47 45 20 26 27 20 21 43 26
internal_value=0 0.013047 -0.340118 -0.0140809 -0.360057 1.4773 -1.30337 -2.89038 -5.00054 -3.30815 1.5161 -1.33684 0.338794 2.81218 4.66398
internal_count=492 467 444 422 395 134 261 167 101 81 94 47 66 112 69
shrinkage=0.05


Tree=59
num_leaves=16
num_cat=0
split_feature=60 127 80 86 3 3 14 9 9 43 38 82 1 82 151
split_gain=655.447 1014.78 817.058 666.936 635.158 1515.27 1464.32 1052.71 1126.8 1193.3 1134.73 914.746 894.669 1337.17 2076.62
threshold=185.00000000000003 90.000000000000014 1.0000000180025095e-35 105.00000000000001 755.00000000000011 525.00000000000011 35.000000000000007 1010.0000000000001 160.00000000000003 1.0000000180025095e-35 25.000000000000004 222.50000000000003 102.50000000000001 32.500000000000007 88.000000000000014
decision_type=2 2 2 2 2 2 2 2 2 2 2 2 2 2 2
left_child=1 2 3 4 5 7 -6 8 9 11 12 -1 13 -10 -15
right_child=-2 -3 -4 -5 6 -7 -8 -9 10 -11 -12 -13 -14 14 -16
leaf_value=-0.09317913718943327 -0.26216063165664671 0.3244562633659529 -0.31321940205313942 0.23975216715976044 -0.51504642598330974 0.31888953521847729 0.037281524737675986 0.23877264116749619 0.15318196551366287 0.38944692611694337 -0.49929293773391037 0.21955558960636457 0.19643050283193589 -0.52761139658254552 0.10475635615643114
leaf_count=106 25 23 22 27 20 35 30 33 22 20 22 30 20 37 20
internal_value=0 0.0123947 -0.323112 -0.0133769 -0.342054 0.140691 -3.67299 -0.563497 -1.19955 0.576746 -3.48964 -0.483871 -2.04604 -3.55861 -6.11456
internal_count=492 467 444 422 395 345 50 310 277 156 121 136 99 79 57
shrinkage=0.05


Tree=60
num_leaves=16
num_cat=0
split_feature=118 61 38 44 9 123 3 51 2 82 45 3 51 18 117
split_gain=1345.46 1463.48 619.683 1615.79 968.14 797.481 1406.96 1795.1 1155 1351.11 1133.13 1090.02 889.26 735.065 527.543
threshold=55.000000000000007 12.500000000000002 25.000000000000004 17.500000000000004 105.00000000000001 210.00000000000003 1.0000000180025095e-35 1.0000000180025095e-35 52.500000000000007 162.50000000000003 85.000000000000014 392.50000000000006 320.00000000000006 55.000000000000007 52.500000000000007
decision_type=2 2 2 2 2 2 2 2 2 2 2 2 2 2 2
left_child=1 2 5 -4 -5 6 12 13 9 14 -10 -12 -1 -8 -9
right_child=-2 -3 3 4 -6 -7 7 8 10 -11 11 -13 -14 -15 -16
leaf_value=0.15595749933998307 -0.40599045157432556 -0.33140047480320112 0.14196469092216246 -0.053199743032455449 -0.53385908657854253 -0.18367131074269616 0.39864472904891679 0.097145209425971629 0.18070384729992262 -0.57106965060035397 -0.41891326819147379 0.090525101480029888 0.49917468701675533 0.076082676443222322 -0.26166614174842834
leaf_count=77 20 29 39 20 22 30 33 21 55 21 21 21 25 38 20
internal_value=0 0.254166 0.704692 -1.79562 -6.09947 1.26415 1.71032 0.339412 -1.52744 -4.89862 0.627332 -3.28388 4.80159 4.52012 -1.55769
internal_count=492 472 443 81 42 362 332 230 159 62 97 42 102 71 41
shrinkage=0.05


Tree=61
num_leaves=16
num_cat=0
split_feature=118 61 55 18 123 45 3 53 38 44 149 82 117 51 2
split_gain=1214.28 1320.79 907.696 738.084 1047.19 714.991 1545.45 2197.28 1004.79 1794.43 767.389 743.326 694.728 892.407 806.494
threshold=55.000000000000007 12.500000000000002 40.500000000000007 347.50000000000006 210.00000000000003 92.000000000000014 1.0000000180025095e-35 72.500000000000014 15.000000000000002 17.500000000000004 85.000000000000014 82.000000000000014 72.500000000000014 45.000000000000007 145.00000000000003
decision_type=2 2 2 2 2 2 2 2 2 2 2 2 2 2 2
left_child=1 2 3 4 5 8 -7 11 10 -10 12 -8 -1 -14 -15
right_child=-2 -3 -4 -5 -6 6 7 -9 9 -11 -12 -13 13 14 -16
leaf_value=0.27177221806018387 -0.38569092750549316 -0.31483045405354998 0.30389333711615923 0.21062944864117822 -0.33495263483213344 0.21760930041472118 -0.6311609409072183 0.10771500805721564 0.1788421337359718 -0.36925204358994962 -0.12701477683507478 -0.23963151288874174 0.27638433882301405 -0.28924851806267449 0.13932299727485295
leaf_count=77 20 29 29 43 23 30 22 34 28 32 26 27 28 23 21
internal_value=0 0.241457 0.669457 0.290607 -0.163962 0.267955 -1.79912 -4.02248 1.26191 -2.2695 2.47267 -8.3084 3.34742 1.1144 -1.69406
internal_count=492 472 443 414 371 348 113 83 235 60 175 49 149 72 44
shrinkage=0.05


Tree=62
num_leaves=16
num_cat=0
split_feature=118 117 5 151 117 3 38 123 3 1 2 51 82 27 51
split_gain=1095.88 734.299 747.583 658.725 874.546 1223.53 1314.72 1210.41 1253.06 1105.11 973.331 822.934 1334.58 926.671 1304.5
threshold=55.000000000000007 225.00000000000003 35.000000000000007 324.00000000000006 45.000000000000007 655.00000000000011 25.000000000000004 180.00000000000003 205.00000000000003 145.00000000000003 35.000000000000007 45.000000000000007 111.00000000000001 62.500000000000007 245.00000000000003
decision_type=2 2 2 2 2 2 2 2 2 2 2 2 2 2 2
left_child=1 3 -3 4 7 6 9 8 -1 11 -10 12 -6 14 -13
right_child=-2 2 -4 -5 5 -7 -8 -9 10 -11 -12 13 -14 -15 -16
leaf_value=0.2794640500728901 -0.36640638589859009 0.31761162926753367 -0.06365381121635437 0.18420803164824462 0.34363368079066281 0.17967517631394525 -0.41897220986230038 -0.24590809070147002 -0.25168729807649343 0.23214078942934671 0.1652168588978904 -0.29753183672825495 -0.20939542955408494 -0.51270726181211923 0.14733301939872595
leaf_count=65 20 36 20 39 20 35 35 26 28 24 28 45 24 21 26
internal_value=0 0.229385 3.62891 -0.228244 -0.632975 -1.85061 -2.82775 1.27216 2.60231 -1.61332 -0.864704 -2.71734 0.839629 -4.41851 -2.69247
internal_count=492 472 56 416 377 230 195 147 121 160 56 136 44 92 71
shrinkage=0.05


Tree=63
num_leaves=16
num_cat=0
split_feature=118 117 5 151 117 3 44 3 123 3 124 2 44 18 51
split_gain=989.035 662.705 674.694 594.499 789.278 1104.24 1214.69 1110.21 1092.39 1130.89 967.469 878.431 804.5 1302.39 814.497
threshold=55.000000000000007 225.00000000000003 35.000000000000007 324.00000000000006 45.000000000000007 655.00000000000011 385.00000000000006 405.00000000000006 180.00000000000003 205.00000000000003 105.00000000000001 35.000000000000007 72.500000000000014 167.50000000000003 135.00000000000003
decision_type=2 2 2 2 2 2 2 2 2 2 2 2 2 2 2
left_child=1 3 -3 4 8 6 7 10 9 -1 12 -11 -6 14 -14
right_child=-2 2 -4 -5 5 -7 -8 -9 -10 11 -12 -13 13 -15 -16
leaf_value=0.26549084530426909 -0.34808605909347534 0.3017310511734751 -0.060471118390560158 0.17499763277860791 -0.036218721142002183 0.17069141421999251 0.20694269304690152 -0.53015138366259629 -0.23361269373160143 -0.23910294004849028 0.15044114124774932 0.15695602042334422 -0.25777914245282452 0.031350250135768545 -0.65048442081264835
leaf_count=65 20 36 20 39 51 35 23 20 26 28 25 28 31 22 23
internal_value=0 0.217915 3.44746 -0.216831 -0.601326 -1.75807 -2.68637 -3.59904 1.20855 2.4722 -2.67746 -0.821469 -3.79681 -5.85858 -8.50085
internal_count=492 472 56 416 377 230 195 172 147 121 152 56 127 76 54
shrinkage=0.05


Tree=64
num_leaves=16
num_cat=0
split_feature=45 117 51 53 53 3 18 42 25 3 82 117 27 18 9
split_gain=753.648 1357.51 897.05 896.164 1051.46 1309.85 1379.04 1001.07 904.297 873.251 843.082 798.315 1052.89 498.585 463.067
threshold=275.00000000000006 225.00000000000003 555.00000000000011 65.000000000000014 25.000000000000004 190.00000000000003 347.50000000000006 105.00000000000001 67.500000000000014 355.00000000000006 82.000000000000014 165.00000000000003 95.000000000000014 45.000000000000007 105.00000000000001
decision_type=2 2 2 2 2 2 2 2 2 2 2 2 2 2 2
left_child=1 2 3 4 5 7 8 13 10 -2 -7 12 14 -1 -5
right_child=9 -3 -4 11 -6 6 -8 -9 -10 -11 -12 -13 -14 -15 -16
leaf_value=-0.1189796010653178 -0.43394707498096285 0.26080961811542508 -0.31865630473779594 0.30521997180852023 -0.34332359962422276 -0.58049144399166108 0.21416553688191234 0.34812505197140481 -0.038192677590996031 0.027696568965911869 -0.15075291735785348 -0.1797538109447645 -0.17000782282456109 0.17904375584229182 0.10355204803458716
leaf_count=36 21 50 23 55 29 25 21 31 32 20 21 23 23 23 59
internal_value=0 0.302926 -0.309701 0.059238 -1.25987 -0.399595 -2.90965 2.36147 -4.84622 -4.1751 -7.68613 1.85652 2.77175 -0.0560201 4.01696
internal_count=492 451 401 378 218 189 99 90 78 41 46 160 137 59 114
shrinkage=0.05


Tree=65
num_leaves=16
num_cat=0
split_feature=61 79 42 42 118 9 9 2 52 3 3 9 82 44 53
split_gain=1134.23 1036.37 839.993 855.62 686.198 692.846 1576.66 994.623 1425.74 697.029 1535.72 1389.36 1380.95 519.286 569.427
threshold=12.500000000000002 225.00000000000003 235.00000000000003 377.50000000000006 1.0000000180025095e-35 655.00000000000011 1010.0000000000001 255.00000000000003 1.0000000180025095e-35 205.00000000000003 525.00000000000011 62.500000000000007 92.500000000000014 135.00000000000003 114.00000000000001
decision_type=2 2 2 2 2 2 2 2 2 2 2 2 2 2 2
left_child=1 2 4 -4 5 7 -7 9 -9 13 11 -11 -12 14 -1
right_child=-2 -3 3 -5 -6 6 -8 8 -10 10 12 -13 -14 -15 -16
leaf_value=-0.017217893021948198 -0.34899616718292237 0.28096496462821963 0.33339698372348664 -0.038090969093384282 -0.32194795601747256 -0.41004726781564599 0.12596331886623219 -0.37492468647054727 0.14905094562098384 -0.49383948588812798 -0.13873358662426472 0.0088472110884530216 0.36442994614442192 0.28145301424794728 0.26184757494926453
leaf_count=68 25 30 31 31 22 34 23 37 20 27 25 28 30 36 25
internal_value=0 -0.0663284 -0.456646 2.95306 -1.02038 -0.682683 -3.87525 -0.0678986 -3.82147 0.827305 -1.02207 -4.75853 2.71438 2.40429 1.15599
internal_count=492 467 437 62 375 353 57 296 57 239 110 55 55 129 93
shrinkage=0.05


Tree=66
num_leaves=16
num_cat=0
split_feature=82 60 79 42 44 62 51 45 2 117 9 2 44 2 1
split_gain=878.158 984.699 683.78 667.38 993.807 1054.57 1837.5 662.221 622.406 617.372 685.848 831.667 608.401 477.544 337.001
threshold=282.50000000000006 17.500000000000004 225.00000000000003 235.00000000000003 202.50000000000003 185.00000000000003 85.000000000000014 55.000000000000007 202.50000000000003 22.500000000000004 605.00000000000011 35.000000000000007 50.500000000000007 145.00000000000003 65.000000000000014
decision_type=2 2 2 2 2 2 2 2 2 2 2 2 2 2 2
left_child=2 12 3 4 8 6 -6 -5 9 -1 11 14 -2 -13 -11
right_child=1 -3 -4 7 5 -7 -8 -9 -10 10 -12 13 -14 -15 -16
leaf_value=0.090998794510960587 -0.27426662027835846 -0.45947196971286425 0.24673283467335361 0.28843142206177996 -0.68096182885624124 0.093123252825303524 -0.075209208169291109 -0.074157042503356932 0.16529065014866109 0.17903747433110287 -0.35266456944601882 -0.31995856988018961 0.079448887898075971 -0.035418842509388926 -0.070542619341895693
leaf_count=72 20 22 28 34 21 22 31 20 52 38 21 29 31 30 21
internal_value=0 -3.59748 0.160898 -0.180957 -0.703931 -3.94134 -6.3968 3.08279 0.206976 -0.556718 -1.78781 -0.850735 -1.18526 -3.50555 1.80408
internal_count=492 73 419 391 337 74 52 54 263 211 139 118 51 59 59
shrinkage=0.05


Tree=67
num_leaves=16
num_cat=0
split_feature=60 18 123 81 186 45 25 3 124 5 117 18 45 51 186
split_gain=702.956 768.571 696.712 893.114 851.868 1139.39 873.529 1285.72 816.268 1189.28 956.779 1109.72 922.468 903.932 635.042
threshold=185.00000000000003 355.00000000000006 210.00000000000003 1.0000000180025095e-35 21.000000000000004 65.000000000000014 205.00000000000003 805.00000000000011 155.00000000000003 375.00000000000006 95.000000000000014 155.00000000000003 105.00000000000001 135.00000000000003 52.500000000000007
decision_type=2 2 2 2 2 2 2 2 2 2 2 2 2 2 2
left_child=1 2 3 4 6 14 7 8 9 10 12 13 -1 -12 -6
right_child=-2 -3 -4 -5 5 -7 -8 -9 -10 -11 11 -13 -14 -15 -16
leaf_value=0.20006626476016312 -0.28276335193465152 0.22361438587746202 -0.25572354952494303 -0.18226712600129549 0.23743981696665287 0.49302663874058494 0.27087118721008302 -0.42370313405990601 0.24727831445634366 -0.38793704591014166 -0.078603037624132066 0.17006340551376342 -0.16366222176862799 -0.45833809137344361 -0.16100766122341159
leaf_count=72 24 34 30 61 20 21 25 20 28 22 42 25 23 25 20
internal_value=0 -0.106225 -0.464911 -0.119646 0.507373 3.8958 -0.225586 -0.774517 -0.124766 -0.804045 0.0141546 -2.28439 2.24011 -4.4059 0.764322
internal_count=492 468 434 404 343 61 282 257 237 209 187 92 95 67 40
shrinkage=0.05


Tree=68
num_leaves=16
num_cat=0
split_feature=61 82 79 42 44 62 51 44 141 108 9 124 14 51 9
split_gain=981.545 848.156 1058.84 905.039 1002.42 1023.49 1565.14 819.95 535.228 718.487 755.93 1141.99 1006.98 1004.5 476.292
threshold=12.500000000000002 282.50000000000006 225.00000000000003 235.00000000000003 202.50000000000003 185.00000000000003 85.000000000000014 31.000000000000004 110.00000000000001 1.0000000180025095e-35 655.00000000000011 32.500000000000007 95.000000000000014 210.00000000000003 90.000000000000014
decision_type=2 2 2 2 2 2 2 2 2 2 2 2 2 2 2
left_child=1 2 3 4 8 6 -6 -3 9 10 11 12 13 -1 -9
right_child=-2 7 -4 -5 5 -7 -8 14 -10 -11 -12 -13 -14 -15 -16
leaf_value=0.34590954203158619 -0.32313585615158086 -0.3920587334632874 0.34150550423562526 0.20108037982501237 -0.64499150954541706 0.091825487126003622 -0.073965583049825256 0.13103154572573575 0.23160650087175549 -0.19610393062233925 -0.18744042770516489 -0.16293696744574443 -0.10871273047394224 -0.022635257831559733 -0.19797928909009155
leaf_count=64 25 25 25 51 21 22 28 22 27 40 31 36 27 26 22
internal_value=0 -0.0312631 0.529866 0.107597 -0.512324 -3.82977 -6.37382 -3.26792 0.426078 -0.080901 0.754138 1.6665 3.18196 4.78882 -0.669477
internal_count=492 467 398 373 322 71 49 69 251 224 184 153 117 90 44
shrinkage=0.05


Tree=69
num_leaves=16
num_cat=0
split_feature=61 5 82 3 82 68 51 124 53 123 14 44 14 51 9
split_gain=885.844 774.981 1035.5 959.891 814.859 724.541 888.434 1138 1062.31 937.868 750.679 1000.84 586.536 666.688 336.794
threshold=12.500000000000002 151.50000000000003 302.50000000000006 62.500000000000007 135.00000000000003 1.0000000180025095e-35 85.000000000000014 32.500000000000007 85.000000000000014 55.000000000000007 67.500000000000014 165.00000000000003 155.00000000000003 245.00000000000003 277.50000000000006
decision_type=2 2 2 2 2 2 2 2 2 2 2 2 2 2 2
left_child=1 2 5 -4 -3 6 10 9 -9 12 11 -1 13 14 -8
right_child=-2 4 3 -5 -6 -7 7 8 -10 -11 -12 -13 -14 -15 -16
leaf_value=0.060647051755724282 -0.30697905683517457 0.009782380253076553 -0.020252622167269391 -0.46294625186920169 0.32989908113624111 0.26467133151988187 -0.051572791735331219 -0.40138203203678136 0.064330107688903806 0.34037921650069103 -0.38579304166462114 -0.27792071192392281 0.2683587395626566 -0.1767949080547771 0.20950308163960774
leaf_count=58 25 50 24 25 33 24 21 24 25 35 23 35 23 37 30
internal_value=0 -0.0297 -0.628609 -4.92233 2.74115 -0.000570996 -0.409111 0.894488 -3.27548 2.294 -2.60051 -1.33542 0.870793 -0.304397 2.04003
internal_count=492 467 384 49 83 335 311 195 49 146 116 93 111 88 51
shrinkage=0.05


Tree=70
num_leaves=16
num_cat=0
split_feature=2 52 117 149 186 51 117 26 51 52 60 45 3 117 2
split_gain=910.027 1401.29 1323.01 819.758 749.331 1157.47 795.449 873.677 893.704 621.97 856.47 1287.45 549.826 451.405 329.613
threshold=245.00000000000003 1.0000000180025095e-35 45.000000000000007 105.00000000000001 21.000000000000004 122.50000000000001 1.0000000180025095e-35 233.50000000000003 55.000000000000007 82.500000000000014 12.500000000000002 15.000000000000002 322.50000000000006 68.000000000000014 1.0000000180025095e-35
decision_type=2 2 2 2 2 2 2 2 2 2 2 2 2 2 2
left_child=3 2 -2 4 5 6 -1 8 12 10 11 14 -8 -6 -7
right_child=1 -3 -4 -5 13 9 7 -9 -10 -11 -12 -13 -14 -15 -16
leaf_value=0.25597600436363466 -0.60718353336507624 0.12022605021794637 -0.12226081429383694 0.30540265732485317 0.28709828518331054 0.32866025198073617 -0.13598326425189558 -0.26702926599979404 0.28626946614634607 -0.32120677390519314 -0.28593092577798024 -0.21602399448553722 0.16792812564156273 0.019386473009663244 0.062327382312371185
leaf_count=39 22 30 39 23 32 21 46 25 31 34 35 36 22 31 26
internal_value=0 -3.19108 -5.94302 0.311729 -0.0409576 -0.670617 1.18048 -0.0584177 1.27546 -2.65567 -1.56984 0.179642 -0.75318 3.10734 3.62654
internal_count=492 91 61 401 378 315 163 124 99 152 118 83 68 63 47
shrinkage=0.05


Tree=71
num_leaves=16
num_cat=0
split_feature=44 18 25 22 82 14 82 1 81 44 3 45 3 124 51
split_gain=660.927 946.09 1225.29 1509.33 1536.9 744.826 1196.8 592.81 747.263 487.124 486.395 425.002 769.878 404.887 595.324
threshold=72.500000000000014 155.00000000000003 151.50000000000003 15.000000000000002 212.50000000000003 22.500000000000004 72.500000000000014 127.50000000000001 1.0000000180025095e-35 215.00000000000003 392.50000000000006 35.000000000000007 52.500000000000007 65.000000000000014 62.500000000000007
decision_type=2 2 2 2 2 2 2 2 2 2 2 2 2 2 2
left_child=5 2 3 4 13 7 -7 8 11 -3 -11 12 -1 14 -2
right_child=1 9 -4 -5 -6 6 -8 -9 -10 10 -12 -13 -14 -15 -16
leaf_value=-0.030479410214301866 -0.31740184802975924 0.2286119164959077 -0.4468424974725797 -0.4859869101643563 0.2776777868921107 -0.41537460714578628 0.099093312569535699 -0.13705828230489384 -0.12443032969128004 -0.15832026958465578 0.12409481497541551 0.32524667054414752 0.29016826947530111 0.060552959420062884 -0.053918917420900096
leaf_count=39 36 31 26 20 33 20 26 22 22 30 31 40 36 27 53
internal_value=0 -1.2989 -2.546 -1.56279 -0.467902 1.05204 -2.49177 2.07729 2.85106 1.34441 -0.295957 3.87256 2.46863 -2.1809 -3.20993
internal_count=492 287 195 169 149 205 46 159 137 92 61 115 75 116 89
shrinkage=0.05


Tree=72
num_leaves=16
num_cat=0
split_feature=2 52 117 149 44 25 5 117 117 14 14 42 117 82 2
split_gain=825.322 1279.43 1177.13 728.482 737.105 826.068 1247.6 1059.57 752.923 874.859 692.777 629.779 910.123 552.719 466.038
threshold=245.00000000000003 1.0000000180025095e-35 45.000000000000007 105.00000000000001 505.00000000000006 105.00000000000001 285.00000000000006 183.00000000000003 52.500000000000007 95.000000000000014 67.500000000000014 27.500000000000004 102.50000000000001 111.00000000000001 27.500000000000004
decision_type=2 2 2 2 2 2 2 2 2 2 2 2 2 2 2
left_child=3 2 -2 4 5 7 10 8 14 11 -7 12 -10 -13 -1
right_child=1 -3 -4 -5 -6 6 -8 -9 9 -11 -12 13 -14 -15 -16
leaf_value=0.20817413306043997 -0.5750291228294373 0.11622881909211479 -0.11762081369375572 0.28888605055601702 -0.28882400265761782 -0.11542338265069561 0.22546575410025463 0.31296651404764919 -0.07440882404645284 0.22660909891128542 -0.46263618335127837 0.13606388415059736 -0.50984997361898421 -0.18354366098841032 -0.010730564203113318
leaf_count=62 22 30 39 23 21 51 21 36 30 22 20 31 20 24 40
internal_value=0 -3.0222 -5.65175 0.313615 -0.0188573 0.319826 -2.26186 1.21611 0.423288 -1.20172 -4.2646 -2.40311 -4.97171 -0.0680245 2.44658
internal_count=492 91 61 401 378 357 92 265 229 127 71 105 50 55 102
shrinkage=0.05


Tree=73
num_leaves=16
num_cat=0
split_feature=2 52 117 186 3 3 51 60 52 5 14 52 117 3 82
split_gain=744.853 1154.68 1062.36 687.239 749.209 715.945 825.198 732.765 1105.82 901.309 696.068 699.109 420.425 369.76 290.526
