tree
version=v2
num_class=1
num_tree_per_iteration=1
label_index=0
max_feature_idx=192
objective=regression
feature_names=111 112 113 114 115 120 121 122 123 124 131 132 141 142 151 152 190 192 211 212 213 221 222 311 312 313 314 315 321 322 331 332 341 351 352 391 392 393 411 412 413 414 421 422 431 432 441 442 443 444 445 451 452 453 454 460 471 472 473 480 510 520 611 612 613 619 621 622 623 629 631 632 633 639 641 642 643 650 661 662 710 720 811 812 813 814 821 822 823 831 832 833 841 842 843 890 911 912 913 921 922 923 931 932 933 942 943 990 1011 1012 1013 1021 1022 1030 1040 1050 1090 1111 1112 1121 1122 1131 1141 1211 1212 1213 1214 1221 1222 1223 1230 1241 1242 1243 1290 1293 1310 1311 1312 1313 1330 1410 1419 1421 1422 1423 1510 1521 1522 1523 1524 1525 1530 1531 1532 1533 1534 1610 1619 1620 1640 1650 1661 1662 1670 1680 1690 1711 1712 1713 1721 1810 1820 1821 1822 1823 1824 1830 1840 1910 1920 2010 2020 2031 2032 2040 2050 2060 2071 2072 2074 2110 2190
feature_infos=[0:360] [0:1930] [0:2100] [0:2810] [0:300] [0:3750] [0:1920] [0:1250] [0:400] [0:3250] [0:1769] none [0:500] none [0:2300] none none none [0:2000] [0:660] none [0:200] [0:500] [0:520] none [0:2100] [0:2403] [0:750] [0:269] none [0:200] [0:600] [0:650] none none [0:500] [0:250] none [0:750] [0:320] none none [0:1300] [0:860] [0:1600] [0:1590] [0:450] [0:600] [0:350] [0:1000] none [0:2300] [0:827] [0:900] [0:350] [0:600] [0:550] [0:400] none [0:500] [0:380] [0:385] [0:1200] [0:1160] none [0:400] [0:1040] [0:260] [0:300] none [0:600] none none [0:660] [0:750] [0:3920] [0:790] [0:1020] [0:700] [0:4000] [0:609] [0:950] [0:1260] [0:450] [0:500] [0:350] [0:670] none [0:1000] [0:465] none none none none none none [0:1000] [0:200] [0:300] [0:600] [0:265] [0:460] none none none none none none [0:2400] none none none none [0:1450] none none none [0:1050] [0:360] [0:200] [0:772] none none [0:1350] [0:2000] [0:250] none [0:660] [0:250] none [0:900] none none none none none none none none none none [0:1840] [0:2430] [0:600] [0:400] [0:400] [0:800] [0:960] [0:800] [0:1200] [0:300] [0:3250] none none none none none [0:1500] none [0:1500] [0:750] none [0:4200] none [0:804] none none [0:7800] none none [0:1500] none [0:236] none none none none none none none none none none [0:420] none [0:90] [0:540] none none none none none none
tree_sizes=1295 1323 1322 1328 1320 1327 1318 1326 1319 1324 1332 1326 1318 1316 1329 1325 1339 1323 1326 1320 1319 1324 1318 1329 1313 1325 1327 1326 1313 1318 1318 1332 1330 1339 1344 1323 1329 1325 1316 1330 1328 1342 1328 1351 1332 1322 1319 1310 1327 1333 1324 1337 1326 1320 1332 1324 1323 1318 1329 1323 1330 1320 1320 1317 1318 1318 1334 1325 1328 1334 1329 1344 1343 1340 1338 1319 1339 1336 1328 1333 1316 1330 1328 1323 1326 1324 1334 1321 1339 1341 1326 1339 1334 1332 1334 1315 1334 1322 1328 1330 1335 1319 1329 1325 1322 1332 1326 1319 1325 1320 1339 1317 1327 1334 1331 1317 1323 1324 1321 1332 1325 1328 1313 1313 1324 1322 1337 1324 1333 1338 1323 1322 1330 1342 1330 1314 1318 1320 1326 1328 1320 1326 1329 1333 1327 1326 1355 1339 1335 1341 1321 1328 1343 1336 1330 1322 1307 1315 1330 1324 1320 1326 1329 1341 1331 1329 1317 1325 1336 1325 1319 1327 1332 1329 1345 1320 1331 1321 1326 1327 1312 1326 1320 1320 1329 1325 1332 1337 1316 1316 1333 1327 1332 1331 1328 1331 1330 1331 1332 1328 1321 1330 1325 1319 1334 1330 1328 1336 1321 1325 1337 1343 1330 1348 1326 1339 1338 1345 1326 1346 1334 1323 1340 1324 1325 1327 1330 1335 1332 1338 1328 1328 1323 1324 1331 1336 1325 1328 1315 1332 1325 1321 1336 1329 1318 1323 1322 1327 1327 1315 1324 1325 1321 1330 1318 1338 1335 1343 1341 1325 1327 1331 1330 1331 1324 1325 1316 1333 1319 1325 1326 1330 1321 1338 1321 1340 1326 1318 1325 1323 1329 1328 1330 1334 1330 1336 1346 1346 1333 1336 1313 1321 1321 1320 1317 1321 1341 1325 1319 1337 1323 1325 1316 1327 1324 1335 1329 1338 1326 1319 1337 1321 1329 1323 1324 1315 1318 1330 1320 1328 1331 1333 1335 1331 1324 1327 1332 1323 1340 1326 1328 1338 1329 1335 1330 1332 1342 1313 1321 1329 1342 1330 1339 1326 1320 1333 1319 1334 1315 1326 1329 1327 1316 1322 1325 1335 1325 1330 1322 1332 1317 1339 1317 1331 1337 1332 1330 1327 1323 1329 1330 1315 1336 1332 1326 1342 1345 1316 1344 1341 1321 1333 1333 1325 1327 1328 1329 1343 1325 1328 1316 1320 1317 1325 1319 1340 1340 1347 1344 1341 1320 1325 1322 1331 1324 1335 1324 1328 1349 1346 1320 1333 1329 1338 1326 1344 1329 1333 1326 1334 1334 1342 1324 1345 1339 1330 1338 1334 1344 1328 1347 1345 1342 1336 1342 1323 1324 1333 1329 1330 1337 1331 1329 1329 1338 1327 1331 1324 1321 1327 1326 1325 1317 1319 1333 1328 1326 1327 1329 1329 1332 1342 1325 1329 1324 1348 1326 1323 1344 1338 1314 1325 1327 1337 1331 1316 1327 1321 1325 1321 1320 1325 1327 1331 1321 1323 1323 1329 1323 1322 1350 1343 1332 1346 1332 1342 1339 1323 1326 1322

Tree=0
num_leaves=16
num_cat=0
split_feature=28 151 108 9 117 46 81 113 77 51 53 60 9 44 3
split_gain=2636.73 2495.89 2040.61 3021.07 2747.04 1759.13 2180.37 2044.96 2426.61 1853.52 1849.4 1610.72 1405.12 1217.64 1533.32
threshold=12.500000000000002 190.00000000000003 488.00000000000006 285.00000000000006 57.500000000000007 1.0000000180025095e-35 16.000000000000004 90.000000000000014 195.00000000000003 195.00000000000003 22.500000000000004 175.00000000000003 187.50000000000003 22.500000000000004 35.000000000000007
decision_type=2 2 2 2 2 2 2 2 2 2 2 2 2 2 2
left_child=1 2 5 4 -4 6 7 8 11 -10 12 13 -8 -1 -15
right_child=-2 -3 3 -5 -6 -7 10 -9 9 -11 -12 -13 -14 14 -16
leaf_value=92.170995672430664 91.729784842050634 92.397485115817744 92.162250043411476 92.247247921918955 91.41135584839391 92.433676805012681 92.411721769449386 92.526173265464635 92.206541683143939 91.541472420636651 91.883516384870987 91.835991410880027 91.918456108527849 92.416272544498455 92.237515697437161
leaf_count=253 25 234 21 63 29 106 42 62 20 22 82 23 22 193 317
internal_value=0 0.000415303 -0.558635 -4.61234 -10.4163 -0.157524 -0.554523 0.0330569 -0.381733 -7.78752 -4.13634 0.0139963 -0.107726 0.262539 1.1523
internal_count=1514 1489 1255 113 50 1142 1036 890 828 42 146 786 64 763 510
shrinkage=1


Tree=1
num_leaves=16
num_cat=0
split_feature=147 44 6 82 44 3 123 60 27 43 5 45 53 2 186
split_gain=2386.88 2468.79 1763.56 5489.06 2418.67 1459.56 1639.11 1989.8 1934.98 1802.79 1727.62 1375.26 1212.16 1487.15 1559.68
threshold=55.000000000000007 52.500000000000007 1.0000000180025095e-35 97.500000000000014 1.0000000180025095e-35 572.50000000000011 35.000000000000007 175.00000000000003 42.500000000000007 122.50000000000001 365.00000000000006 305.00000000000006 22.500000000000004 205.00000000000003 17.500000000000004
decision_type=2 2 2 2 2 2 2 2 2 2 2 2 2 2 2
left_child=2 -2 5 4 -4 6 7 8 9 10 11 12 13 14 -1
right_child=1 -3 3 -5 -6 -7 -8 -9 -10 -11 -12 -13 -14 -15 -16
leaf_value=-0.2383681122966381 -0.78125185728073121 -0.029078541354586679 -0.86340683562947174 0.067504553567956802 -0.24379708237118192 0.14314962125502492 0.097036322007899162 -0.44563059442002201 0.14785293733211735 -0.46867302151826717 0.1427382223091079 -0.46900781711394135 0.030807777010288435 0.13246239098635587 0.1437099445130556
leaf_count=193 20 24 28 110 36 211 308 29 135 26 103 22 194 44 31
internal_value=0 -7.41951 0.0551757 -2.93409 -10.2975 0.456512 -0.011476 -0.785322 -0.470226 -1.22501 -0.864093 -1.6555 -1.28766 -2.6658 -3.70982
internal_count=1514 44 1470 174 64 1296 1085 777 748 613 587 484 462 268 224
shrinkage=0.05


Tree=2
num_leaves=16
num_cat=0
split_feature=28 151 108 9 117 99 52 44 75 6 3 3 117 18 82
split_gain=2316.02 2219.3 1820.9 2659.94 2480.68 1707.42 1340.78 1605.73 4240.54 2129.92 1807.84 1551.98 1478.52 1888.51 870.07
threshold=12.500000000000002 190.00000000000003 488.00000000000006 285.00000000000006 57.500000000000007 122.50000000000001 22.500000000000004 22.500000000000004 65.000000000000014 40.000000000000007 77.500000000000014 355.00000000000006 157.50000000000003 92.500000000000014 26.000000000000004
decision_type=2 2 2 2 2 2 2 2 2 2 2 2 2 2 2
left_child=1 2 5 4 -4 6 7 8 9 -1 -9 12 14 -14 -12
right_child=-2 -3 3 -5 -6 -7 -8 10 -10 -11 11 -13 13 -15 -16
leaf_value=-0.011953546903511086 -0.48495797932147983 0.14168133698722238 -0.075942771278676546 -0.0013922173825521317 -0.78950463528263159 -0.44331710778854111 0.092957358597758055 0.13141622281158871 -0.83374360680580151 -0.42459622863176705 0.20065983459353448 0.04856684869155288 -0.76760240226984022 -0.13145787383296662 -0.13457740197330714
leaf_count=202 25 234 21 63 29 22 295 212 20 37 24 182 20 28 100
internal_value=0 0.00631053 -0.520854 -4.35011 -9.79617 -0.141952 0.0294197 -0.624846 -2.68722 -1.51671 0.318892 -1.06416 -3.218 -7.93036 -1.39386
internal_count=1514 1489 1255 113 50 1142 1120 825 259 239 566 354 172 48 124
shrinkage=0.05


Tree=3
num_leaves=16
num_cat=0
split_feature=28 151 108 9 82 99 52 77 81 45 2 51 96 113 108
split_gain=2090.21 2002.92 1643.36 2400.6 2255.51 1542.26 1195.87 1780.73 2117.66 2169.53 1612.99 1425.91 1173.94 1117.91 1493.42
threshold=12.500000000000002 190.00000000000003 488.00000000000006 285.00000000000006 168.50000000000003 105.00000000000001 22.500000000000004 195.00000000000003 16.000000000000004 142.50000000000003 52.500000000000007 195.00000000000003 1.0000000180025095e-35 90.000000000000014 145.00000000000003
decision_type=2 2 2 2 2 2 2 2 2 2 2 2 2 2 2
left_child=1 2 5 4 -4 6 7 8 12 10 -10 -9 13 14 -1
right_child=-2 -3 3 -5 -6 -7 -8 11 9 -11 -12 -13 -14 -15 -16
leaf_value=-0.0013646866291114862 -0.46071008000522851 0.13459727095487792 -0.78796454392946691 -0.0013226117879625351 -0.11578470505774022 -0.39513619399070743 0.088309489378737199 -0.02830116234042428 0.1631298634835652 -0.59888535711382118 -0.31036753859874366 -0.57524035366681914 0.15808837788076852 0.33052268961201547 -0.31925277665257457
leaf_count=484 25 234 26 63 24 25 295 22 35 28 37 26 127 23 40
internal_value=0 0.00599501 -0.494812 -4.13261 -9.30636 -0.134855 0.039001 -0.580854 -0.214321 -4.50857 -1.6039 -6.4912 0.422808 -0.213111 -0.512619
internal_count=1514 1489 1255 113 50 1142 1117 822 774 100 72 48 674 547 524
shrinkage=0.05


Tree=4
num_leaves=16
num_cat=0
split_feature=28 151 3 56 77 10 23 117 82 60 108 1 3 53 124
split_gain=1886.41 1842.46 1553.84 1893.4 1662.69 1644.59 1755.26 1724.97 1686.43 2018.91 1371.87 1246.34 1207.04 2271.52 1870.97
threshold=12.500000000000002 65.000000000000014 572.50000000000011 85.000000000000014 305.00000000000006 210.00000000000003 72.500000000000014 96.500000000000014 52.500000000000007 175.00000000000003 555.00000000000011 145.00000000000003 55.000000000000007 12.500000000000002 105.00000000000001
decision_type=2 2 2 2 2 2 2 2 2 2 2 2 2 2 2
left_child=1 2 3 4 5 6 8 -7 11 12 -3 -1 -10 14 -14
right_child=-2 10 -4 -5 -6 7 -8 -9 9 -11 -12 -13 13 -15 -16
leaf_value=-0.14886626145497567 -0.43767458018660543 0.1284530066494867 0.10902347510030284 -0.40607984678165332 -0.47083463489331989 -0.0023379422981163549 -0.44362261645171952 -0.53475542257074271 0.13525975235437945 -0.40181753883759186 -0.23620714438813076 0.19440403928359351 -0.25171051951071538 0.13664516038894656 0.26569628644557225
leaf_count=223 25 327 169 37 22 29 23 32 295 24 28 30 104 125 21
internal_value=0 0.00569529 -0.61669 -1.10656 -0.826861 -0.618277 -0.256284 -5.63278 -0.0151989 0.939908 1.99382 -2.16325 1.33519 -0.28141 -3.29572
internal_count=1514 1489 1134 965 928 906 845 61 822 569 355 253 545 250 125
shrinkage=0.05


Tree=5
num_leaves=16
num_cat=0
split_feature=6 82 147 10 117 3 9 23 96 75 10 145 51 25 108
split_gain=2373.69 4346.29 2409.16 2666.95 2077.88 1609.19 1603.53 1271.66 1160.72 1151.74 1028.19 926.254 888.551 1209.95 1034.18
threshold=1.0000000180025095e-35 52.500000000000007 1.0000000180025095e-35 195.00000000000003 32.500000000000007 395.00000000000006 235.00000000000003 72.500000000000014 35.000000000000007 155.00000000000003 375.00000000000006 18.000000000000004 302.50000000000006 1.0000000180025095e-35 185.00000000000003
decision_type=2 2 2 2 2 2 2 2 2 2 2 2 2 2 2
left_child=2 4 3 7 -2 10 -4 9 -3 11 -5 12 -1 14 -14
right_child=1 8 6 5 -6 -7 -8 -9 -10 -11 -12 -13 13 -15 -16
leaf_value=0.086837594979104413 -0.93610001463781711 -0.10448855475467794 -0.58452741033755817 -0.21679263706836435 -0.27585791263442777 0.022269347535316335 -0.052078080321511913 -0.28118233748332216 0.26184519683492596 0.27211600141599773 -0.65066109760241075 -0.20297810593072108 -0.028383108390414198 0.12746920544525672 -0.32085864514839363
leaf_count=826 22 85 26 36 26 43 31 27 29 64 22 34 115 87 41
internal_value=0 -3.58698 0.463713 0.743771 -11.5694 -4.1904 -5.89899 1.16115 -0.225968 1.31812 -7.62727 1.07882 1.24225 -0.438637 -2.10503
internal_count=1514 162 1352 1295 48 101 57 1194 114 1167 58 1103 1069 243 156
shrinkage=0.05


Tree=6
num_leaves=16
num_cat=0
split_feature=6 82 147 10 117 82 3 60 60 75 96 10 145 42 42
split_gain=2142.26 3922.52 2174.27 2406.92 1875.29 1574.65 1452.3 1253.9 2602.11 1077.76 1047.55 927.941 899.032 796.009 698.188
threshold=1.0000000180025095e-35 52.500000000000007 1.0000000180025095e-35 195.00000000000003 32.500000000000007 82.500000000000014 395.00000000000006 180.50000000000003 215.00000000000003 155.00000000000003 35.000000000000007 375.00000000000006 45.000000000000007 95.000000000000014 82.500000000000014
decision_type=2 2 2 2 2 2 2 2 2 2 2 2 2 2 2
left_child=2 4 3 7 -2 -4 11 9 -9 12 13 -5 14 -3 -1
right_child=1 10 5 6 -6 -7 -8 8 -10 -11 -12 -13 -14 -15 -16
leaf_value=0.092952086219123306 -0.88929500986229293 0.038318129200884642 -0.6376487840339542 -0.20595300201740532 -0.26206500866817523 -0.086987857601127108 0.021155882003002391 -0.60675322200570792 0.18036245448248728 0.26771663100488724 0.24875293944416377 -0.61812803474339573 -0.21651697973410289 -0.26943165691275345 0.0094377592454353981
leaf_count=655 22 47 20 36 26 37 43 21 21 62 29 22 30 38 405
internal_value=0 -3.40763 0.440528 0.706582 -10.9909 -5.60404 -3.98088 1.10309 -4.26391 1.29876 -0.214669 -7.24591 1.06808 -1.98528 1.22087
internal_count=1514 162 1352 1295 48 57 101 1194 42 1152 114 58 1090 85 1060
shrinkage=0.05


Tree=7
num_leaves=16
num_cat=0
split_feature=6 82 147 68 149 44 60 75 96 145 83 186 42 167 42
split_gain=1933.39 3540.08 1962.28 1466.88 1459.7 1382.88 1201.58 1004.77 945.41 900.651 924.808 885.361 1331.86 869.058 831.765
threshold=1.0000000180025095e-35 52.500000000000007 1.0000000180025095e-35 105.00000000000001 38.000000000000007 22.500000000000004 180.50000000000003 155.00000000000003 35.000000000000007 45.000000000000007 17.500000000000004 45.500000000000007 95.000000000000014 315.00000000000006 82.500000000000014
decision_type=2 2 2 2 2 2 2 2 2 2 2 2 2 2 2
left_child=2 5 3 6 -4 -2 7 9 11 10 13 12 -3 14 -1
right_child=1 8 4 -5 -6 -7 -8 -9 -10 -11 -12 -13 -14 -15 -16
leaf_value=0.066858467579041195 -0.82637702836876825 -0.019221107348015437 -0.47430049031972887 -0.33111535995094865 0.041446367554042657 -0.28538346400967352 -0.22835650760680437 0.24966195543607075 0.23631529847866506 -0.22174045089632274 0.28649483063282116 0.15569123435020449 -0.50806622586467054 0.27692525032404308 -0.023411424327685247
leaf_count=632 21 38 34 27 23 27 40 60 29 32 39 25 22 37 428
internal_value=0 -3.23725 0.418501 0.671253 -5.32384 -10.4414 0.826558 1.00225 -0.203936 0.797231 0.944613 -1.88602 -3.96929 0.774489 0.608197
internal_count=1514 162 1352 1295 57 48 1268 1228 114 1168 1136 85 60 1097 1060
shrinkage=0.05


Tree=8
num_leaves=16
num_cat=0
split_feature=6 82 147 10 117 9 3 23 3 82 27 51 75 46 145
split_gain=1744.88 3194.92 1770.95 2151.08 1661.96 1422.66 1312.98 1147.75 912.201 856.269 1363.23 1315.09 854.116 794.512 914.386
threshold=1.0000000180025095e-35 52.500000000000007 1.0000000180025095e-35 195.00000000000003 32.500000000000007 235.00000000000003 395.00000000000006 72.500000000000014 192.50000000000003 252.50000000000003 11.000000000000002 242.50000000000003 155.00000000000003 7.0000000000000009 18.000000000000004
decision_type=2 2 2 2 2 2 2 2 2 2 2 2 2 2 2
left_child=2 4 3 7 -2 -4 8 12 -5 10 11 -3 13 14 -1
right_child=1 9 5 6 -6 -7 -8 -9 -10 -11 -12 -13 -14 -15 -16
leaf_value=0.041388317467838227 -0.81580670828169044 -0.052724109469233338 -0.52564052733091216 -0.17830970252261444 -0.22532923972377411 -0.024117708975268951 0.019689455039279408 -0.27166219345397419 -0.58091924971279996 0.18799511576826511 0.25048967450857162 -0.55595666974782942 0.23566200146451594 0.16811328680544604 -0.23897314488887789
leaf_count=951 22 37 26 34 26 31 43 27 24 37 20 20 64 122 30
internal_value=0 -3.07539 0.397576 0.637691 -9.91929 -5.05765 -3.79365 1.01254 -6.89814 -0.193739 -2.09354 -4.58594 1.16167 0.955592 0.656291
internal_count=1514 162 1352 1295 48 57 101 1194 58 114 77 57 1167 1103 981
shrinkage=0.05


Tree=9
num_leaves=16
num_cat=0
split_feature=6 82 147 117 82 89 167 60 82 75 2 82 81 96 149
split_gain=1574.75 2883.41 1598.29 1499.92 1410.88 988.013 931.004 942.8 1056.05 921.38 974.138 1109.32 1097.18 832.667 823.475
threshold=1.0000000180025095e-35 52.500000000000007 1.0000000180025095e-35 32.500000000000007 82.500000000000014 72.500000000000014 315.00000000000006 180.50000000000003 192.50000000000003 155.00000000000003 142.50000000000003 107.50000000000001 95.000000000000014 35.000000000000007 65.000000000000014
decision_type=2 2 2 2 2 2 2 2 2 2 2 2 2 2 2
left_child=2 3 5 -2 -4 6 7 9 -9 10 12 -12 14 -3 -1
right_child=1 13 4 -5 -6 -7 -8 8 -10 -11 11 -13 -14 -15 -16
leaf_value=-0.02928553631670601 -0.77501636933196671 -0.088132745483342337 -0.57858674615621575 -0.21406277240468907 -0.057347370261276093 0.26046903868516286 0.26907405176678217 0.032669297456741332 -0.48115185678005218 0.22052002783332553 -0.006863537310125606 0.16355643332319916 -0.30273572238105717 0.22214435421187304 0.12832739306710816
leaf_count=606 22 85 20 26 37 45 37 20 20 56 193 189 33 29 96
internal_value=0 -2.92162 0.377697 -9.42333 -4.80477 0.605806 0.440077 0.28935 -4.48483 0.452152 0.253708 1.54908 -0.419534 -0.184052 -0.154633
internal_count=1514 162 1352 48 57 1295 1250 1213 40 1173 1117 382 735 114 702
shrinkage=0.05


Tree=10
num_leaves=16
num_cat=0
split_feature=3 39 86 77 82 6 123 51 118 84 96 3 2 2 44
split_gain=1908.42 1663.38 2184.32 1794.08 1509.88 1931.34 1684.14 1983.43 1659.26 1376.71 1123.37 965.959 899.021 2120.98 1037.62
threshold=601.00000000000011 125.00000000000001 1.0000000180025095e-35 390.00000000000006 157.00000000000003 40.000000000000007 25.000000000000004 152.50000000000003 52.500000000000007 15.000000000000002 1.0000000180025095e-35 312.50000000000006 1.0000000180025095e-35 105.00000000000001 77.500000000000014
decision_type=2 2 2 2 2 2 2 2 2 2 2 2 2 2 2
left_child=1 2 3 4 5 9 -7 -8 12 10 11 -1 -6 -14 -15
right_child=-2 -3 -4 -5 8 6 7 -9 -10 -11 -12 -13 13 14 -16
leaf_value=-0.024467689726880928 0.14899840796041111 -0.46229322119837718 0.12913615772215364 -0.51220486961305145 0.14575267411049853 -0.050978055936949596 -0.18877347759578542 -0.85283625992861678 -0.29220086204655032 -0.39762069689178908 0.11350347196735511 -0.19472062684058608 -0.30128566569284254 0.26378708762942621 -0.026866041960781569
leaf_count=334 189 21 222 20 197 35 23 22 34 27 107 111 46 53 73
internal_value=0 -0.416766 -0.274579 -0.860828 -0.684119 -1.61656 -6.2221 -10.2685 0.840635 -0.98021 -0.639178 -1.33871 1.45657 -0.213912 1.90786
internal_count=1514 1325 1304 1082 1062 659 80 45 403 579 552 445 369 172 126
shrinkage=0.05


Tree=11
num_leaves=16
num_cat=0
split_feature=3 141 39 96 108 2 9 117 151 44 6 82 2 60 52
split_gain=1722.35 1616.15 1589.76 1910.12 1634.94 1854.82 2819.49 3361.83 1786.11 1515.28 1933.38 1495.18 1206.85 1206.46 1039.95
threshold=601.00000000000011 17.500000000000004 125.00000000000001 1.0000000180025095e-35 260.00000000000006 142.50000000000003 690.00000000000011 118.00000000000001 65.000000000000014 1.0000000180025095e-35 147.50000000000003 137.50000000000003 42.500000000000007 27.500000000000004 145.00000000000003
decision_type=2 2 2 2 2 2 2 2 2 2 2 2 2 2 2
left_child=1 2 3 4 8 6 7 -6 9 10 -1 -12 -3 -14 -11
right_child=-2 12 -4 -5 5 -7 -8 -9 -10 14 11 -13 13 -15 -16
leaf_value=-0.11053104811580852 0.14154848830488626 0.23490509182214736 -0.48402688995003706 0.07987434854730964 -0.18030050649570351 0.074009370037487573 0.17295581102371216 -0.86051746396457451 0.1144611355816496 -0.0079862358108322255 -0.78592683022672483 -0.18859578680247069 -0.12148235128886664 0.32103863969445229 -0.34107218205928808
leaf_count=128 189 100 20 276 39 35 20 34 145 374 22 20 67 20 25
internal_value=0 -0.395927 -0.843623 -0.685539 -1.43389 -4.72498 -7.06026 -9.94228 -0.843896 -1.64232 -4.14239 -10.0297 2.32855 -0.395068 -0.577126
internal_count=1514 1325 1138 1118 842 128 93 73 714 569 170 42 187 87 399
shrinkage=0.05


Tree=12
num_leaves=16
num_cat=0
split_feature=3 151 96 147 149 108 117 26 82 44 82 5 117 2 117
split_gain=1554.42 1458.67 1536.55 1682.46 1749.95 2501.66 1504.87 1404.78 1346.73 1240.07 1788.5 1945.44 2838.99 1198.64 1855.51
threshold=601.00000000000011 65.000000000000014 95.000000000000014 75.000000000000014 65.000000000000014 362.50000000000006 57.500000000000007 115.00000000000001 107.50000000000001 1.0000000180025095e-35 97.500000000000014 55.000000000000007 26.500000000000004 105.00000000000001 42.500000000000007
decision_type=2 2 2 2 2 2 2 2 2 2 2 2 2 2 2
left_child=1 2 3 4 5 9 -7 -4 -3 10 11 12 -1 14 -12
right_child=-2 8 7 -5 -6 6 -8 -9 -10 -11 13 -13 -14 -15 -16
leaf_value=-0.86002086699008951 0.13447106264028993 -0.027134827533621848 0.1537429078810022 -0.48056890583038331 0.14373181293408074 -0.04944688081741333 -0.58290204818432156 -0.217768038905436 0.17802849690477024 -0.017010058757792226 0.069940752762815236 0.066820852245603288 -0.17061783038079739 0.20821940478156595 -0.40219872723284528
leaf_count=28 189 162 142 25 90 20 39 31 158 459 46 21 32 34 38
internal_value=0 -0.376131 -0.968186 -1.53202 -1.28173 -1.80345 -8.0414 1.74343 1.48329 -1.24412 -3.32904 -6.94744 -9.84678 -0.845223 -2.87292
internal_count=1514 1325 1005 832 807 717 59 173 320 658 199 81 60 118 84
shrinkage=0.05


Tree=13
num_leaves=16
num_cat=0
split_feature=6 82 123 44 117 123 3 5 53 9 2 149 62 18 186
split_gain=1424.45 2312.2 2006.12 1257.72 1959.38 1118.57 1386.28 1827.68 1534.28 2201.97 1614.3 1657.98 1222.47 1188.55 1162
threshold=40.000000000000007 52.500000000000007 47.500000000000007 594.00000000000011 177.50000000000003 25.000000000000004 601.00000000000011 175.00000000000003 12.500000000000002 102.50000000000001 142.50000000000003 77.500000000000014 225.00000000000003 1.0000000180025095e-35 94.500000000000014
decision_type=2 2 2 2 2 2 2 2 2 2 2 2 2 2 2
left_child=3 2 -2 5 -5 6 7 8 10 -10 11 12 13 -1 -7
right_child=1 -3 -4 4 -6 14 -8 -9 9 -11 -12 -13 -14 -15 -16
leaf_value=-0.52897162504237272 -0.10543280898460322 -0.012454850043380454 -0.70947722400780089 0.031943025244161108 -0.52215553863594932 0.12879966635302437 0.14381750146596051 0.10777142628494403 -0.33738275515405758 0.072609433563198225 0.017850189633888774 0.051098804695661686 0.017581128443662938 -0.23322385362909881 -0.24657004543326122
leaf_count=58 28 124 27 39 27 328 142 192 38 237 101 43 26 82 22
internal_value=0 -2.64273 -8.03927 0.361407 -3.89467 0.582764 0.00336468 -0.521685 -1.40033 0.319119 -2.92564 -4.512 -5.94549 -7.11496 2.1041
internal_count=1514 179 55 1335 66 1269 919 777 585 275 310 209 166 140 350
shrinkage=0.05


Tree=14
num_leaves=16
num_cat=0
split_feature=141 6 60 53 6 51 117 9 108 53 63 9 117 62 151
split_gain=1358.02 1525.76 1528.48 1494.06 1451.34 2455.82 1417.57 1929.12 2579.2 2181.44 1266.69 1173.38 1277.07 1589.78 1471.04
threshold=17.500000000000004 40.000000000000007 175.00000000000003 201.00000000000003 377.50000000000006 142.50000000000003 118.00000000000001 655.00000000000011 260.00000000000006 1.0000000180025095e-35 197.50000000000003 422.50000000000006 15.000000000000002 1.0000000180025095e-35 90.000000000000014
decision_type=2 2 2 2 2 2 2 2 2 2 2 2 2 2 2
left_child=1 2 3 6 5 -3 11 8 10 -10 -8 -1 13 14 -13
right_child=-2 4 -4 -5 -6 -7 7 -9 9 -11 -12 12 -14 -15 -16
leaf_value=0.095848255755245387 0.11862508364770402 -0.0026187167037278417 -0.31854815147817139 0.21263574034322141 -0.031463405709517632 -0.59028311610221873 -0.035177909472231941 0.1142730114463064 -0.15342709504324814 -0.7841483948322443 -0.43334345925938006 -0.41381682433059502 0.053808237220684112 0.20546719900199345 0.074578765460423066
leaf_count=388 209 32 36 86 95 40 217 97 29 26 22 58 137 21 21
internal_value=0 -0.373099 0.0411152 0.250584 -3.19571 -6.58198 -0.0881788 -1.58158 -2.85744 -9.03173 -1.43658 0.846094 -0.907062 -3.62408 -5.6798
internal_count=1514 1305 1138 1102 167 72 1016 391 294 55 239 625 237 100 79
shrinkage=0.05


Tree=15
num_leaves=16
num_cat=0
split_feature=4 12 81 10 82 3 128 3 53 75 62 86 38 60 44
split_gain=1858.29 1544.45 1152.66 3284.3 1392.47 1108.87 1332.54 1100.42 1037.33 903.22 883.37 836.148 1136.1 960.54 1216.86
threshold=9.0000000000000018 1.0000000180025095e-35 16.000000000000004 145.00000000000003 162.50000000000003 601.00000000000011 1.0000000180025095e-35 89.000000000000014 201.00000000000003 65.000000000000014 65.000000000000014 1.0000000180025095e-35 85.000000000000014 32.500000000000007 132.50000000000003
decision_type=2 2 2 2 2 2 2 2 2 2 2 2 2 2 2
left_child=1 2 4 8 5 6 7 9 -4 -1 -6 12 13 -9 -15
right_child=-2 -3 3 -5 10 -7 -8 11 -10 -11 -12 -13 -14 14 -16
leaf_value=0.090739411761840957 -0.352048359811306 -0.34356135989849768 0.032465270080839291 -0.63807564452290544 0.062840058888707848 0.13704998803883792 -0.40769618356769738 -0.034922918563048209 -0.27067984614302132 -0.20345199580850273 0.22014690654082153 0.10797270145594029 -0.43074571974575521 -0.57647795908153066 -0.053225956812500953
leaf_count=260 36 30 166 24 280 125 22 251 34 29 131 57 24 20 25
internal_value=0 0.230645 0.377783 -1.70783 0.759464 0.00110105 -0.4967 -0.243759 -0.381388 1.22437 2.25958 -1.36919 -1.99773 -1.46121 -5.71565
internal_count=1514 1478 1448 224 1224 813 688 666 200 289 411 377 320 296 45
shrinkage=0.05


Tree=16
num_leaves=16
num_cat=0
split_feature=4 12 86 18 10 117 6 45 6 18 77 108 108 147 52
split_gain=1677.1 1393.86 1046.07 1489.32 1815.98 2249.26 1142.94 2095.18 2632.86 1101.63 2097.96 1014.4 993.782 1045.53 1199.47
threshold=9.0000000000000018 1.0000000180025095e-35 1.0000000180025095e-35 72.500000000000014 210.00000000000003 65.500000000000014 1.0000000180025095e-35 1.0000000180025095e-35 685.00000000000011 92.500000000000014 35.000000000000007 555.00000000000011 555.00000000000011 1.0000000180025095e-35 22.500000000000004
decision_type=2 2 2 2 2 2 2 2 2 2 2 2 2 2 2
left_child=1 2 3 4 6 -6 12 -8 -9 -4 -11 -5 13 14 -1
right_child=-2 -3 9 11 5 -7 7 8 -10 10 -12 -13 -14 -15 -16
leaf_value=-0.060539982005857029 -0.33444595187902454 -0.32638329431414603 0.2053778895496452 0.074330798529898934 0.02185469299554825 -0.70315782557363093 0.057190525667233906 -0.73344662359782631 0.017675336003303527 0.12205919280770372 -0.45737093005861551 -0.21530070691369474 0.23238631561398507 -0.35797411447221583 0.11469022444599158
leaf_count=308 36 30 137 547 20 23 44 28 20 61 21 32 42 22 143
internal_value=0 0.219113 0.358894 0.000103414 -1.03886 -7.31885 -0.593985 -3.84057 -8.40958 2.37238 -0.526629 1.16647 -0.0140123 -0.427951 -0.0995837
internal_count=1514 1478 1448 1229 650 43 607 92 48 219 82 579 515 473 451
shrinkage=0.05


Tree=17
num_leaves=16
num_cat=0
split_feature=4 12 81 10 82 149 45 3 45 3 149 45 60 10 117
split_gain=1513.59 1257.96 1013.68 2885.61 1220.04 1045.99 1046.07 997.185 1250.66 1097.29 902.543 899.957 1886.47 1679.83 1267.85
threshold=9.0000000000000018 1.0000000180025095e-35 16.000000000000004 145.00000000000003 162.50000000000003 95.000000000000014 142.50000000000003 601.00000000000011 435.00000000000006 89.000000000000014 38.000000000000007 27.500000000000004 7.5000000000000009 145.00000000000003 71.000000000000014
decision_type=2 2 2 2 2 2 2 2 2 2 2 2 2 2 2
left_child=1 2 4 5 7 6 -4 8 9 -1 -6 13 14 -11 -13
right_child=-2 -3 3 -5 10 -7 -8 -9 -10 11 -12 12 -14 -15 -16
leaf_value=0.060485800582762456 -0.31772365425195964 -0.31006412496169411 0.10221642916362117 -0.59879712661107376 0.072453117728650263 -0.28057689061388374 -0.18825968700211224 0.12936391343101858 -0.40407827397187551 0.062894084530587244 0.27304258689061917 0.10553671783871121 -0.46011208452676472 -0.42247747302055361 -0.18691731144984564
leaf_count=292 36 30 127 24 344 32 41 125 21 164 67 63 38 20 90
internal_value=0 0.208157 0.34095 -1.61489 0.698881 -0.371562 0.626528 -0.0109772 -0.483044 -0.24381 2.10305 -1.37562 -2.89613 0.202726 -1.3299
internal_count=1514 1478 1448 224 1224 200 168 813 688 667 411 375 191 184 153
shrinkage=0.05


Tree=18
num_leaves=16
num_cat=0
split_feature=4 12 185 157 68 3 82 60 6 3 44 123 44 82 53
split_gain=1366.01 1135.31 984.82 1095.87 1150.49 1071.51 1375.7 1766.52 1483.67 1641.97 1381.01 787.196 782.75 767.098 764.946
threshold=9.0000000000000018 1.0000000180025095e-35 1.0000000180025095e-35 1.0000000180025095e-35 105.00000000000001 601.00000000000011 97.500000000000014 175.00000000000003 40.000000000000007 291.50000000000006 92.500000000000014 97.500000000000014 552.50000000000011 332.50000000000006 92.500000000000014
decision_type=2 2 2 2 2 2 2 2 2 2 2 2 2 2 2
left_child=1 2 3 4 5 6 8 11 9 -1 -10 12 13 14 -8
right_child=-2 -3 -4 -5 -6 -7 7 -9 10 -11 -12 -13 -14 -15 -16
leaf_value=0.028048638150469637 -0.3018374688095517 -0.29456091910600662 -0.28294821911387974 0.32608889382461026 -0.285647960055259 0.13460799515166361 0.018593597221338461 -0.38091418587643172 -0.56034891075558135 -0.19303129894307636 -0.033110598377559496 0.15057818306444204 -0.27565065741539002 -0.10725712006990339 0.16444977710010311
leaf_count=319 36 30 27 29 31 184 248 23 27 114 23 191 20 71 141
internal_value=0 0.197749 0.323902 0.437581 0.310827 0.448033 0.097209 0.999129 -1.19872 -0.603143 -6.35639 1.29451 0.611265 0.877538 1.42924
internal_count=1514 1478 1448 1421 1392 1361 1177 694 483 433 50 671 480 460 389
shrinkage=0.05


Tree=19
num_leaves=16
num_cat=0
split_feature=4 12 86 18 10 117 1 82 82 6 108 51 117 1 82
split_gain=1232.82 1024.62 917.13 1357.27 1505.38 1988.28 1090.85 1460.47 2374.54 2002.76 1062.18 1620.12 3004.81 1090.08 973.893
threshold=9.0000000000000018 1.0000000180025095e-35 1.0000000180025095e-35 72.500000000000014 210.00000000000003 65.500000000000014 172.50000000000003 97.500000000000014 66.500000000000014 1.0000000180025095e-35 160.00000000000003 262.50000000000006 102.50000000000001 6.5000000000000009 262.50000000000006
decision_type=2 2 2 2 2 2 2 2 2 2 2 2 2 2 2
left_child=1 2 3 4 6 -6 7 8 9 -1 11 13 14 -9 -13
right_child=-2 -3 -4 -5 5 -7 -8 10 -10 -11 -12 12 -14 -15 -16
leaf_value=-0.0041633832318758645 -0.28674559655288856 -0.27983286758263909 0.10965136147133972 0.054260649089188762 0.027713616043329239 -0.65394041460493346 0.18374707433912491 0.11913401947285121 -0.50154448296874765 -0.48800842189788823 0.16216707415878773 -0.6005551615182092 0.18074058289489439 -0.19523173817566464 -0.17361316409978
leaf_count=148 36 30 219 579 20 23 54 130 40 25 88 34 31 35 22
internal_value=0 0.187862 0.307707 -0.0282451 -1.02008 -6.73784 -0.615032 -1.03394 -3.08715 -1.48166 0.25233 -0.79215 -4.284 1.04901 -8.65656
internal_count=1514 1478 1448 1229 650 43 607 553 213 173 340 252 87 165 56
shrinkage=0.05


Tree=20
num_leaves=16
num_cat=0
split_feature=141 68 27 38 117 2 123 1 117 1 51 18 108 186 43
split_gain=1343.82 1097.99 1954.49 1399.9 3828.02 1290.91 1219.02 1533.91 2829.95 1343.43 2168.22 990.601 982.71 896.794 805.952
threshold=77.500000000000014 1.0000000180025095e-35 22.000000000000004 152.50000000000003 32.500000000000007 52.500000000000007 35.000000000000007 27.000000000000004 197.50000000000003 172.50000000000003 95.000000000000014 27.500000000000004 555.00000000000011 24.000000000000004 32.500000000000007
decision_type=2 2 2 2 2 2 2 2 2 2 2 2 2 2 2
left_child=1 3 5 6 -5 -3 7 12 9 10 -9 -12 14 -8 -1
right_child=-2 2 -4 4 -6 -7 13 8 -10 -11 11 -13 -14 -15 -16
leaf_value=0.0028318147604100381 0.12627661235266083 -0.69863188013434419 0.17685166705738417 -0.73272433541715154 0.078079258217602171 -0.16863898320330517 0.12330030029455961 0.055554441869892973 -0.61772711936916624 0.10065548112898162 -0.59991280188163121 -0.15819070061499424 -0.24171381955714644 -0.05347162556718104 0.18583598272765386
leaf_count=522 184 20 22 24 37 27 284 47 28 66 30 22 37 96 68
internal_value=0 -0.357828 -4.24207 -0.145288 -4.81851 -7.88336 0.0922672 -0.593853 -3.05903 -1.48161 -3.81142 -8.26061 0.164965 1.57284 0.478476
internal_count=1514 1330 69 1261 61 47 1200 820 193 165 99 52 627 380 590
shrinkage=0.05


Tree=21
num_leaves=16
num_cat=0
split_feature=147 82 141 84 185 96 1 117 1 14 52 82 10 6 51
split_gain=1514.73 1226.53 1032.8 1005.86 912.111 1201.23 1278.37 1870.68 1587.41 1436.35 1282.8 1106.92 860.523 824.077 1227.91
threshold=55.000000000000007 82.500000000000014 77.500000000000014 65.000000000000014 1.0000000180025095e-35 95.000000000000014 32.500000000000007 181.00000000000003 289.50000000000006 42.500000000000007 15.000000000000002 112.50000000000001 222.50000000000003 40.000000000000007 291.00000000000006
decision_type=2 2 2 2 2 2 2 2 2 2 2 2 2 2 2
left_child=2 -2 3 4 5 6 12 8 9 10 11 -8 13 -1 -15
right_child=1 -3 -4 -5 -6 -7 7 -9 -10 -11 -12 -13 -14 14 -16
leaf_value=0.047483025200879922 -0.57579731464385986 -0.063129576189177375 0.12195101844010044 -0.30882082537368494 -0.27279434030254684 0.11547009503406487 -0.028862436339259147 -0.46761128306388855 0.20791870256842571 -0.4824491300582886 0.14418210144377436 -0.38960832756113367 -0.18638433530926704 -0.0051092922687530525 -0.42934966553812448
leaf_count=650 20 28 177 27 30 209 50 33 43 25 46 37 50 66 23
internal_value=0 -5.53482 0.173955 -0.137074 -0.00786428 0.124799 -0.321518 -2.3742 -1.22855 -2.69462 -1.38741 -3.64566 0.287262 0.55891 -2.29489
internal_count=1514 48 1466 1289 1262 1232 1023 234 201 158 133 87 789 739 89
shrinkage=0.05


Tree=22
num_leaves=16
num_cat=0
split_feature=147 46 68 27 45 185 96 82 113 53 51 6 6 44 42
split_gain=1367.05 1145.15 1162.43 2619.46 1548.78 1484.87 1474.43 1106.94 895.522 826.18 1239.21 784.316 1894.82 1111.34 1239.57
threshold=55.000000000000007 1.0000000180025095e-35 1.0000000180025095e-35 22.000000000000004 77.500000000000014 6.5000000000000009 95.000000000000014 82.500000000000014 122.00000000000001 127.50000000000001 291.00000000000006 155.00000000000003 302.50000000000006 17.500000000000004 245.00000000000003
decision_type=2 2 2 2 2 2 2 2 2 2 2 2 2 2 2
left_child=1 2 5 4 -4 6 8 -2 11 -8 -11 -1 -13 -14 -15
right_child=7 -3 3 -5 -6 -7 9 -9 -10 10 -12 12 13 14 -16
leaf_value=-0.010561136732097711 -0.54700744330883022 0.13771860428349256 -0.12186085979143779 0.23805378727290943 -0.6841859586238862 -0.4123589358159474 0.18243343200601503 -0.059973098550524032 0.15663468950531551 0.21919899195432666 -0.32460341832854533 -0.58084036849793941 -0.33910915790044749 0.24903810421625772 -0.24190777659416202
leaf_count=839 20 153 24 23 25 21 167 28 72 20 22 21 23 36 20
internal_value=0 0.165258 -0.136444 -4.0428 -8.17523 0.0901936 0.233706 -5.25808 -0.266133 2.65159 -1.313 -0.526746 -3.17399 -0.929695 1.47401
internal_count=1514 1466 1313 72 49 1241 1220 48 1011 209 42 939 100 79 56
shrinkage=0.05


Tree=23
num_leaves=16
num_cat=0
split_feature=147 53 46 146 68 27 53 185 96 26 53 5 123 6 42
split_gain=1233.76 1077.69 1033.5 1075.96 1251.02 2340.52 1330.95 1301.68 1272.59 837.262 827.55 796.59 955.828 1217.58 979.599
threshold=55.000000000000007 92.500000000000014 1.0000000180025095e-35 175.00000000000003 1.0000000180025095e-35 27.500000000000004 42.500000000000007 6.5000000000000009 95.000000000000014 630.00000000000011 192.50000000000003 745.00000000000011 35.000000000000007 240.00000000000003 217.50000000000003
decision_type=2 2 2 2 2 2 2 2 2 2 2 2 2 2 2
left_child=2 -2 3 4 7 6 -6 8 9 11 -10 12 13 14 -1
right_child=1 -3 -4 -5 5 -7 -8 -9 10 -11 -12 -13 -14 -15 -16
leaf_value=-0.024573457862436771 -0.47700218969583513 -0.0027552734250607699 0.13083267353621184 0.30014464088848664 -0.65707624256610875 0.21697297465233578 -0.12189079239254906 -0.3917409848599207 0.15951352224179677 0.29445993900299072 -0.13788708051045737 0.13539868267253041 0.043213358610668634 -0.35704656669071744 -0.19256688374493802
leaf_count=500 25 23 153 28 26 21 21 21 175 21 27 72 261 35 105
internal_value=0 -4.99518 0.156995 -0.129622 -0.263249 -4.43743 -8.35902 -0.030016 0.107025 -0.357985 2.39524 -0.492816 -0.748595 -1.40634 -1.07459
internal_count=1514 48 1466 1313 1285 68 47 1217 1196 994 202 973 901 640 605
shrinkage=0.05


Tree=24
num_leaves=16
num_cat=0
split_feature=141 81 18 51 63 1 60 3 82 52 1 1 124 25 51
split_gain=1073.79 1089.16 961.943 1388.42 1295.53 1172.46 2174.68 1447.97 1693.92 1171.53 1226.25 899.56 860.947 954.487 742.358
threshold=77.500000000000014 122.50000000000001 47.500000000000007 670.00000000000011 197.50000000000003 27.000000000000004 77.500000000000014 355.00000000000006 97.500000000000014 15.000000000000002 172.50000000000003 95.000000000000014 112.50000000000001 32.500000000000007 291.00000000000006
decision_type=2 2 2 2 2 2 2 2 2 2 2 2 2 2 2
left_child=1 2 4 -4 5 7 9 8 -1 10 11 -7 13 14 -10
right_child=-2 -3 3 -5 -6 6 -8 -9 12 -11 -12 -13 -14 -15 -16
leaf_value=-0.19286556129007282 0.11290818835892108 -0.24489759242534639 0.052244223236706799 -0.31417932753209721 -0.34585996491568433 -0.11871601310398044 -0.63925002098083494 0.18300472975418133 0.016586949659342116 0.16347842371712129 0.049790457087127787 -0.51253897444955232 0.26283680308196278 0.15564540602041013 -0.21628794648817609
leaf_count=119 184 50 608 27 35 29 20 93 88 36 38 29 36 66 56
internal_value=0 -0.319275 -0.14042 0.73328 -1.00058 -0.661097 -3.06765 0.137585 -0.759932 -1.59532 -3.41966 -6.31255 0.738394 -0.0361787 -1.47951
internal_count=1514 1330 1280 635 645 610 152 458 365 132 96 58 246 210 144
shrinkage=0.05


Tree=25
num_leaves=16
num_cat=0
split_feature=108 10 18 25 51 117 99 170 12 63 18 82 82 23 86
split_gain=1637.42 2106.46 1637.33 1075.55 1125.28 1471.24 1010.06 994.415 922.743 858.353 1482.9 617.466 607.729 995.677 913.358
threshold=260.00000000000006 12.500000000000002 165.00000000000003 22.500000000000004 195.00000000000003 57.500000000000007 145.00000000000003 175.00000000000003 55.000000000000007 205.00000000000003 47.500000000000007 117.50000000000001 162.50000000000003 1.0000000180025095e-35 1.0000000180025095e-35
decision_type=2 2 2 2 2 2 2 2 2 2 2 2 2 2 2
left_child=6 2 3 4 5 -2 7 8 9 12 -11 -6 13 14 -1
right_child=1 -3 -4 -5 11 -7 -8 -9 -10 10 -12 -13 -14 -15 -16
leaf_value=-0.025027203944921497 0.0087793961167335517 -0.50727472126243578 -0.49009065069258217 0.15603764379610782 -0.19636627208618893 -0.5775841612530791 -0.32151156380063012 0.28003243396156713 -0.29338535718295888 -0.50868805637583137 0.008753563960393269 0.13440117392429085 0.087423956207931044 0.25989420425735021 0.13842926196979755
leaf_count=625 20 31 20 61 21 23 21 38 23 20 45 43 386 38 99
internal_value=0 -2.50797 -1.2486 -0.230356 -2.1408 -6.09714 0.448585 0.561972 0.407062 0.526039 -3.00918 0.517362 0.726204 0.208359 -0.0535223
internal_count=1514 219 188 168 107 43 1295 1274 1236 1213 65 64 1148 762 724
shrinkage=0.05


Tree=26
num_leaves=16
num_cat=0
split_feature=108 10 18 118 82 51 99 170 12 101 63 18 3 157 60
split_gain=1477.78 1901.08 1477.69 1079.96 1022.31 1092.02 911.579 897.459 832.776 842.181 767.122 1368.85 711.952 608.477 678.212
threshold=260.00000000000006 12.500000000000002 165.00000000000003 52.500000000000007 97.500000000000014 232.50000000000003 145.00000000000003 175.00000000000003 55.000000000000007 77.500000000000014 205.00000000000003 55.000000000000007 35.000000000000007 1.0000000180025095e-35 77.500000000000014
decision_type=2 2 2 2 2 2 2 2 2 2 2 2 2 2 2
left_child=6 2 3 4 12 -6 7 8 9 10 13 -12 -2 14 -1
right_child=1 -3 -4 -5 5 -7 -8 -9 -10 -11 11 -13 -14 -15 -16
leaf_value=0.038717719380659488 -0.38192204177379607 -0.48191098753483069 -0.46558611342683442 -0.32924394270648127 -0.045583922788500791 0.28363689071727249 -0.30543597468308042 0.26603081383203209 -0.27871608643428142 0.34675836890935896 -0.49178635090589523 0.0070937980643727572 0.02200339585542679 0.29576632295336042 -0.080494314551298685
leaf_count=972 20 31 20 23 48 53 21 38 23 20 20 44 24 21 136
internal_value=0 -2.38258 -1.18617 -0.218838 0.790947 2.54351 0.426156 0.533874 0.386709 0.499737 0.391851 -2.97612 -3.23198 0.582772 0.481704
internal_count=1514 219 188 168 145 101 1295 1274 1236 1213 1193 64 44 1129 1108
shrinkage=0.05


Tree=27
num_leaves=16
num_cat=0
split_feature=108 10 14 118 1 99 170 25 151 63 18 12 127 120 117
split_gain=1333.69 1715.72 1391.28 1313.87 832.18 796.511 827.264 773.621 792.995 764.937 1188.94 774.377 624.345 584.354 698.059
threshold=260.00000000000006 12.500000000000002 92.500000000000014 52.500000000000007 620.00000000000011 145.00000000000003 175.00000000000003 22.500000000000004 90.000000000000014 205.00000000000003 55.000000000000007 55.000000000000007 12.500000000000002 125.00000000000001 197.50000000000003
decision_type=2 2 2 2 2 2 2 2 2 2 2 2 2 2 2
left_child=4 2 3 7 5 6 9 8 -2 11 -11 12 13 14 -1
right_child=1 -3 -4 -5 -6 -7 -8 -9 -10 10 -12 -13 -14 -15 -16
leaf_value=0.025720635956221774 0.056179025525114307 -0.45781543594935253 -0.41190427641073868 -0.34611763693392278 0.34026746392250062 -0.29016418308019637 0.25324630382898689 0.21197697520256042 -0.27944189856449764 -0.47513257309794432 -0.0067449352925732023 -0.26478028576011242 0.12961336483261479 0.26950241652402013 -0.097533439766419566
leaf_count=843 66 31 24 24 20 21 37 50 24 20 42 23 134 22 133
internal_value=0 -2.26345 -1.12686 -0.0861908 0.404848 0.304448 0.406731 1.08572 -0.666398 0.265109 -3.15675 0.448794 0.565509 0.293379 0.178495
internal_count=1514 219 188 164 1295 1275 1254 140 90 1217 62 1155 1132 998 976
shrinkage=0.05


Tree=28
num_leaves=16
num_cat=0
split_feature=108 10 9 82 9 9 52 81 117 113 3 63 170 117 18
split_gain=1203.66 1548.44 1372.56 2161.08 1157 1143.09 1212.54 839.874 1183.23 1094.14 975.596 971.643 787.687 773.36 1431.04
threshold=260.00000000000006 12.500000000000002 77.500000000000014 212.50000000000003 205.00000000000003 665.00000000000011 32.500000000000007 12.500000000000002 26.500000000000004 122.00000000000001 55.000000000000007 125.00000000000001 175.00000000000003 197.50000000000003 77.500000000000014
decision_type=2 2 2 2 2 2 2 2 2 2 2 2 2 2 2
left_child=7 2 3 -2 -4 6 -6 9 10 12 -9 -10 13 -1 -15
right_child=1 -3 4 -5 5 -7 -8 8 11 -11 -12 -13 -14 14 -16
leaf_value=0.033395475861550089 -0.63411548792020145 -0.43492466951570202 0.29594024304420719 0.03123870354432326 -0.37080804208914442 0.17944802633590171 0.039567199597756071 -0.48804442352718774 0.053769645954792701 0.23677035640866961 -0.062996302269123214 -0.3226581507921219 0.27622109572092696 -0.28552370876596689 0.044971367842578269
leaf_count=873 23 31 31 26 36 36 36 27 120 64 27 20 30 57 77
internal_value=0 -2.15027 -1.07052 -5.62141 0.533756 -1.01195 -3.31241 0.384606 -1.53391 0.722654 -5.51041 -0.000115072 0.475001 0.324572 -1.91225
internal_count=1514 219 188 49 139 108 72 1295 194 1101 54 140 1037 1007 134
shrinkage=0.05


Tree=29
num_leaves=16
num_cat=0
split_feature=108 44 14 118 82 83 81 117 53 9 45 113 51 170 12
split_gain=1086.3 1531.71 1088 986.565 989.42 795.386 1004.94 1494.78 1523.75 1030.33 885.931 867.906 784.464 739.891 745.781
threshold=260.00000000000006 342.50000000000006 26.500000000000004 52.500000000000007 82.500000000000014 1.0000000180025095e-35 12.500000000000002 26.500000000000004 72.500000000000014 112.50000000000001 27.500000000000004 122.00000000000001 95.000000000000014 175.00000000000003 1.0000000180025095e-35
decision_type=2 2 2 2 2 2 2 2 2 2 2 2 2 2 2
left_child=5 2 3 4 -2 6 11 8 -8 -9 -11 13 -12 14 -1
right_child=1 -3 -4 -5 -6 -7 7 9 -10 10 12 -13 -14 -15 -16
leaf_value=0.016637706768269901 -0.18099149150006913 -0.4881498914697896 -0.31398301545311424 -0.27877816889021129 0.13084513478645005 0.21586795301765813 -0.018285150755019415 0.15339511956342244 -0.58616423209508262 0.07116872379556298 -0.03956795006990433 0.21207406417023941 -0.4596923432350159 0.26241003950436909 -0.29186671042814849
leaf_count=955 34 23 34 27 101 49 21 55 27 32 20 61 25 30 20
internal_value=0 -2.04276 -1.13681 -0.0574522 1.04617 0.365376 0.20996 -1.97555 -6.75434 -0.237809 -2.59903 0.578996 -5.45941 0.356696 0.206188
internal_count=1514 219 196 162 135 1295 1246 180 48 132 77 1066 45 1005 975
shrinkage=0.05


Tree=30
num_leaves=16
num_cat=0
split_feature=77 84 68 96 108 51 44 52 53 1 23 60 96 23 53
split_gain=1005.27 1079.42 958.502 1094.84 1289.85 2054.42 1579.62 1226.24 911.779 845.712 886.03 787.424 1151.76 705.647 657.492
threshold=390.00000000000006 52.500000000000007 105.00000000000001 95.000000000000014 260.00000000000006 27.500000000000004 77.500000000000014 42.500000000000007 92.500000000000014 325.00000000000006 72.500000000000014 52.500000000000007 145.00000000000003 1.0000000180025095e-35 290.00000000000006
decision_type=2 2 2 2 2 2 2 2 2 2 2 2 2 2 2
left_child=1 2 3 4 9 -6 -7 -8 -3 10 13 -5 -13 14 -1
right_child=-2 8 -4 11 5 6 7 -9 -10 -11 -12 12 -14 -15 -16
leaf_value=0.00083506110740575205 -0.29468879368422285 -0.48557537943124773 -0.29174387621879577 0.16298690760433387 -0.54070206995193781 0.084575669429241093 -0.53157505989074705 -0.0083987741243271609 -0.02846549650033315 0.24027957142818546 -0.28889821680883565 0.23424899689853193 -0.25559689372777944 0.25735241231818995 0.18550262532982173
leaf_count=878 28 20 25 193 26 78 24 21 24 42 24 20 30 30 51
internal_value=0 0.154271 0.303148 0.411441 0.011534 -2.73765 -1.03045 -5.74852 -4.72485 0.411172 0.223415 2.3435 -1.19317 0.373606 0.219458
internal_count=1514 1486 1442 1417 1174 149 123 45 44 1025 983 243 50 959 929
shrinkage=0.05


Tree=31
num_leaves=16
num_cat=0
split_feature=77 167 84 96 108 1 62 27 9 9 46 148 18 81 51
split_gain=907.253 987.242 1225.41 902.167 1295.27 2096.72 1213.84 1589.41 988.583 851.989 776.399 731.044 1012.04 772.754 713.292
threshold=390.00000000000006 1.0000000180025095e-35 52.500000000000007 95.000000000000014 260.00000000000006 69.000000000000014 145.00000000000003 1.0000000180025095e-35 395.00000000000006 285.00000000000006 1.0000000180025095e-35 84.500000000000014 1.0000000180025095e-35 16.000000000000004 177.50000000000003
decision_type=2 2 2 2 2 2 2 2 2 2 2 2 2 2 2
left_child=1 2 3 4 10 6 7 9 -8 -6 11 13 -13 -1 -15
right_child=-2 -3 -4 -5 5 -7 8 -9 -10 -11 -12 12 -14 14 -16
leaf_value=0.021528163653443028 -0.27995436529495887 0.23039270828788483 -0.27298743888735771 0.094609215959331139 -0.60197079596312153 -0.61040495236714687 0.25707553525765742 0.12992839162999933 -0.13905311822891236 -0.17160463436790135 0.13781584297429841 -0.40718999356031421 0.043067488819360733 -0.020071199774742129 -0.31957393489552266
leaf_count=760 28 48 40 246 23 21 36 22 28 23 106 26 24 50 33
internal_value=0 0.146557 -0.00235951 0.153789 -0.217431 -2.92694 -1.45039 -4.3923 1.67538 -7.73575 0.197539 -0.106191 -3.82133 0.114161 -2.78301
internal_count=1514 1486 1438 1398 1152 153 132 68 64 46 999 893 50 843 83
shrinkage=0.05


Tree=32
num_leaves=16
num_cat=0
split_feature=157 28 77 84 53 6 89 81 51 1 1 96 18 42 60
split_gain=902.696 1000.04 951.731 887.458 815.742 747.522 746.36 776.189 1130.9 707.593 1015.4 725.821 840.915 1308.79 1047.09
threshold=1.0000000180025095e-35 12.500000000000002 390.00000000000006 52.500000000000007 92.500000000000014 767.50000000000011 110.00000000000001 122.50000000000001 112.50000000000001 325.00000000000006 265.00000000000006 1.0000000180025095e-35 175.00000000000003 385.00000000000006 82.500000000000014
decision_type=2 2 2 2 2 2 2 2 2 2 2 2 2 2 2
left_child=1 2 3 5 -5 6 7 9 -9 10 11 12 13 14 -1
right_child=-2 -3 -4 4 -6 -7 -8 8 -10 -11 -12 -13 -14 -15 -16
leaf_value=-0.0071746726061496209 0.29987217473983763 -0.30461417734622959 -0.2916216462850571 -0.44890568077564241 -0.016538978616396586 0.24315367817878722 0.26004717165668467 0.089044434130191807 -0.40701532801268281 0.20571494950188529 -0.34084446657271616 0.079152772699793192 0.058127201342682802 -0.35078086220856869 -0.2440392067984623
leaf_count=548 25 27 27 20 24 35 29 20 27 45 21 288 294 33 51
internal_value=0 -0.061771 0.0495996 0.160272 -4.26139 0.300138 0.182363 0.0726876 -3.91852 0.21924 0.0773145 0.196572 -0.234646 -0.884604 -0.546835
internal_count=1514 1489 1462 1435 44 1391 1356 1327 47 1280 1235 1214 926 632 599
shrinkage=0.05


Tree=33
num_leaves=16
num_cat=0
split_feature=83 77 68 167 84 39 96 1 76 66 54 42 45 113 5
split_gain=865.498 1067.37 1056.75 904.033 1091.88 894.092 936.297 744.834 1009.37 874.733 830.236 692.399 706.498 672.712 769.139
threshold=1.0000000180025095e-35 390.00000000000006 105.00000000000001 1.0000000180025095e-35 52.500000000000007 125.00000000000001 95.000000000000014 325.00000000000006 135.00000000000003 160.00000000000003 22.500000000000004 535.00000000000011 342.50000000000006 122.00000000000001 602.50000000000011
decision_type=2 2 2 2 2 2 2 2 2 2 2 2 2 2 2
left_child=1 2 3 4 5 6 7 8 9 10 11 12 13 14 -1
right_child=-2 -3 -4 -5 -6 -7 -8 -9 -10 -11 -12 -13 -14 -15 -16
leaf_value=-0.039464419378052035 0.18476634658873081 -0.32987454652786258 -0.33649296864219336 0.21843729223085881 -0.26308938081447897 -0.29702602177858356 0.10442635761070494 0.19547812053283981 0.33480655610561372 -0.29453145532772462 -0.30032408154010776 -0.23346829010230122 0.1655186560129126 0.13899417452733306 0.14131766077189242
leaf_count=729 62 25 23 48 39 24 222 43 20 29 25 33 60 68 64
internal_value=0 -0.119869 -0.00638533 0.103757 -0.047216 0.107202 0.219457 -0.16797 -0.338528 -0.478105 -0.317775 -0.168699 -0.00743775 -0.238644 -0.497484
internal_count=1514 1452 1427 1404 1356 1317 1293 1071 1028 1008 979 954 921 861 793
shrinkage=0.05


Tree=34
num_leaves=16
num_cat=0
split_feature=157 23 27 23 28 56 117 68 113 77 9 27 150 45 3
split_gain=804.453 915.43 968.373 823.405 1128.9 970.329 1029.38 1022.07 984.561 936.242 796.415 925.66 761.117 705.681 853.303
threshold=1.0000000180025095e-35 72.500000000000014 152.50000000000003 1.0000000180025095e-35 12.500000000000002 85.000000000000014 118.00000000000001 105.00000000000001 90.000000000000014 390.00000000000006 805.00000000000011 127.50000000000001 54.000000000000007 142.50000000000003 153.00000000000003
decision_type=2 2 2 2 2 2 2 2 2 2 2 2 2 2 2
left_child=1 2 3 4 5 7 -7 8 9 10 11 12 13 14 -1
right_child=-2 -3 -4 -5 -6 6 -8 -9 -10 -11 -12 -13 -14 -15 -16
leaf_value=0.022772051663666432 0.28300488591194156 -0.25568237262112753 0.19021247780006945 0.20219727132631388 -0.3681597702543844 -0.50230601742863656 -0.025177733600139619 -0.33671791174195032 0.15755507507547739 -0.34511539667844771 0.10188036727287419 -0.35389790713787078 -0.23247570161883899 0.077556708848215472 -0.089100084467435212
leaf_count=393 25 35 66 46 22 20 26 22 100 20 164 20 37 217 301
internal_value=0 -0.0599022 0.0617492 -0.116208 -0.258807 -0.1404 -4.6525 0.0225168 0.141248 -0.120024 -0.000195798 -0.345443 -0.203407 -0.0228299 -0.514977
internal_count=1514 1489 1454 1388 1342 1320 46 1274 1252 1152 1132 968 948 911 694
shrinkage=0.05


Tree=35
num_leaves=16
num_cat=0
split_feature=141 27 4 2 26 117 1 117 84 151 81 14 1 3 51
split_gain=930.801 1064.03 1034.27 994.304 941.855 795.522 1686.22 1278.61 808.238 940.128 1628.54 1228.13 882.989 811.789 795.473
threshold=77.500000000000014 152.50000000000003 9.0000000000000018 42.500000000000007 125.00000000000001 197.50000000000003 12.500000000000002 247.50000000000003 65.000000000000014 65.000000000000014 122.50000000000001 92.500000000000014 289.50000000000006 545.00000000000011 291.00000000000006
decision_type=2 2 2 2 2 2 2 2 2 2 2 2 2 2 2
left_child=1 2 5 -2 -5 8 -7 -8 9 10 12 -11 13 14 -1
right_child=3 -3 -4 4 -6 6 7 -9 -10 11 -12 -13 -14 -15 -16
leaf_value=-0.010124173802293072 0.22019823371002112 0.19526556010903984 -0.32986661548967716 -0.12588023563268885 0.25834120701659813 -0.031273650029580373 -0.6686566558622179 -0.11004939466714858 -0.31570568323135378 0.15043621933550905 -0.40216138550528779 -0.13046336642333442 0.20781996612695772 0.094904538009345063 -0.1390714935682438
leaf_count=457 93 58 27 58 22 139 21 20 20 189 27 49 45 127 162
internal_value=0 -0.284192 -0.473585 2.18045 -0.404387 -0.341944 -2.28776 -7.92331 -0.0164365 0.102838 -0.40611 1.85208 -0.145425 -0.404918 -0.877426
internal_count=1514 1341 1283 173 80 1256 180 41 1076 1056 818 238 791 746 619
shrinkage=0.05


Tree=36
num_leaves=16
num_cat=0
split_feature=123 5 10 74 186 82 3 51 96 53 68 10 44 51 117
split_gain=960.984 1258.92 1176.43 1100.97 775.912 1543.57 766.946 925.406 2679.82 983.815 1063.05 1131.1 1020.76 1424.84 1005.08
threshold=35.000000000000007 402.50000000000006 375.00000000000006 1.0000000180025095e-35 17.500000000000004 26.000000000000004 1255.0000000000002 291.00000000000006 122.50000000000001 12.500000000000002 17.500000000000004 1.0000000180025095e-35 52.500000000000007 35.000000000000007 131.50000000000003
decision_type=2 2 2 2 2 2 2 2 2 2 2 2 2 2 2
left_child=1 2 3 6 -2 -6 7 9 -9 10 11 12 13 -1 -11
right_child=4 -3 -4 -5 5 -7 -8 8 -10 14 -12 -13 -14 -15 -16
leaf_value=-0.4686712511766114 0.10130511844462764 0.12068739360763039 -0.36066667643086664 0.31225221753120425 -0.42364169901067561 0.03224635826063757 0.20246896813313167 -0.087681698068247549 -0.69709744751453406 0.11278001473360771 -0.41623980755155743 0.12634142174649596 -0.023488684066843173 -0.088372909831149246 -0.091706698588775781
leaf_count=38 329 127 29 22 22 119 30 184 20 185 22 67 161 70 89
internal_value=0 -0.536994 -0.945657 -0.74097 1.18496 -0.777702 -0.918443 -1.09671 -2.94857 -0.498965 -1.59049 -1.14955 -2.06523 -4.44363 0.927183
internal_count=1514 1044 917 888 470 141 866 836 204 632 358 336 269 108 274
shrinkage=0.05


Tree=37
num_leaves=16
num_cat=0
split_feature=123 5 10 147 117 19 1 82 53 48 27 141 38 82 151
split_gain=867.288 1136.17 1061.73 1139.57 1454.78 1004.65 750.09 1623.48 835.473 1158.2 1055.07 1024.1 1116.32 805.335 1199.02
threshold=35.000000000000007 402.50000000000006 375.00000000000006 1.0000000180025095e-35 118.00000000000001 1.0000000180025095e-35 232.50000000000003 87.500000000000014 12.500000000000002 22.500000000000004 22.000000000000004 165.00000000000003 77.500000000000014 47.500000000000007 155.00000000000003
decision_type=2 2 2 2 2 2 2 2 2 2 2 2 2 2 2
left_child=1 2 3 5 -5 6 8 -8 9 10 11 12 13 -1 -15
right_child=-2 -3 -4 4 -6 -7 7 -9 -10 -11 -12 -13 -14 14 -16
leaf_value=-0.010891673437737186 0.056285647003257534 0.11465302616592468 -0.34263335301958286 -0.0021442573517560961 -0.58395601113637285 0.2438503613585935 0.097087087338933578 -0.42451225604329795 0.042146613823752559 0.24627826043537687 0.098483996047423444 0.19367604255676271 -0.4114257735865457 -0.1109166538471786 -0.43352028679203347
leaf_count=116 470 127 29 22 21 34 26 35 315 28 65 24 35 130 37
internal_value=0 -0.510144 -0.898374 -0.703921 -5.7257 -0.448375 -0.671634 -4.04382 -0.397362 -1.29551 -1.72349 -2.42541 -2.9008 -2.2419 -3.64783
internal_count=1514 1044 917 888 43 845 811 61 750 435 407 342 318 283 167
shrinkage=0.05


Tree=38
num_leaves=16
num_cat=0
split_feature=141 27 4 2 18 123 5 53 79 3 63 186 62 151 51
split_gain=825.417 927.615 937.141 906.957 842.335 823.592 1032.75 1023.39 1446.21 1436.91 1580.15 1697.49 1361.71 1180.82 1130.88
threshold=77.500000000000014 152.50000000000003 9.0000000000000018 42.500000000000007 72.500000000000014 35.000000000000007 402.50000000000006 12.500000000000002 475.00000000000006 1135.0000000000002 197.50000000000003 10.500000000000002 385.00000000000006 275.00000000000006 262.50000000000006
decision_type=2 2 2 2 2 2 2 2 2 2 2 2 2 2 2
left_child=1 2 5 -2 -5 6 7 8 9 10 11 12 13 -1 -9
right_child=3 -3 -4 4 -6 -7 -8 14 -10 -11 -12 -13 -14 -15 -16
leaf_value=-0.207960720686242 0.2088566009075411 0.18221623171763174 -0.31366748456601745 -0.17125744265179302 0.15414619067230739 0.043174353933096529 0.099335188418626791 0.057556859362327184 0.25178147387504579 0.14748370211858017 -0.56401722257335984 0.096669090818613773 -0.55691158945361774 0.10219093927492698 -0.15112095204799364
leaf_count=208 93 58 27 43 37 401 110 240 25 39 24 60 24 36 89
internal_value=0 -0.267405 -0.444241 2.05353 -0.415165 -0.318934 -0.873496 -1.29581 -2.33811 -2.80958 -3.44768 -2.87455 -3.95096 -3.24401 0.0221205
internal_count=1514 1341 1283 173 80 1256 855 745 416 391 352 328 268 244 329
shrinkage=0.05


Tree=39
num_leaves=16
num_cat=0
split_feature=38 83 10 141 27 4 27 75 53 96 54 142 117 1 82
split_gain=790.672 767.359 817.39 755.746 823.039 1096.6 912.177 797.492 785.164 814.71 812.021 737.7 682.946 1379.51 965.818
threshold=272.50000000000006 1.0000000180025095e-35 375.00000000000006 77.500000000000014 152.50000000000003 9.0000000000000018 127.50000000000001 283.50000000000006 252.50000000000003 255.50000000000003 35.000000000000007 72.500000000000014 197.50000000000003 12.500000000000002 52.500000000000007
decision_type=2 2 2 2 2 2 2 2 2 2 2 2 2 2 2
left_child=1 2 3 4 5 6 7 8 9 10 12 -5 -1 14 -14
right_child=-2 -3 -4 11 -6 -7 -8 -9 -10 -11 -12 -13 13 -15 -16
leaf_value=0.013338235662905977 0.28459901419215988 0.1736024126153568 -0.24386432605820732 0.13632311667446836 0.17360403012607317 -0.35543045473098756 -0.35544576108455661 -0.27833654114178252 0.15776082819411116 -0.26720833410508932 -0.29829248357564214 -0.18118143606753578 -0.21879407528787853 -0.39404874155297875 0.087635369795478063
leaf_count=839 24 58 37 142 53 25 20 28 67 32 24 21 40 32 72
internal_value=0 -0.0938062 -0.238233 -0.11519 -0.382915 -0.55621 -0.414261 -0.296189 -0.162758 -0.376718 -0.218864 1.90835 -0.0785513 -2.0905 -0.436074
internal_count=1514 1490 1432 1395 1232 1179 1154 1134 1106 1039 1007 163 983 144 112
shrinkage=0.05


Tree=40
num_leaves=16
num_cat=0
split_feature=55 39 146 28 86 68 113 77 42 1 62 60 84 82 1
split_gain=843.902 878.683 1038.39 962.644 794.576 1087.61 1133.92 748.706 746.704 845.743 806.281 687.268 686.282 876.523 745.977
threshold=1.0000000180025095e-35 125.00000000000001 175.00000000000003 12.500000000000002 1.0000000180025095e-35 53.500000000000007 122.00000000000001 290.00000000000006 27.500000000000004 12.500000000000002 197.50000000000003 27.500000000000004 27.000000000000004 107.50000000000001 375.00000000000006
decision_type=2 2 2 2 2 2 2 2 2 2 2 2 2 2 2
left_child=1 2 3 4 5 6 7 12 9 -2 -10 -6 14 -14 -1
right_child=8 -3 -4 -5 11 -7 -8 -9 10 -11 -12 -13 13 -15 -16
leaf_value=-0.027527630337183237 0.25738662940461232 -0.31054872518777848 0.28455361890895614 -0.31339796759464122 0.021233327130732293 -0.311160189816446 0.17323739226435272 -0.32913043498992922 0.083312430049766573 -0.097800473230225712 -0.26740466757960946 0.22935643818761622 -0.4639056965336204 0.0042082653939723973 0.20481402332564663
leaf_count=856 83 25 29 27 136 33 71 21 57 21 23 56 20 20 36
internal_value=0 -0.338439 -0.225938 -0.360416 -0.232711 -0.572648 -0.39055 -0.677776 1.9465 3.71332 -0.350375 1.63872 -0.544727 -4.59697 -0.363012
internal_count=1514 1330 1305 1276 1249 1057 1024 953 184 104 80 192 932 40 892
shrinkage=0.05


Tree=41
num_leaves=16
num_cat=0
split_feature=83 39 86 28 146 77 68 150 150 25 51 186 6 26 2
split_gain=802.76 834.214 1136.26 900.695 1041.8 1163.98 945.148 1028.38 1728.52 883.536 1123.59 1516.49 1482.68 817.824 743.095
threshold=1.0000000180025095e-35 125.00000000000001 1.0000000180025095e-35 12.500000000000002 1.0000000180025095e-35 390.00000000000006 62.500000000000007 54.000000000000007 130.00000000000003 95.000000000000014 291.00000000000006 34.000000000000007 205.00000000000003 310.00000000000006 205.00000000000003
decision_type=2 2 2 2 2 2 2 2 2 2 2 2 2 2 2
left_child=1 2 3 4 5 6 7 9 -9 10 -1 12 14 -11 -12
right_child=-2 -3 -4 -5 -6 -7 -8 8 -10 13 11 -13 -14 -15 -16
leaf_value=0.008370951035902614 0.18118856419858181 -0.29642555564641954 0.095688636448138797 -0.32173982816934588 0.30086794853210452 -0.4035002112388611 -0.28233488240476812 -0.53558889143168931 0.077987916225736795 0.093101139042269576 -0.087772460919222806 0.16168086480449986 -0.55572295437256503 -0.20494690275192262 -0.41549256443977356
leaf_count=525 57 25 234 25 25 20 33 24 22 290 128 37 24 25 20
internal_value=0 -0.201733 -0.101754 -0.495438 -0.368853 -0.507926 -0.373846 -0.214938 -4.84278 -0.0120015 -0.613219 -2.57415 -3.8235 1.38893 -2.64118
internal_count=1514 1457 1432 1198 1173 1148 1128 1095 46 1049 734 209 172 315 148
shrinkage=0.05


Tree=42
num_leaves=16
num_cat=0
split_feature=55 43 3 120 83 39 146 70 85 96 108 3 44 3 113
split_gain=760.317 863.152 1031.18 1001.3 847.744 1047.5 928.221 848.306 759.713 664.105 1004.9 2049.13 1128.2 1036.04 912.457
threshold=1.0000000180025095e-35 155.00000000000003 572.50000000000011 72.500000000000014 1.0000000180025095e-35 125.00000000000001 175.00000000000003 260.00000000000006 47.500000000000007 62.500000000000007 244.00000000000003 153.00000000000003 77.500000000000014 35.000000000000007 122.00000000000001
decision_type=2 2 2 2 2 2 2 2 2 2 2 2 2 2 2
left_child=1 3 -3 4 5 6 7 8 9 10 14 12 -12 -14 -1
right_child=-2 2 -4 -5 -6 -7 -8 -9 -10 -11 11 -13 13 -15 -16
leaf_value=-0.04003273952133321 0.092521222648413282 -0.41235356104785004 0.054327609539031985 0.1879700170409295 0.20004515985330179 -0.3847483065724373 0.25952762951110969 -0.34177784953443779 0.15845180192845876 0.050174136150900911 0.088922388213021425 -0.50445979339735858 -0.027925522501269978 -0.51518928050994883 0.20874523696226951
leaf_count=671 184 29 20 62 43 20 29 21 56 205 56 35 24 20 39
internal_value=0 -0.318405 -4.43743 -0.160847 -0.360236 -0.5197 -0.39556 -0.539302 -0.419753 -0.611155 -1.00287 -3.50377 -1.19887 -4.98818 -0.527349
internal_count=1514 1330 49 1281 1219 1176 1156 1127 1106 1050 845 135 100 44 710
shrinkage=0.05


Tree=43
num_leaves=16
num_cat=0
split_feature=23 23 157 28 39 86 68 113 77 150 150 79 85 167 7
split_gain=719.355 892.537 781.998 1159.69 1021.64 949.268 826.416 1097.65 860.494 901.01 1877.15 760.378 810.063 698.304 674.187
threshold=72.500000000000014 1.0000000180025095e-35 1.0000000180025095e-35 12.500000000000002 125.00000000000001 1.0000000180025095e-35 53.500000000000007 122.00000000000001 305.00000000000006 54.000000000000007 130.00000000000003 435.00000000000006 35.000000000000007 450.00000000000006 1.0000000180025095e-35
decision_type=2 2 2 2 2 2 2 2 2 2 2 2 2 2 2
left_child=1 2 3 4 5 6 7 8 9 11 -11 12 13 14 -1
right_child=-2 -3 -4 -5 -6 -7 -8 -9 -10 10 -12 -13 -14 -15 -16
leaf_value=-0.047938157303963246 -0.22035898477644533 0.20632003156038434 0.25705426633358003 -0.36996652158823884 -0.3344944472546163 0.097121168972087016 -0.25958730162066573 0.17275413472036072 -0.34774665474891664 -0.56435111869465227 0.088813778758049022 0.15478496135157699 0.19839859037864499 0.22598270017367145 0.15322584089907734
leaf_count=780 37 52 28 22 23 218 34 77 20 22 22 68 41 26 44
internal_value=0 0.0570173 -0.0914795 -0.196355 -0.0811079 0.0313196 -0.336071 -0.185986 -0.460045 -0.330536 -4.75537 -0.127519 -0.373511 -0.582924 -0.743928
internal_count=1514 1477 1425 1397 1375 1352 1134 1100 1023 1003 44 959 891 850 824
shrinkage=0.05


Tree=44
num_leaves=16
num_cat=0
split_feature=164 89 55 43 9 120 62 2 77 45 26 3 27 27 150
split_gain=694.936 693.255 765.705 853.099 2255.36 971.84 711.085 1187.16 1093.03 1791.22 1146.14 1245.68 1041.08 900.756 869.661
threshold=1.0000000180025095e-35 110.00000000000001 1.0000000180025095e-35 155.00000000000003 285.00000000000006 72.500000000000014 202.00000000000003 162.50000000000003 195.00000000000003 137.50000000000003 1.0000000180025095e-35 115.00000000000001 42.500000000000007 6.5000000000000009 54.000000000000007
decision_type=2 2 2 2 2 2 2 2 2 2 2 2 2 2 2
left_child=1 2 3 5 -5 6 8 -8 10 -10 14 13 -13 -12 -1
right_child=-2 -3 -4 4 -6 -7 7 -9 9 -11 11 12 -14 -15 -16
leaf_value=0.0081743493979765901 0.29030509948730471 0.24466491612019362 0.084970652860599571 -0.54497712094050188 0.15169768652745658 0.17626601313391041 0.12658102486843933 -0.20147339171346498 -0.059400000585162122 -0.60794020891189582 -0.11338495893137797 -0.16978273907996189 -0.56528819955885412 0.2894152950981389 -0.28083633112686651
leaf_count=724 20 27 182 26 21 62 146 34 46 22 35 99 20 23 27
internal_value=0 -0.127865 -0.220279 -0.492173 -4.67394 -0.333415 -0.536852 1.2923 -0.867422 -4.73738 -0.583848 -2.87301 -4.72508 0.926924 -0.0443236
internal_count=1514 1494 1467 1285 47 1238 1176 180 996 68 928 177 119 58 751
shrinkage=0.05


Tree=45
num_leaves=16
num_cat=0
split_feature=125 89 124 147 3 3 6 2 44 82 51 82 42 25 3
split_gain=689.629 618.87 619.996 779.774 727.391 1371.34 1009.18 838.447 2235.66 1235.64 1232.66 960.966 1090.75 787.321 1375.07
threshold=1.0000000180025095e-35 110.00000000000001 125.00000000000001 55.000000000000007 572.50000000000011 89.000000000000014 240.00000000000003 132.50000000000003 455.00000000000006 97.500000000000014 11.000000000000002 107.50000000000001 195.00000000000003 77.500000000000014 323.50000000000006
decision_type=2 2 2 2 2 2 2 2 2 2 2 2 2 2 2
left_child=1 2 3 4 5 -1 7 8 9 -7 -11 12 -9 14 -12
right_child=-2 -3 -4 -5 -6 6 -8 11 -10 10 13 -13 -14 -15 -16
leaf_value=0.019422122009862694 0.24050085978316413 0.22287409669453548 0.080438958719227613 -0.24584937279040997 0.066615447781693482 0.026267236680723727 -0.43395954625947142 -0.21340771742738213 -0.59226472700635602 -0.4073782700029287 0.12194210222825921 0.14324318687121074 0.13955710033575694 -0.29826339317219602 -0.30472457706928258
leaf_count=546 28 28 154 39 208 128 21 65 24 44 58 75 33 35 28
internal_value=0 -0.199344 -0.288775 -0.512873 -0.377094 -0.713476 -1.89087 -1.59994 -2.56629 -1.80623 -3.61497 0.170766 -1.89104 -1.96675 -0.339453
internal_count=1514 1486 1458 1304 1265 1057 511 490 317 293 165 173 98 121 86
shrinkage=0.05


Tree=46
num_leaves=16
num_cat=0
split_feature=141 60 39 68 151 84 1 5 3 82 51 82 6 51 3
split_gain=626.482 703.309 907.164 831.614 949.759 815.706 821.102 801.836 824.565 1040.89 951.493 1375.33 940.86 1520.31 1003.38
threshold=77.500000000000014 180.50000000000003 37.500000000000007 77.500000000000014 252.50000000000003 52.500000000000007 375.00000000000006 910.00000000000011 660.00000000000011 152.50000000000003 405.00000000000006 147.50000000000003 240.00000000000003 95.000000000000014 291.50000000000006
decision_type=2 2 2 2 2 2 2 2 2 2 2 2 2 2 2
left_child=1 2 3 4 5 6 7 8 9 10 11 12 14 -14 -1
right_child=-2 -3 -4 -5 -6 -7 -8 -9 -10 -11 -12 -13 13 -15 -16
leaf_value=-0.018652751915398919 0.087528393691851322 -0.23122726743285724 0.16764948812916 -0.29970309848968801 0.12482922860820378 -0.29940979922259298 0.21030084976070637 0.19015457168221475 0.089751367510429447 0.011021865837624907 0.110955434186118 -0.40899814351118713 -0.02797294116538504 -0.6093619780106978 -0.1917409184194791
leaf_count=277 163 37 68 26 112 27 37 40 112 363 49 38 23 22 120
internal_value=0 -0.324804 -0.20373 -0.397837 -0.278573 -0.559095 -0.423493 -0.587565 -0.762492 -1.08362 -1.97846 -2.40696 -1.91064 -6.24415 -1.41943
internal_count=1514 1351 1314 1246 1220 1108 1081 1044 1004 892 529 480 442 45 397
shrinkage=0.05


Tree=47
num_leaves=16
num_cat=0
split_feature=23 9 141 117 9 9 45 117 4 51 1 2 82 53 82
split_gain=904.656 718.167 788.414 959.349 1642.38 1825.94 1560.06 2187.19 1206.43 800.358 762.297 619.672 1651.22 645.75 581.61
threshold=72.500000000000014 655.00000000000011 77.500000000000014 96.500000000000014 222.50000000000003 277.50000000000006 127.50000000000001 146.50000000000003 9.0000000000000018 202.50000000000003 55.000000000000007 105.00000000000001 71.500000000000014 77.500000000000014 127.50000000000001
decision_type=2 2 2 2 2 2 2 2 2 2 2 2 2 2 2
left_child=1 2 3 8 6 -6 11 -8 -1 10 -7 13 -13 14 -5
right_child=-2 -3 -4 4 5 9 7 -9 -10 -11 -12 12 -14 -15 -16
leaf_value=0.024727183442556366 -0.25606068479163308 0.073388999313329706 0.092382907545244378 0.12950328821937243 -0.66543252184987078 0.060338290035724641 -0.54363494475682583 -0.011165098514821795 -0.34454312272693799 -0.2933279168971798 -0.29076513702219187 -0.36773379367909265 0.11014897490248961 0.26687340267161103 -0.13721329122781753
leaf_count=577 35 279 148 60 20 52 30 54 23 57 22 28 51 47 31
internal_value=0 0.0226157 -0.313385 -0.61741 -1.71765 -4.40895 -0.367527 -4.02666 0.211436 -3.05022 -0.880876 1.04891 -1.18454 2.32748 0.772876
internal_count=1514 1479 1200 1052 452 151 301 84 600 131 74 217 79 138 91
shrinkage=0.05


Tree=48
num_leaves=16
num_cat=0
split_feature=23 9 68 96 141 14 7 5 45 25 60 120 39 117 108
split_gain=816.452 648.146 1020.03 835.11 948.71 941.461 914.7 897.526 957.425 1297.9 1379.18 1155.36 877.33 1048.42 1240.81
threshold=72.500000000000014 655.00000000000011 105.00000000000001 1.0000000180025095e-35 40.000000000000007 265.00000000000006 255.00000000000003 910.00000000000011 127.50000000000001 102.50000000000001 1.0000000180025095e-35 22.500000000000004 1.0000000180025095e-35 197.50000000000003 488.00000000000006
decision_type=2 2 2 2 2 2 2 2 2 2 2 2 2 2 2
left_child=1 2 3 4 5 6 7 8 12 10 11 -10 13 14 -1
right_child=-2 -3 -4 -5 -6 -7 -8 -9 9 -11 -12 -13 -14 -15 -16
leaf_value=-0.018991689768401869 -0.24325765924794332 0.069719549972150061 -0.35220956748182125 0.066983551545382408 0.10770355606469038 0.18239373757344923 0.21167809929827164 0.18001412094542477 0.037238074151369246 -0.45071442441360371 -0.43107428827456068 -0.38247651278972628 0.15349913467752174 -0.28948240891657767 -0.31190953001379973
leaf_count=376 35 279 22 279 107 41 29 33 91 37 28 20 47 50 40
internal_value=0 0.021485 -0.297716 -0.17172 -0.640773 -1.01836 -1.27311 -1.49429 -1.7383 -3.75084 -2.34978 -0.767724 -1.04783 -1.46315 -0.943137
internal_count=1514 1479 1200 1178 899 792 751 722 689 176 139 111 513 466 416
shrinkage=0.05


Tree=49
num_leaves=16
num_cat=0
split_feature=23 9 68 96 81 77 18 141 149 151 45 81 6 117 3
split_gain=736.848 584.952 920.576 753.687 944.056 817.296 918.288 739.16 927.44 719.364 789.755 1196.85 1550.05 1040.32 991.804
threshold=72.500000000000014 655.00000000000011 105.00000000000001 1.0000000180025095e-35 155.00000000000003 105.00000000000001 192.50000000000003 40.000000000000007 222.50000000000003 275.00000000000006 110.50000000000001 1.0000000180025095e-35 155.00000000000003 197.50000000000003 135.00000000000003
decision_type=2 2 2 2 2 2 2 2 2 2 2 2 2 2 2
left_child=1 2 3 4 7 6 -5 8 9 10 13 12 -12 -1 -15
right_child=-2 -3 -4 5 -6 -7 -8 -9 -10 -11 11 -13 -14 14 -16
leaf_value=0.011709213579116867 -0.23109477747763907 0.066233571929236262 -0.33459909016435802 0.061005791311509142 -0.37011555820703507 0.26981793394902859 -0.26515770563855767 0.10110940529771571 -0.36742158106395179 0.10925207670505455 -0.020387014053869165 -0.49012313882509873 -0.42226243389063872 0.047382447347044943 -0.40423641570152774
leaf_count=430 35 279 22 214 20 41 24 106 21 82 139 21 29 20 31
internal_value=0 0.0204107 -0.28283 -0.163134 -0.608734 1.27269 0.562307 -0.454159 -0.793736 -0.610693 -0.952857 -2.68487 -1.79517 -0.272296 -4.54262
internal_count=1514 1479 1200 1178 899 279 238 879 773 752 670 189 168 481 51
shrinkage=0.05


Tree=50
num_leaves=16
num_cat=0
split_feature=1 1 45 30 85 86 86 170 43 9 148 82 66 149 9
split_gain=767.964 878.751 597.235 693.813 682.601 601.264 708.671 597.013 693.351 858.857 623.716 544.639 542.946 582.698 990.77
threshold=303.00000000000006 232.50000000000003 342.50000000000006 12.500000000000002 87.500000000000014 1.0000000180025095e-35 135.00000000000003 112.50000000000001 155.00000000000003 112.50000000000001 155.00000000000003 87.500000000000014 182.50000000000003 65.000000000000014 72.500000000000014
decision_type=2 2 2 2 2 2 2 2 2 2 2 2 2 2 2
left_child=1 2 3 4 5 7 -7 8 10 -10 12 -4 13 -1 -15
right_child=-2 -3 11 -5 -6 6 -8 -9 9 -11 -12 -13 -14 14 -16
leaf_value=-0.037377254765958844 0.18522631056737482 -0.2424135721213109 -0.016982048953121359 -0.26056424803458728 0.20363381892442703 0.12565845794691022 -0.072852105174272777 0.16467794262599655 -0.4549260871750968 -0.0027207496620359878 0.1829113586081399 0.21227349057084038 -0.26912868385729583 -0.17975350570678714 0.18494833945615652
leaf_count=787 57 37 44 26 40 157 63 41 21 21 36 63 23 25 73
internal_value=0 -0.0371496 0.0882106 -0.0969241 0.00639628 -0.124038 1.37625 -0.445423 -0.600897 -4.57647 -0.424018 2.36 -0.585869 -0.461209 1.83824
internal_count=1514 1457 1420 1313 1287 1247 220 1027 986 42 944 107 908 885 98
shrinkage=0.05


Tree=51
num_leaves=16
num_cat=0
split_feature=46 142 142 82 55 9 96 25 81 74 117 170 52 14 5
split_gain=622.78 694.033 1345.6 1231.04 729.631 717.349 648.423 715.578 643.587 692.777 654.033 1245.56 941.659 985.076 2134.2
threshold=45.000000000000007 1.0000000180025095e-35 110.00000000000001 107.50000000000001 205.00000000000003 805.00000000000011 255.50000000000003 445.00000000000006 155.00000000000003 1.0000000180025095e-35 197.50000000000003 1.0000000180025095e-35 77.500000000000014 77.500000000000014 49.000000000000007
decision_type=2 2 2 2 2 2 2 2 2 2 2 2 2 2 2
left_child=1 4 3 -3 5 6 7 8 9 10 -1 12 13 14 -12
right_child=-2 2 -4 -5 -6 -7 -8 -9 -10 -11 11 -13 -14 -15 -16
leaf_value=0.00088972204361080888 0.11276804647840016 -0.56533484589308503 0.11217255380845839 -0.068744055124429562 0.29652277628580731 0.090242320964092848 -0.2276763477921486 0.28001881898159076 -0.27633248360260676 0.26866046027703722 -0.64462478793028632 0.22615753737362951 0.065756606523479741 0.037235006541013714 -0.066875312116838267
leaf_count=868 123 24 31 26 21 186 35 21 23 22 33 22 28 20 31
internal_value=0 -0.0921855 -2.93285 -6.14215 0.0834585 -0.011799 -0.318142 -0.179342 -0.295267 -0.177765 -0.299643 -2.35588 -3.70712 -5.3812 -7.29555
internal_count=1514 1391 81 50 1310 1289 1103 1068 1047 1024 1002 134 112 84 64
shrinkage=0.05


Tree=52
num_leaves=16
num_cat=0
split_feature=1 1 146 30 123 53 186 51 148 145 143 81 26 170 124
split_gain=683.165 756.188 550.94 602.557 469.258 1068.42 917.81 800.621 742.964 725.056 840.008 728.427 872.458 635.994 667.718
threshold=303.00000000000006 232.50000000000003 175.00000000000003 12.500000000000002 35.000000000000007 222.50000000000003 94.500000000000014 272.50000000000006 102.50000000000001 55.000000000000007 72.500000000000014 37.500000000000007 55.000000000000007 112.50000000000001 105.00000000000001
decision_type=2 2 2 2 2 2 2 2 2 2 2 2 2 2 2
left_child=1 2 3 4 8 6 -6 -7 9 10 11 13 -13 14 -1
right_child=-2 -3 -4 -5 5 7 -8 -9 -10 -11 -12 12 -14 -15 -16
leaf_value=-0.057834134313690305 0.1744899260370355 -0.22511362111246266 0.20576221175266035 -0.2442004165649414 0.098370246014370444 0.016690744053233755 -0.18161817963700744 -0.42041019797325135 0.15132708824690311 -0.31117382835258139 -0.30607848525047304 0.21894416525515159 -0.089070150064570572 0.19611597592011096 0.086637677511443273
leaf_count=612 57 37 33 25 343 22 32 20 62 22 25 67 35 30 92
internal_value=0 -0.0392574 0.0770324 -0.0190462 0.0702519 0.953871 1.48956 -3.82905 -0.319662 -0.554617 -0.409768 -0.23896 2.26506 -0.58693 -0.779086
internal_count=1514 1457 1420 1387 1362 417 375 42 945 883 861 836 102 734 704
shrinkage=0.05


Tree=53
num_leaves=16
num_cat=0
split_feature=1 1 2 108 25 62 60 82 6 62 55 43 167 2 82
split_gain=616.556 709.326 1050.7 963.524 749.919 1000.13 737.757 583.386 2052.76 715.394 907.979 756.701 688.208 754.365 887.836
threshold=303.00000000000006 83.500000000000014 195.00000000000003 285.00000000000006 102.50000000000001 72.500000000000014 209.00000000000003 22.000000000000004 205.00000000000003 225.00000000000003 75.000000000000014 155.00000000000003 210.00000000000003 105.00000000000001 412.50000000000006
decision_type=2 2 2 2 2 2 2 2 2 2 2 2 2 2 2
left_child=1 6 3 4 5 -3 7 8 -1 10 11 12 13 14 -9
right_child=-2 2 -4 -5 -6 -7 -8 9 -10 -11 -12 -13 -14 -15 -16
leaf_value=-0.017889637805673542 0.16576543034487323 -0.025813546971905799 -0.38622771088893598 -0.35394503799351784 -0.20190534217017039 0.31050389314691229 0.31318707263097167 -0.032549960087025424 -0.53298487095605762 0.12503367365886833 0.17249340134362379 -0.26039840754699606 0.24775755408530437 0.058999197246272152 -0.35169303708750271
leaf_count=245 57 84 26 22 35 30 20 415 21 151 75 29 27 254 23
internal_value=0 -0.0372946 -1.80189 -0.901368 0.0107506 1.25382 0.238599 0.141419 -1.1711 0.499869 0.132771 -0.199826 0.00217182 -0.19108 -0.986172
internal_count=1514 1457 197 171 149 114 1260 1240 266 974 823 748 719 692 438
shrinkage=0.05


Tree=54
num_leaves=16
num_cat=0
split_feature=123 39 186 53 186 62 149 148 3 3 96 117 117 52 45
split_gain=586.879 848.624 656.099 840.418 1372.97 649.36 700.489 680.547 936.93 1286.86 938.775 1034.83 1561.92 1137.85 1084.4
threshold=35.000000000000007 125.00000000000001 105.00000000000001 222.50000000000003 1.0000000180025095e-35 235.00000000000003 145.00000000000003 1.0000000180025095e-35 371.00000000000006 323.50000000000006 15.000000000000002 96.500000000000014 118.00000000000001 1.0000000180025095e-35 27.500000000000004
decision_type=2 2 2 2 2 2 2 2 2 2 2 2 2 2 2
left_child=1 5 3 -2 -5 7 -7 8 9 10 11 -1 -13 -14 -15
right_child=2 -3 -4 4 -6 6 -8 -9 -10 -11 -12 12 13 14 -16
leaf_value=-0.028098825341490309 0.090077475816322694 -0.33872894704341894 -0.22105554058438256 0.089954543935841527 -0.44854499101638795 0.12436075138477543 -0.1735299571700718 0.11511424460581371 0.036210449419467522 -0.47209143698215483 0.058529092316046243 -0.55699294817447664 -0.040889111836001558 -0.61539128988981251 -0.12143843570351601
leaf_count=219 383 20 21 29 20 139 23 77 266 20 121 25 106 20 25
internal_value=0 -0.32234 1.03732 1.30266 -2.59682 -0.198378 1.64135 -0.537441 -0.810083 -1.5715 -1.26645 -2.01299 -3.81851 -2.60636 -6.81946
internal_count=1514 1061 453 432 49 1041 162 879 802 536 516 395 176 151 45
shrinkage=0.05


Tree=55
num_leaves=16
num_cat=0
split_feature=19 170 82 56 60 3 53 43 128 96 2 9 149 43 62
split_gain=1116.72 655.041 648.914 1015.85 1007.12 802.263 803.676 1272.13 1359.53 789.492 895.207 1016.31 875.927 940.585 776.478
threshold=165.00000000000003 112.50000000000001 162.50000000000003 85.000000000000014 122.50000000000001 1135.0000000000002 215.00000000000003 155.00000000000003 1.0000000180025095e-35 1.0000000180025095e-35 42.500000000000007 690.00000000000011 145.00000000000003 45.000000000000007 225.00000000000003
decision_type=2 2 2 2 2 2 2 2 2 2 2 2 2 2 2
left_child=1 2 5 4 14 6 7 8 9 12 11 -11 13 -1 -4
right_child=-2 -3 3 -5 -6 -7 -8 -9 -10 10 -12 -13 -14 -15 -16
leaf_value=-0.053931362258211414 -0.36765402123332025 0.18456248821435023 0.052440051992352188 -0.29392087885311674 -0.1937326430446572 0.19318463831413082 0.15020564306926515 -0.40422514925400421 -0.41362998569789139 0.073051289162815433 0.21813104624931628 -0.29632061529159548 -0.30422102129086853 0.18404683298534819 0.22811030642191571
leaf_count=537 20 51 390 21 36 41 56 24 23 73 65 25 32 45 75
internal_value=0 0.169106 0.0446225 0.935371 1.22098 -0.460232 -0.661687 -0.910819 -0.695609 -0.471322 1.48506 -0.423525 -0.990688 -0.71062 1.61548
internal_count=1514 1494 1443 522 501 921 880 824 800 777 163 98 614 582 465
shrinkage=0.05


Tree=56
num_leaves=16
num_cat=0
split_feature=19 186 186 127 123 62 6 3 38 26 151 51 60 49 117
split_gain=1007.84 610.364 941.792 641.184 686.015 729.076 770.974 778.655 1038.48 875.266 1171.84 713.14 628.168 614.974 672.562
threshold=165.00000000000003 220.00000000000003 146.50000000000003 122.50000000000001 35.000000000000007 235.00000000000003 292.00000000000006 645.00000000000011 85.000000000000014 310.00000000000006 90.000000000000014 112.50000000000001 21.000000000000004 22.500000000000004 96.500000000000014
decision_type=2 2 2 2 2 2 2 2 2 2 2 2 2 2 2
left_child=1 2 3 4 5 6 7 8 9 12 -11 -10 13 14 -1
right_child=-2 -3 -4 -5 -6 -7 -8 -9 11 10 -12 -13 -14 -15 -16
leaf_value=-0.0238272390336738 -0.34927132785320286 0.2694483417001638 -0.26854915129801921 0.17141145609192932 0.057910405951557858 0.08310161200510402 0.17933170214677469 0.066136398038268082 -0.49582475237548351 -0.47935305269291767 0.029722496867179871 -0.14756859515494267 0.074703696123989569 0.098411861319433566 -0.15781581197623853
leaf_count=222 20 22 31 59 404 147 39 125 21 26 20 49 112 55 162
internal_value=0 0.16065 0.0825099 0.19983 0.062004 -0.390825 -0.753965 -0.967707 -1.39695 -0.969684 -5.16032 -5.04091 -0.619831 -1.15914 -1.60707
internal_count=1514 1494 1472 1441 1382 978 831 792 667 597 46 70 551 439 384
shrinkage=0.05


Tree=57
num_leaves=16
num_cat=0
split_feature=19 170 89 6 6 62 5 5 123 5 26 9 38 51 38
split_gain=909.572 590.627 569.119 595.501 968.003 814.792 768.205 1641.78 751.763 1172.8 813.646 1507.14 700.661 1029.16 798.949
threshold=165.00000000000003 112.50000000000001 110.00000000000001 292.00000000000006 147.50000000000003 235.00000000000003 92.500000000000014 387.50000000000006 35.000000000000007 27.500000000000004 310.00000000000006 465.00000000000006 77.500000000000014 142.50000000000003 42.500000000000007
decision_type=2 2 2 2 2 2 2 2 2 2 2 2 2 2 2
left_child=1 2 3 4 5 8 -7 -8 10 -10 12 -12 14 -14 -1
right_child=-2 -3 -4 -5 -6 6 7 -9 9 -11 11 -13 13 -15 -16
leaf_value=-0.028752776622338203 -0.3318077528476715 0.17485520009901012 0.224942920796041 0.10015661709476263 -0.29852726089543313 0.15037301541815928 -0.38310818633307586 0.22105996933850378 0.11430654948670418 -0.094714504428724255 -0.0052242983004142504 -0.55403342165730218 -0.41896277549011374 -0.045418936869612452 0.2652809920410315
leaf_count=618 20 51 28 128 29 137 23 22 200 101 29 22 28 54 24
internal_value=0 0.152618 0.0344137 -0.0539287 -0.258516 -0.12684 1.82999 -1.75474 -0.457828 0.883398 -0.978743 -4.83931 -0.706797 -3.45941 -0.355217
internal_count=1514 1494 1443 1415 1287 1258 182 45 1076 301 775 51 724 82 642
shrinkage=0.05


Tree=58
num_leaves=16
num_cat=0
split_feature=19 146 170 186 186 123 5 2 82 5 44 45 53 10 39
split_gain=820.889 586.369 569.504 571.969 763.357 646.99 813.763 802.297 1055.15 712.209 898.723 1747.02 923.088 1496.36 1020.05
threshold=165.00000000000003 105.00000000000001 112.50000000000001 220.00000000000003 146.50000000000003 35.000000000000007 27.500000000000004 65.000000000000014 47.500000000000007 402.50000000000006 552.50000000000011 142.50000000000003 12.500000000000002 72.500000000000014 1.0000000180025095e-35
decision_type=2 2 2 2 2 2 2 2 2 2 2 2 2 2 2
left_child=1 2 3 4 5 9 7 8 -7 10 12 -12 13 14 -1
right_child=-2 -3 -4 -5 -6 6 -8 -9 -10 -11 11 -13 -14 -15 -16
leaf_value=-0.14403541174989481 -0.31521737292408947 0.19372452039544175 0.16611244064920092 0.25499912053346635 -0.25323542332456961 -0.23591256458913126 -0.069121686786970254 0.20233564427438774 0.081133957913047394 0.090037198033597735 0.081270727650685756 -0.51896836172651362 0.031315079606005124 0.1287438439205289 0.20776116577061743
leaf_count=325 20 41 51 21 31 31 107 106 171 117 22 27 350 72 22
internal_value=0 0.144987 0.0397499 -0.0796563 -0.15842 -0.0457569 0.993358 1.81871 0.649566 -0.506968 -0.837044 -4.98947 -0.572456 -1.5738 -2.43463
internal_count=1514 1494 1453 1402 1381 1350 415 308 202 935 818 49 769 419 347
shrinkage=0.05


Tree=59
num_leaves=16
num_cat=0
split_feature=19 146 3 43 9 108 81 60 53 1 60 46 108 9 14
split_gain=740.852 529.198 554.576 645.996 1900.33 652.275 629.003 611.925 1478.31 1402.8 797.707 673.548 752.268 1721.62 674.152
threshold=165.00000000000003 105.00000000000001 660.00000000000011 155.00000000000003 335.00000000000006 666.00000000000011 192.50000000000003 77.500000000000014 192.50000000000003 42.500000000000007 135.00000000000003 7.0000000000000009 442.50000000000006 285.00000000000006 65.000000000000014
decision_type=2 2 2 2 2 2 2 2 2 2 2 2 2 2 2
left_child=1 2 3 5 -5 6 7 11 9 10 -9 12 14 -14 -1
right_child=-2 -3 -4 4 -6 -7 -8 8 -10 -11 -12 -13 13 -15 -16
leaf_value=-0.020300659168275791 -0.29945649288594728 0.18403829343435241 0.088488974463103762 -0.55322632223367696 0.12778154895419166 0.1610190528220144 0.24824240000351616 -0.058461033672626533 -0.51381401818245653 -0.38295329194515948 0.26839637218841483 0.1189259279628887 -0.47501376739570073 0.05442478376276353 0.11704717183504071
leaf_count=774 20 41 164 20 21 58 23 56 20 24 28 102 28 34 101
internal_value=0 0.137738 0.0377624 -0.182603 -4.08835 -0.0542891 -0.213895 -0.315961 -2.37904 -0.916592 1.00983 -0.0617987 -0.327447 -3.69353 -0.0889359
internal_count=1514 1494 1453 1289 41 1248 1190 1167 128 108 84 1039 937 62 875
shrinkage=0.05


Tree=60
num_leaves=16
num_cat=0
split_feature=53 7 39 86 147 70 18 3 10 3 60 123 82 45 3
split_gain=957.571 816.968 847.598 920.411 887.62 695.312 678.839 973.089 1018.42 868.384 1328 897.763 1276.58 875.095 796.971
threshold=252.50000000000003 1.0000000180025095e-35 125.00000000000001 1.0000000180025095e-35 1.0000000180025095e-35 260.00000000000006 77.500000000000014 592.50000000000011 222.50000000000003 77.500000000000014 70.500000000000014 198.00000000000003 97.500000000000014 27.500000000000004 192.50000000000003
decision_type=2 2 2 2 2 2 2 2 2 2 2 2 2 2 2
left_child=1 2 3 4 5 6 7 8 9 11 13 -1 -13 -11 -8
right_child=-2 -3 -4 -5 -6 -7 14 -9 -10 10 -12 12 -14 -15 -16
leaf_value=0.04216222198814288 0.15043794567137958 0.16209660371144613 -0.32588094655763022 0.080436182600784722 -0.25699556469917301 -0.28321678495407104 0.10422890202808879 0.13566947941978774 -0.35502766894717375 0.02668193578720093 -0.46220889030290507 -0.4899982213973999 -0.012545356101223402 -0.21799237561576509 -0.026004224113441516
leaf_count=222 100 66 22 220 42 25 197 60 31 79 28 21 42 68 291
internal_value=0 -0.193259 -0.361451 -0.259312 -0.630893 -0.452905 -0.32751 -1.0882 -1.55276 -1.17888 -2.93228 -0.102235 -3.43393 -1.73001 0.531388
internal_count=1514 1414 1348 1326 1106 1064 1039 551 491 460 175 285 63 147 488
shrinkage=0.05


Tree=61
num_leaves=16
num_cat=0
split_feature=53 53 7 6 6 14 9 82 51 108 151 60 96 2 149
split_gain=864.208 806.585 694.645 717 1499.33 626.206 1022.34 937.646 1779.88 925.883 868.023 1009.93 854.784 895.283 1201.38
threshold=252.50000000000003 242.50000000000003 1.0000000180025095e-35 365.00000000000006 205.00000000000003 42.500000000000007 305.00000000000006 76.500000000000014 195.00000000000003 244.00000000000003 65.000000000000014 98.000000000000014 95.000000000000014 142.50000000000003 77.500000000000014
decision_type=2 2 2 2 2 2 2 2 2 2 2 2 2 2 2
left_child=1 2 3 4 5 10 7 9 -9 -7 12 -12 13 14 -1
right_child=-2 -3 -4 -5 -6 6 -8 8 -10 -11 11 -13 -14 -15 -16
leaf_value=-0.12704804924436605 0.142916049297899 -0.30285694495491361 0.15399177212155227 0.12739750615126172 -0.33539736262849862 0.042778934115245026 0.096457985922938486 -0.51637236832788114 -0.066184955362517103 -0.32299504727125172 0.12279526786350525 -0.21909695037951074 0.092806965552438475 0.043832415358705835 0.11769365021737957
leaf_count=334 100 23 66 86 37 81 61 38 52 22 216 24 133 182 59
internal_value=0 -0.183596 -0.0864778 -0.244196 -0.438001 -0.245 -1.63942 -2.76731 -5.12528 -0.706951 0.128611 1.77212 -0.428511 -0.956961 -1.80611
internal_count=1514 1414 1391 1325 1239 1202 254 193 90 103 948 240 708 575 393
shrinkage=0.05


Tree=62
num_leaves=16
num_cat=0
split_feature=53 53 7 6 6 9 60 14 151 51 44 9 3 117 124
split_gain=779.948 727.943 626.917 647.093 1353.14 603.847 753.599 866.977 904.586 975.231 1222.35 767.334 1280.89 935.287 929.59
threshold=252.50000000000003 242.50000000000003 1.0000000180025095e-35 365.00000000000006 205.00000000000003 655.00000000000011 180.50000000000003 42.500000000000007 155.00000000000003 55.000000000000007 245.00000000000003 495.00000000000006 362.50000000000006 15.000000000000002 45.000000000000007
decision_type=2 2 2 2 2 2 2 2 2 2 2 2 2 2 2
left_child=1 2 3 4 5 6 7 11 9 -9 -11 -1 13 -13 -15
right_child=-2 -3 -4 -5 -6 -7 -8 8 -10 10 -12 12 -14 14 -16
leaf_value=0.028160981503323426 0.13577024675533175 -0.28771409366441814 0.14629218525281459 0.12102763061086799 -0.31862748369977284 0.054680516037824901 -0.3197488118301739 0.10706505523373684 -0.30146035005648936 -0.043215327446951585 -0.40999562298097925 -0.40956788076595824 0.21412002824557327 -0.22573262735819208 0.18074538606134327
leaf_count=571 100 23 66 86 37 267 22 60 48 85 31 33 24 39 22
internal_value=0 -0.174416 -0.0821539 -0.231986 -0.416101 -0.23275 -0.611507 -0.472146 -2.18119 -1.13173 -2.82468 0.08348 -2.23797 -3.90275 -1.58268
internal_count=1514 1414 1391 1325 1239 1202 935 913 224 176 116 689 118 94 61
shrinkage=0.05


Tree=63
num_leaves=16
num_cat=0
split_feature=53 141 9 60 108 149 1 1 25 9 151 89 150 120 38
split_gain=703.903 687.462 763.083 980.275 784.428 1815.33 666.878 684.038 720.412 663.13 617.814 598.204 566.648 595.934 536.291
threshold=252.50000000000003 77.500000000000014 655.00000000000011 180.50000000000003 510.00000000000006 55.000000000000007 325.00000000000006 232.50000000000003 220.00000000000003 222.50000000000003 242.50000000000003 82.500000000000014 22.500000000000004 31.500000000000004 77.500000000000014
decision_type=2 2 2 2 2 2 2 2 2 2 2 2 2 2 2
left_child=1 2 3 4 6 9 7 8 11 -6 -3 12 13 14 -1
right_child=-2 10 -4 -5 5 -7 -8 -9 -10 -11 -12 -13 -14 -15 -16
leaf_value=-0.047595078967489594 0.12898173414915801 0.12356772558185561 0.055082036926796023 -0.34399016691515083 -0.21249790984121236 0.11781993465764183 0.16735501386639146 -0.26070530010807896 0.18284128788949514 -0.61030059769749645 -0.17287581518292428 0.23767940506339072 0.14622979045678408 0.10562267785793858 -0.19586894484784675
leaf_count=591 100 145 261 26 22 28 45 31 41 20 20 20 39 57 68
internal_value=0 -0.165695 -0.419127 -0.820868 -0.657113 -3.88057 -0.404151 -0.60345 -0.42829 -8.03856 1.7527 -0.644406 -0.787399 -0.989589 -1.2579
internal_count=1514 1414 1249 988 962 70 892 847 816 42 165 775 755 716 659
shrinkage=0.05


Tree=64
num_leaves=16
num_cat=0
split_feature=39 53 86 18 22 10 3 127 53 117 124 117 9 22 42
split_gain=655.273 640.505 784.434 728.547 700.358 847.35 1551.37 730.877 1138 822.398 826.523 719.369 706.186 670.812 726.644
threshold=125.00000000000001 252.50000000000003 1.0000000180025095e-35 77.500000000000014 37.500000000000007 210.00000000000003 245.00000000000003 4.5000000000000009 60.500000000000007 197.50000000000003 105.00000000000001 221.00000000000003 335.00000000000006 78.000000000000014 535.00000000000011
decision_type=2 2 2 2 2 2 2 2 2 2 2 2 2 2 2
left_child=1 2 3 4 5 7 -7 9 -9 10 -1 -11 -10 14 -5
right_child=-2 -3 -4 13 -6 6 -8 8 12 11 -12 -13 -14 -15 -16
leaf_value=-0.027392753980407709 -0.2531181377917528 0.1285525007135406 0.081325922706184939 0.05410456699207588 0.14092312410828614 -0.58981866899966484 0.025492844283580781 0.0037731576806459676 -0.56717150834473695 -0.43768171043623066 0.21464436352252961 -0.077816196040409374 -0.16180975011416845 -0.15121259436756374 -0.25377246037125589
leaf_count=369 25 98 227 459 42 21 20 39 22 21 39 41 21 50 20
internal_value=0 0.100098 -0.073988 -0.405616 -1.12771 -1.4072 -5.79333 -1.08142 -3.83625 -0.60079 -0.0851371 -3.99412 -7.38408 0.461169 0.824992
internal_count=1514 1489 1391 1164 635 593 41 552 82 470 408 62 43 529 479
shrinkage=0.05


Tree=65
num_leaves=16
num_cat=0
split_feature=6 6 3 83 167 60 60 22 9 117 3 9 9 2 82
split_gain=899.267 857.247 672.992 612.888 638.356 593.734 1697.62 735.263 727.474 643.622 901.427 1152.59 1853.55 1235.12 1010.82
threshold=377.50000000000006 205.00000000000003 35.000000000000007 1.0000000180025095e-35 525.00000000000011 175.00000000000003 209.00000000000003 31.500000000000004 995.00000000000011 96.500000000000014 425.00000000000006 305.00000000000006 222.50000000000003 72.500000000000014 120.50000000000001
decision_type=2 2 2 2 2 2 2 2 2 2 2 2 2 2 2
left_child=1 3 -3 4 5 7 -7 9 -9 -1 11 12 13 14 -11
right_child=-2 2 -4 -5 -6 6 -8 8 -10 10 -12 -13 -14 -15 -16
leaf_value=0.012456232349308817 0.14674841220845883 -0.37653825581073763 0.0032151551358401776 0.18025249307128519 0.21117586237378419 -0.50450900466266002 0.12398821889821972 0.15622382840417604 -0.17206553630530835 0.17682297028925109 0.048995404332193709 -0.012960185559673444 -0.51816622120993483 -0.24848361347870129 -0.20857265976912998
leaf_count=621 97 28 20 44 32 22 21 108 20 46 131 180 35 82 27
internal_value=0 -0.212319 -4.36615 -0.066677 -0.188606 -0.2978 -3.95137 -0.172117 2.09857 -0.431162 -1.27439 -2.07254 -3.79043 -2.30623 0.685588
internal_count=1514 1417 48 1369 1325 1293 43 1250 128 1122 501 370 190 155 73
shrinkage=0.05


Tree=66
num_leaves=16
num_cat=0
split_feature=6 6 53 61 60 167 52 68 84 46 117 82 51 150 10
split_gain=811.588 773.665 680.638 583.073 696.552 545.031 480.305 1393.79 642.221 596.344 592.197 859.761 679.778 534.131 519.645
threshold=377.50000000000006 205.00000000000003 92.500000000000014 1.0000000180025095e-35 175.00000000000003 525.00000000000011 22.500000000000004 1.0000000180025095e-35 34.000000000000007 67.500000000000014 197.50000000000003 57.500000000000007 162.50000000000003 17.500000000000004 405.00000000000006
decision_type=2 2 2 2 2 2 2 2 2 2 2 2 2 2 2
left_child=1 3 -3 4 5 6 7 9 13 10 14 -12 -13 -8 -1
right_child=-2 2 -4 -5 -6 -7 8 -9 -10 -11 11 12 -14 -15 -16
leaf_value=-0.0057239554805198212 0.13941099404059734 -0.38058602080608789 -0.0027087597684426743 0.10668499306146358 -0.22962589335317413 0.20050185039158791 0.033647651407861183 -0.37260722887927089 -0.23650073321536183 0.14743010044097901 -0.33931714561250481 -0.19994244679357068 0.1163705665831055 0.24605568593198601 -0.26449099943041804
leaf_count=648 97 26 22 111 36 31 287 29 20 50 36 33 35 33 20
internal_value=0 -0.201703 -4.14785 -0.0633431 -0.2572 -0.129482 -0.237227 -0.638627 0.767453 -0.398248 -0.615013 -2.83472 -0.742686 1.11104 -0.269429
internal_count=1514 1417 48 1369 1258 1222 1191 851 340 822 772 104 68 320 668
shrinkage=0.05


Tree=67
num_leaves=16
num_cat=0
split_feature=6 3 6 53 60 123 44 45 127 1 42 61 22 143 44
split_gain=732.458 734.739 1021.45 821.825 760.672 573.631 820.589 1272.27 762.312 852.291 879.174 723.213 753.864 795.629 775.199
threshold=377.50000000000006 527.50000000000011 205.00000000000003 92.500000000000014 175.00000000000003 25.000000000000004 455.00000000000006 52.500000000000007 105.00000000000001 1.0000000180025095e-35 27.500000000000004 17.500000000000004 22.500000000000004 72.500000000000014 62.500000000000007
decision_type=2 2 2 2 2 2 2 2 2 2 2 2 2 2 2
left_child=1 2 4 -4 5 6 11 -8 9 10 -7 12 13 14 -1
right_child=-2 -3 3 -5 -6 8 7 -9 -10 -11 -12 -13 -14 -15 -16
leaf_value=-0.1007737145257684 0.13244044269175875 0.070351969807654249 -0.46883639803399213 -0.03059335589408875 -0.23971853621706771 0.11125505414130468 0.10025704801082612 -0.38467959714563271 -0.24559613523029147 0.21502870584595693 -0.082005644795883986 0.20033909179684192 0.12946851344660981 -0.34966057964733671 0.015057636503703321
leaf_count=260 97 239 23 20 37 124 21 38 21 73 112 36 67 21 325
internal_value=0 -0.191618 -0.515964 -5.30005 -0.334716 -0.184437 -0.658233 -4.2415 0.918216 1.31444 0.390762 -0.360048 -0.593638 -0.945555 -0.728459
internal_count=1514 1417 1178 43 1135 1098 768 59 330 309 236 709 673 606 585
shrinkage=0.05


Tree=68
num_leaves=16
num_cat=0
split_feature=6 6 22 147 3 83 167 61 123 3 51 77 51 3 60
split_gain=663.053 772.814 554.452 613.253 1059.17 556.668 483.853 489.99 581.241 688.204 739.537 776.348 885.902 1361.15 801.02
threshold=365.00000000000006 205.00000000000003 152.50000000000003 55.000000000000007 55.000000000000007 1.0000000180025095e-35 450.00000000000006 1.0000000180025095e-35 25.000000000000004 527.50000000000011 291.00000000000006 76.500000000000014 412.50000000000006 245.00000000000003 11.000000000000002
decision_type=2 2 2 2 2 2 2 2 2 2 2 2 2 2 2
left_child=1 2 3 5 -5 6 7 8 9 10 -1 12 13 14 -12
right_child=-2 -3 -4 4 -6 -7 -8 -9 -10 -11 11 -13 -14 -15 -16
leaf_value=-0.036925915927379128 0.12201130076230152 -0.2206594686423029 0.25841488575562838 -0.4569323522597552 0.057647151947021483 0.17602403626538987 0.17377363001643165 0.0968854738066071 0.038777569977422356 0.044936573505401617 0.029860224457163562 -0.4526206523180008 0.033064139527933939 -0.58328747183084484 -0.36106973625719552
leaf_count=507 103 42 20 20 20 43 36 95 297 177 38 20 56 20 20
internal_value=0 -0.187953 -0.0583259 -0.135815 -3.99285 -0.0179526 -0.138136 -0.243901 -0.426502 -0.852528 -1.32147 -3.24069 -2.37326 -4.55191 -2.09886
internal_count=1514 1411 1369 1349 40 1309 1266 1230 1135 838 661 154 134 78 58
shrinkage=0.05


Tree=69
num_leaves=16
num_cat=0
split_feature=119 6 3 6 60 124 3 18 149 44 147 1 62 82 56
split_gain=646.277 730.948 683.583 803.871 693.39 571.377 623.723 831.95 754.678 650.239 648.538 651.635 762.265 707.585 591.56
threshold=32.500000000000007 377.50000000000006 527.50000000000011 205.00000000000003 175.00000000000003 145.00000000000003 101.00000000000001 55.000000000000007 1.0000000180025095e-35 177.50000000000003 19.000000000000004 95.000000000000014 55.000000000000007 177.50000000000003 1.0000000180025095e-35
decision_type=2 2 2 2 2 2 2 2 2 2 2 2 2 2 2
left_child=1 2 3 4 5 6 7 10 14 -10 11 12 -1 -13 -8
right_child=-2 -3 -4 -5 -6 -7 8 -9 9 -11 -12 13 -14 -15 -16
leaf_value=-0.036550238724289967 -0.24756815112554112 0.14039212616727403 0.072655867848228264 -0.23560638399351214 -0.22563532294856536 0.094120796957588571 -0.054467694759083668 0.098179829661879492 -0.090992634991804766 -0.44887155917557808 -0.28725565956986471 -0.31421392031691298 0.15039881083029738 0.057055785258611047 0.21873045506931488
leaf_count=176 26 92 235 42 37 127 351 199 30 22 23 33 79 21 21
internal_value=0 0.0776677 -0.102258 -0.417084 -0.255876 -0.11031 -0.375311 0.346843 -1.27971 -4.84806 -0.622235 -0.240921 0.427346 -3.39663 -0.780904
internal_count=1514 1488 1396 1161 1119 1082 955 531 424 52 332 309 255 54 372
shrinkage=0.05


Tree=70
num_leaves=16
num_cat=0
split_feature=151 81 113 117 44 3 44 2 113 45 39 82 150 79 117
split_gain=664.197 614.002 1410.33 791.498 1044.2 981.974 898.603 756.634 616.895 609.239 740.339 693.515 657.007 689.496 695.509
threshold=135.00000000000003 1.0000000180025095e-35 1.0000000180025095e-35 215.00000000000003 245.00000000000003 55.000000000000007 1.0000000180025095e-35 52.500000000000007 122.00000000000001 342.50000000000006 37.500000000000007 117.50000000000001 85.000000000000014 405.00000000000006 197.50000000000003
decision_type=2 2 2 2 2 2 2 2 2 2 2 2 2 2 2
left_child=1 8 3 4 5 6 -3 -7 9 10 12 -11 13 14 -1
right_child=-2 2 -4 -5 -6 7 -8 -9 -10 11 -12 -13 -14 -15 -16
leaf_value=-0.041672537899099471 0.061714456741087491 -0.40838749625466086 -0.41280829752645182 0.25029496610164642 -0.34119900416943338 0.30475124776363377 0.022098185618718468 -0.076425352854573206 0.14058608318776339 -0.027982677174948678 0.15433009418730553 0.25943355921247024 0.18563093860303204 0.12521652076041923 -0.18002619126697406
leaf_count=635 302 22 31 20 31 30 27 23 67 43 52 41 31 53 106
internal_value=0 -0.423223 -2.10559 -0.859397 -1.7414 -0.19669 -3.42362 2.7867 -0.122098 -0.326641 -0.573059 2.24608 -0.803729 -0.98006 -1.22928
internal_count=1514 1212 184 153 133 102 49 53 1028 961 877 84 825 794 741
shrinkage=0.05


Tree=71
num_leaves=16
num_cat=0
split_feature=157 151 145 81 10 53 149 77 117 39 54 84 52 108 89
split_gain=627.343 597.564 671.232 718.635 1403.6 1366.59 1077.02 1213.16 867.132 856.749 903.909 1124.2 676.616 615.016 583.545
threshold=1.0000000180025095e-35 135.00000000000003 65.000000000000014 16.000000000000004 145.00000000000003 222.50000000000003 105.00000000000001 305.00000000000006 303.00000000000006 72.500000000000014 1.0000000180025095e-35 15.000000000000002 115.00000000000001 666.00000000000011 1.0000000180025095e-35
decision_type=2 2 2 2 2 2 2 2 2 2 2 2 2 2 2
left_child=1 2 3 6 5 12 7 8 9 10 11 13 -5 14 -1
right_child=-2 -3 -4 4 -6 -7 -8 -9 -10 -11 -12 -13 -14 -15 -16
leaf_value=-0.0049785392059060185 0.21821407714197713 0.054640875647823189 -0.298480258543383 -0.050520507742961254 -0.50904988765716552 -0.42517807165330113 0.18537437795528344 -0.39371047019958499 -0.28325400631209569 0.26199352905154227 -0.28925110357148304 -0.330541273355484 0.26114145481870293 0.27695967551498185 0.24546252923707168
