tree
version=v2
num_class=1
num_tree_per_iteration=1
label_index=0
max_feature_idx=192
objective=regression
feature_names=111 112 113 114 115 120 121 122 123 124 131 132 141 142 151 152 190 192 211 212 213 221 222 311 312 313 314 315 321 322 331 332 341 351 352 391 392 393 411 412 413 414 421 422 431 432 441 442 443 444 445 451 452 453 454 460 471 472 473 480 510 520 611 612 613 619 621 622 623 629 631 632 633 639 641 642 643 650 661 662 710 720 811 812 813 814 821 822 823 831 832 833 841 842 843 890 911 912 913 921 922 923 931 932 933 942 943 990 1011 1012 1013 1021 1022 1030 1040 1050 1090 1111 1112 1121 1122 1131 1141 1211 1212 1213 1214 1221 1222 1223 1230 1241 1242 1243 1290 1293 1310 1311 1312 1313 1330 1410 1419 1421 1422 1423 1510 1521 1522 1523 1524 1525 1530 1531 1532 1533 1534 1610 1619 1620 1640 1650 1661 1662 1670 1680 1690 1711 1712 1713 1721 1810 1820 1821 1822 1823 1824 1830 1840 1910 1920 2010 2020 2031 2032 2040 2050 2060 2071 2072 2074 2110 2190
feature_infos=[0:360] [0:2914] [0:4250] [0:5200] [0:300] [0:3750] [0:2155] [0:1350] [0:400] [0:3250] [0:1769] none [0:820] none [0:2600] none [0:280] none [0:4340] [0:660] none [0:250] [0:850] [0:520] [0:450] [0:2100] [0:1500] [0:1520] [0:300] none [0:250] [0:600] [0:600] none none [0:400] [0:800] none [0:3240] [0:400] none none [0:2261] [0:700] [0:1800] [0:1590] [0:450] [0:600] [0:350] [0:800] none [0:2200] [0:1800] [0:1502] [0:610] [0:800] [0:1050] [0:1503] none [0:5120] [0:600] [0:460] [0:2400] [0:1500] none [0:470] [0:2130] [0:300] [0:1000] none [0:1150] [0:2200] [0:570] [0:660] [0:1150] [0:1710] [0:750] [0:1020] [0:720] [0:5000] [0:609] [0:950] [0:4341] [0:360] [0:740] [0:400] [0:700] [0:200] [0:1000] [0:1100] none none none none none none [0:1000] [0:500] [0:320] [0:750] [0:265] [0:350] [0:550] none none none none [0:600] [0:3715] none none none none [0:1129] [0:500] none none [0:1050] [0:600] [0:300] [0:701] none none [0:1660] [0:2000] [0:322] [0:400] [0:1500] [0:6024] none [0:1000] [0:250] [0:425] none [0:200] none none [0:550] none none none [0:2010] [0:2430] [0:600] [0:500] [0:400] [0:970] [0:1050] [0:1379] [0:1350] [0:600] [0:2250] none none [0:420] none none [0:5000] none [0:1500] [0:1500] none [0:8700] [0:6200] [0:804] [0:700] [0:7500] [0:2740] none [0:2100] [0:1500] [0:1200] [0:236] none none none none [0:150] none none none none none [0:420] none [0:175] [0:750] none none none none none none
tree_sizes=1290 1329 1330 1334 1335 1311 1315 1325 1330 1321 1322 1324 1329 1322 1329 1347 1332 1331 1340 1329 1319 1319 1320 1318 1326 1323 1317 1322 1317 1320 1315 1322 1314 1336 1323 1328 1328 1335 1325 1335 1346 1335 1333 1330 1345 1329 1332 1323 1333 1329 1327 1338 1322 1343 1325 1328 1328 1328 1324 1335 1322 1321 1326 1314 1324 1329 1331 1324 1329 1335 1325 1336 1340 1319 1327 1329 1329 1323 1333 1323 1325 1327 1329 1342 1339 1342 1327 1337 1339 1342 1327 1323 1320 1322 1319 1323 1333 1330 1326 1322 1335 1323 1320 1328 1325 1332 1325 1324 1332 1328 1328 1349 1319 1342 1353 1309 1326 1341 1339 1318 1336 1328 1338 1340 1326 1312 1331 1328 1344 1344 1336 1320 1326 1328 1316 1326 1336 1325 1340 1334 1334 1321 1334 1334 1333 1336 1331 1333 1329 1331 1324 1324 1340 1310 1313 1334 1320 1337 1333 1316 1336 1332 1342 1328 1339 1325 1329 1336 1319 1336 1326 1330 1326 1321 1319 1333 1338 1314 1340 1321 1323 1326 1324 1330 1335 1336 1351 1346 1331 1333 1333 1339 1327 1324 1319 1338 1325 1334 1332 1325 1318 1315 1329 1328 1324 1324 1343 1339 1339 1333 1338 1319 1340 1338 1319 1352 1330 1325 1353 1344 1339 1336 1333 1335 1316 1325 1315 1314 1319 1320 1325 1331 1325 1324 1340 1330 1332 1338 1340 1322 1317 1328 1334 1322 1312 1322 1319 1323 1323 1324 1326 1322 1330 1305 1338 1343 1341 1341 1336 1317 1336 1326 1336 1336 1335 1325 1325 1328 1330 1331 1320 1317 1341 1335 1320 1315 1308 1336 1321 1318 1320 1322 1332 1318 1329 1332 1332 1318 1337 1324 1337 1328 1334 1328 1337 1324 1330 1338 1326 1329 1320 1322 1332 1322 1324 1335 1345 1333 1330 1347 1327 1334 1337 1322 1333 1325 1326 1324 1324 1324 1315 1321 1325 1329 1332 1321 1322 1336 1323 1327 1337 1339 1333 1336 1342 1320 1319 1341 1321 1329 1327 1322 1326 1308 1314 1336 1341 1339 1333 1332 1331 1338 1337 1322 1336 1322 1338 1328 1319 1319 1321 1322 1332 1325 1321 1332 1329 1335 1337 1327 1340 1334 1325 1324 1331 1310 1323 1320 1322 1324 1335 1327 1331 1322 1327 1324 1320 1317 1323 1325 1345 1325 1324 1327 1319 1326 1328 1322 1320 1343 1322 1334 1325 1321 1321 1341 1319 1316 1321 1322 1333 1331 1323 1329 1331 1336 1327 1321 1335 1327 1318 1316 1322 1326 1331 1351 1341 1329 1334 1346 1322 1332 1314 1326 1323 1324 1331 1332 1349 1308 1311 1311 1334 1320 1313 1320 1321 1311 1327 1319 1338 1328 1316 1334 1317 1320 1319 1311 1325 1323 1328 1327 1330 1322 1319 1324 1317 1323 1328 1306 1337 1317 1335 1334 1339 1321 1317 1320 1325 1312 1323 1333 1318 1315 1327 1330 1325 1326 1328 1320 1312 1326 1323 1322 1331 1345 1330 1334 1335 1335

Tree=0
num_leaves=16
num_cat=0
split_feature=31 108 9 80 60 25 167 117 9 27 45 117 9 82 51
split_gain=8488.21 7216.22 5901.75 5573.04 7351.48 5622.41 4393.02 4247.58 2995.03 3326.07 4729.63 2847.1 2930.51 3146.11 2961.97
threshold=32.500000000000007 481.50000000000006 327.50000000000006 7.5000000000000009 62.500000000000007 147.50000000000003 1.0000000180025095e-35 1.0000000180025095e-35 1055.0000000000002 203.00000000000003 31.500000000000004 76.000000000000014 122.50000000000001 116.00000000000001 98.000000000000014
decision_type=2 2 2 2 2 2 2 2 2 2 2 2 2 2 2
left_child=1 3 7 6 5 -5 8 -3 9 -1 -11 -9 13 -13 -14
right_child=-2 2 -4 4 -6 -7 -8 11 -10 10 -12 12 14 -15 -16
leaf_value=86.110771661065627 85.339272166049881 85.165097848408507 86.099522653844332 86.111108489428304 84.945998349914476 85.193519301475746 86.478353623050481 86.232353017732024 86.28554852976373 85.270911597500486 86.277635161341891 85.466931722920805 85.795870186151731 86.224235499625351 84.963885273269042
leaf_count=2378 38 35 136 101 21 20 88 28 246 28 20 24 20 32 23
internal_value=0 -0.0568984 -4.74309 0.424317 -5.68521 -2.6877 0.738648 -8.8206 0.509693 0.172557 -8.06893 -6.1325 -8.65053 -3.88299 -14.8594
internal_count=3238 3200 298 2902 142 121 2760 162 2672 2426 48 127 99 56 43
shrinkage=1


Tree=1
num_leaves=16
num_cat=0
split_feature=31 108 131 9 26 146 3 3 79 60 25 151 77 55 45
split_gain=7660.61 6512.64 6958.06 5326.33 5314.43 4096.21 4249.8 4321.55 4998.71 4773.76 6091.05 4682.44 3681.44 3590.3 3419.4
threshold=32.500000000000007 481.50000000000006 1.0000000180025095e-35 327.50000000000006 137.00000000000003 1.0000000180025095e-35 512.50000000000011 52.500000000000007 205.00000000000003 112.50000000000001 22.500000000000004 155.00000000000003 234.00000000000003 92.500000000000014 122.00000000000001
decision_type=2 2 2 2 2 2 2 2 2 2 2 2 2 2 2
left_child=1 2 5 4 14 6 7 9 11 12 -11 13 -1 -9 -3
right_child=-2 3 -4 -5 -6 -7 -8 8 -10 10 -12 -13 -14 -15 -16
leaf_value=0.10156620923159672 -0.71682621071997454 -0.16136801252762478 -0.90923349380493157 0.0054117667105268033 -1.1229976559462755 0.47985637333928327 0.14597803953559771 -0.19801076408645632 0.19513298013222549 -0.77444556963479005 0.21325062910715739 0.079955066268642738 -0.53819624600203142 0.23927334356307983 -0.73829171775895008
leaf_count=1007 38 105 20 136 23 49 533 767 149 37 27 240 23 50 34
internal_value=0 -0.0540534 0.403101 -4.50594 -8.37957 0.532093 0.375303 -0.214301 -1.51984 1.2249 -7.15522 -2.28423 1.74561 -3.42498 -6.04972
internal_count=3238 3200 2902 298 162 2882 2833 2300 1206 1094 64 1057 1030 817 139
shrinkage=0.05


Tree=2
num_leaves=16
num_cat=0
split_feature=31 108 131 9 26 167 146 3 3 79 151 60 42 77 127
split_gain=6913.7 5877.66 6279.65 4807.02 4796.28 4081 3739.53 3215 3850.28 4844.01 4673.5 4006.14 5124.21 3228.01 3157.44
threshold=32.500000000000007 481.50000000000006 1.0000000180025095e-35 327.50000000000006 137.00000000000003 1.0000000180025095e-35 1.0000000180025095e-35 512.50000000000011 52.500000000000007 205.00000000000003 155.00000000000003 112.50000000000001 62.500000000000007 234.00000000000003 7.5000000000000009
decision_type=2 2 2 2 2 2 2 2 2 2 2 2 2 2 2
left_child=1 2 5 4 14 6 7 8 11 10 -10 13 -13 -1 -3
right_child=-2 3 -4 -5 -6 -7 -8 -9 9 -11 -12 12 -14 -15 -16
leaf_value=0.087953716920131098 -0.68098489344120028 -0.40166990818637133 -0.86377187401056299 0.0051411760423113323 -1.0668478096632854 0.3605316388283179 0.4522320004800956 0.12117454640508173 -0.17723412711759035 0.18537633640054088 0.078256684361082129 -0.026215978392532896 -0.99860455587506292 -0.51128642040750261 0.20943915752264172
leaf_count=982 38 113 20 136 23 88 48 504 795 149 231 42 20 23 26
internal_value=0 -0.0513506 0.382946 -4.28064 -7.96059 0.505489 0.294303 0.141347 -0.371677 -1.62047 -2.39423 1.00352 -6.79779 1.4848 -5.74723
internal_count=3238 3200 2902 298 162 2882 2794 2746 2242 1175 1026 1067 62 1005 139
shrinkage=0.05


Tree=3
num_leaves=16
num_cat=0
split_feature=31 108 131 9 26 167 146 45 117 9 79 96 27 3 3
split_gain=6239.62 5304.59 5667.38 4338.33 4328.64 3683.1 3374.92 3059.03 3435.54 3867.67 2942.94 2924.27 3718.22 3149.76 3641.81
threshold=32.500000000000007 481.50000000000006 1.0000000180025095e-35 327.50000000000006 137.00000000000003 1.0000000180025095e-35 1.0000000180025095e-35 155.00000000000003 87.500000000000014 197.50000000000003 505.00000000000006 77.500000000000014 203.00000000000003 512.50000000000011 52.500000000000007
decision_type=2 2 2 2 2 2 2 2 2 2 2 2 2 2 2
left_child=1 2 5 4 7 6 10 8 -3 -10 11 12 13 14 -1
right_child=-2 3 -4 -5 -6 -7 -8 -9 9 -11 -12 -13 -14 -15 -16
leaf_value=0.025152564623819124 -0.6469356637252005 0.17387792079345041 -0.82058327704668044 0.0048841199892408708 -1.0135054427644481 0.3425050532614643 0.42962038914362594 -0.75072281857331591 -0.10908283705628195 -0.91236626544724353 0.24373631834834814 0.1040511386152989 -0.54892991342965292 0.10900288537658494 -0.12093111241261004
leaf_count=822 38 46 20 136 23 88 48 27 43 23 125 501 34 377 887
internal_value=0 -0.0487831 0.363799 -4.06661 -7.56256 0.480214 0.279588 -5.45987 -3.15654 -7.7803 0.13428 -0.0918001 -0.605283 -0.436207 -1.01335
internal_count=3238 3200 2902 298 162 2882 2794 139 112 66 2746 2621 2120 2086 1709
shrinkage=0.05


Tree=4
num_leaves=16
num_cat=0
split_feature=31 108 131 141 124 123 117 167 146 51 14 79 113 18 1
split_gain=5631.25 4787.39 5114.81 4083.8 4604.83 5813.41 12600.9 3324 3045.87 2963.22 2788 2732.75 2841.49 2985.91 2785.09
threshold=32.500000000000007 481.50000000000006 1.0000000180025095e-35 72.500000000000014 1.0000000180025095e-35 52.500000000000007 22.500000000000004 1.0000000180025095e-35 1.0000000180025095e-35 191.50000000000003 17.500000000000004 265.00000000000006 55.000000000000007 375.00000000000006 322.50000000000006
decision_type=2 2 2 2 2 2 2 2 2 2 2 2 2 2 2
left_child=1 2 7 4 5 6 -3 8 11 -8 -6 12 13 14 -1
right_child=-2 3 -4 -5 10 -7 9 -9 -10 -11 -12 -13 -14 -15 -16
leaf_value=-0.051906944908616748 -0.614588874578476 -1.8155925822257997 -0.77955410290509475 0.18743264507829099 0.11587378529784008 -0.04867887778102227 -0.14244568916884334 0.32537980621775869 0.40813935920596123 -0.81571347484221823 -0.54583496022969491 0.17456348309931052 0.18077512503571244 0.16670419489866808 0.23376997834845878
leaf_count=2061 38 20 20 57 78 53 44 88 48 26 20 222 184 190 89
internal_value=0 -0.0463439 0.345609 -3.86328 -5.66361 -9.28224 -14.1751 0.456204 0.265609 -7.85033 -0.383376 0.127566 -0.168291 -0.46582 -0.801625
internal_count=3238 3200 2902 298 241 143 90 2882 2794 70 98 2746 2524 2340 2150
shrinkage=0.05


Tree=5
num_leaves=16
num_cat=0
split_feature=39 108 3 51 117 27 60 117 31 60 157 38 45 82 141
split_gain=6473.85 5584.96 6181.45 6153.97 13099.5 4686.49 13995.3 6546.75 4131.48 3541.46 3135.49 2592.6 3329.84 3133.37 3127
threshold=172.50000000000003 481.50000000000006 177.50000000000003 145.00000000000003 166.50000000000003 171.00000000000003 21.500000000000004 87.500000000000014 32.500000000000007 112.50000000000001 110.00000000000001 152.50000000000003 72.500000000000014 211.50000000000003 85.000000000000014
decision_type=2 2 2 2 2 2 2 2 2 2 2 2 2 2 2
left_child=1 5 9 4 -4 8 -7 -8 10 -3 11 13 14 -1 -13
right_child=-2 2 3 -5 -6 6 7 -9 -10 -11 -12 12 -14 -15 -16
leaf_value=0.022535066302917274 -0.81788208295280729 0.030552588944328565 -1.9124696588516237 -0.16905011993412877 -0.14441579797051171 0.11632560446858407 -0.39940513372421266 -1.6336351525215875 -0.53335325333379935 -0.6162579459448656 0.47581428445520857 -0.41405073386065816 0.20212937082563129 0.15343323109836837 0.20274998270548306
leaf_count=1952 24 179 20 51 22 80 22 21 31 24 42 98 49 597 26
internal_value=0 0.127446 -4.01144 -10.763 -19.7269 0.547293 -5.49385 -20.0434 0.813146 -0.918352 0.941904 0.809603 -2.93655 1.06385 -5.69443
internal_count=3238 3214 296 93 42 2918 123 43 2795 203 2764 2722 173 2549 124
shrinkage=0.05


Tree=6
num_leaves=16
num_cat=0
split_feature=8 51 96 108 3 2 31 79 63 42 51 42 32 68 3
split_gain=5068.58 4595.4 4279.62 5541.46 6462.43 5510.81 4035.41 3246.71 3269.22 3363.63 3794.4 5788.5 3272.52 3227.27 2805.75
threshold=85.000000000000014 167.50000000000003 77.500000000000014 481.50000000000006 177.50000000000003 92.500000000000014 32.500000000000007 205.00000000000003 395.00000000000006 485.00000000000006 98.000000000000014 605.00000000000011 55.000000000000007 25.500000000000004 52.500000000000007
decision_type=2 2 2 2 2 2 2 2 2 2 2 2 2 2 2
left_child=2 -2 3 6 -5 -6 7 8 9 12 11 -11 14 -4 -1
right_child=1 -3 13 4 5 -7 -8 -9 -10 10 -12 -13 -14 -15 -16
leaf_value=0.071671176039612636 -1.0680357059552557 -0.033977443521673027 0.15863645479644864 -0.075156684846255428 -1.0496335690793319 -0.17171382172541186 -0.59417095822947363 0.19388996167666353 0.34566909512357108 -1.2047282684933056 0.1781844014706819 -0.12093205026217871 -0.51745582434438897 -0.32359169447744218 -0.04983845296709092
leaf_count=809 21 22 557 157 39 33 28 217 63 22 23 28 31 37 1151
internal_value=0 -10.7797 0.150142 -0.402941 -5.1006 -12.9451 0.0505852 0.193142 -0.182773 -0.399371 -7.06627 -11.956 -0.154929 2.57197 0.00630533
internal_count=3238 43 3195 2601 229 72 2372 2344 2127 2064 73 50 1991 594 1960
shrinkage=0.05


Tree=7
num_leaves=16
num_cat=0
split_feature=8 82 96 108 3 44 0 12 68 79 32 149 99 45 27
split_gain=4664.8 9561.46 4075.63 4826.66 4523.57 5371.8 3201.84 3255.18 3000.91 2932.41 3047.5 2960.9 2703.52 2610.01 2578.76
threshold=1.0000000180025095e-35 96.000000000000014 77.500000000000014 481.50000000000006 177.50000000000003 42.500000000000007 72.500000000000014 55.000000000000007 25.500000000000004 205.00000000000003 55.000000000000007 102.50000000000001 155.00000000000003 122.00000000000001 171.00000000000003
decision_type=2 2 2 2 2 2 2 2 2 2 2 2 2 2 2
left_child=2 -2 3 6 -5 -6 7 9 -4 10 11 12 14 -7 -1
right_child=1 -3 8 4 5 13 -8 -9 -10 -11 -12 -13 -14 -15 -16
leaf_value=0.011989747851664713 -1.2934222712403252 -0.048271203760443061 0.15775421605176698 -0.08681140208481164 -1.1992044005057085 0.082861572265625016 -0.46433779133690734 -0.43628094440326093 -0.30741210885950038 0.19488420033670753 -0.49158303660731167 0.26392964141391151 -0.52287420392036432 -0.66385948657989502 -0.29514549920256711
leaf_count=1826 21 58 551 151 23 25 36 40 37 214 31 107 25 22 71
internal_value=0 -7.58521 0.194556 -0.348645 -4.81661 -11.4614 0.0715346 0.217126 2.56967 0.37443 0.00842225 0.158764 -0.126263 -5.33335 0.00988876
internal_count=3238 79 3159 2571 221 70 2350 2314 588 2274 2060 2029 1922 47 1897
shrinkage=0.05


Tree=8
num_leaves=16
num_cat=0
split_feature=39 8 108 108 124 27 0 62 52 157 79 113 63 75 80
split_gain=5848.71 4377.46 6222.06 3828.68 5807.48 4941.86 3482.83 7624.13 3093.3 2947.72 2875.46 3190.11 3041.39 2877.4 4148.18
threshold=172.50000000000003 12.500000000000002 22.500000000000004 481.50000000000006 1.0000000180025095e-35 57.500000000000007 72.500000000000014 95.000000000000014 142.50000000000003 110.00000000000001 265.00000000000006 85.000000000000014 395.00000000000006 162.50000000000003 12.500000000000002
decision_type=2 2 2 2 2 2 2 2 2 2 2 2 2 2 2
left_child=1 3 -3 6 5 8 9 -8 -5 10 11 12 13 14 -1
right_child=-2 2 -4 4 -6 -7 7 -9 -10 -11 -12 -13 -14 -15 -16
leaf_value=-0.0057377330273916411 -0.77741540571053824 -0.026658964400388757 -0.96100017790283487 -0.087499933320659778 0.12446707194501704 -0.87070026057107119 -1.0348258202490601 0.29998752593994144 -0.67559530096394682 0.45023613585982214 0.20193601298222555 0.21528579188244687 0.33900437242709675 0.25441388386487962 -0.35616389526562259
leaf_count=2094 24 49 28 111 110 35 23 20 28 43 231 189 65 100 88
internal_value=0 0.120647 -7.32839 0.303489 -3.19805 -6.79353 0.652048 -8.27965 -4.1193 0.788725 0.661046 0.353379 0.0351039 -0.157019 -0.397408
internal_count=3238 3214 77 3137 284 174 2853 43 139 2810 2767 2536 2347 2282 2182
shrinkage=0.05


Tree=9
num_leaves=16
num_cat=0
split_feature=39 27 123 60 66 44 3 0 62 32 44 127 113 3 14
split_gain=5278.46 4225.63 12477.5 14113.2 4155.24 3739.49 4627.52 3471.76 9857.73 3161.88 2782.97 2733.18 3477.77 2786.57 2978.54
threshold=172.50000000000003 185.00000000000003 32.500000000000007 27.500000000000004 175.00000000000003 197.50000000000003 96.500000000000014 72.500000000000014 95.000000000000014 102.50000000000001 582.50000000000011 111.00000000000001 85.000000000000014 545.00000000000011 52.500000000000007
decision_type=2 2 2 2 2 2 2 2 2 2 2 2 2 2 2
left_child=1 4 -3 -4 7 6 -6 9 -9 10 11 12 13 14 -1
right_child=-2 2 3 -5 5 -7 -8 8 -10 -11 -12 -13 -14 -15 -16
leaf_value=0.022900088717296541 -0.73854462181528413 0.074630851923734295 -0.14110662738482158 -1.939514991044998 -0.049699525889896214 -0.010128353468396446 -1.0315686711243222 -1.1312203386555548 0.34921514229340989 -0.57624741175345018 -0.19327102137532662 0.27360507543270407 0.23258621196301893 0.13749962207363095 -0.14692798235306614
leaf_count=1713 24 87 24 20 21 55 28 23 22 21 123 130 213 430 304
internal_value=0 0.114615 -5.44794 -19.1713 0.350974 -5.86244 -12.2154 0.56789 -8.14904 0.701585 0.789727 0.994954 0.776146 0.438795 -0.0539242
internal_count=3238 3214 131 44 3083 104 49 2979 45 2934 2913 2790 2660 2447 2017
shrinkage=0.05


Tree=10
num_leaves=16
num_cat=0
split_feature=31 163 8 79 96 27 27 3 3 38 151 10 3 45 51
split_gain=5165.26 5088.64 4969.07 4498.43 5082.74 4004.74 5280.49 3465.78 5865.73 4030.75 4016.86 4382.65 3978.93 3309.97 3246.68
threshold=140.00000000000003 1.0000000180025095e-35 85.000000000000014 265.00000000000006 72.500000000000014 203.00000000000003 268.50000000000006 555.00000000000011 89.000000000000014 111.50000000000001 155.00000000000003 37.500000000000007 197.50000000000003 9.5000000000000018 625.00000000000011
decision_type=2 2 2 2 2 2 2 2 2 2 2 2 2 2 2
left_child=1 2 3 4 5 7 -7 8 9 -1 11 -10 -13 -11 -6
right_child=-2 -3 -4 -5 14 6 -8 -9 10 13 -12 12 -14 -15 -16
leaf_value=0.067102636015565875 -0.78085690680004305 -0.70470818877220154 -0.54949964070931467 0.22690254207310817 0.15449272830344407 -1.0793950852893648 -0.013388946652412415 0.12002631177810925 -0.14692962294952436 -0.45649209750049258 0.037189169974720229 0.023071425620998658 -0.66726919696098419 0.24907337047837 -0.38748265545943689
leaf_count=890 21 25 39 239 586 21 26 355 572 68 235 28 82 22 29
internal_value=0 0.117229 0.228534 0.367298 0.0252217 -0.657859 -9.79379 -0.467189 -1.00385 0.697133 -2.82169 -4.05026 -9.83092 -5.68041 2.57872
internal_count=3238 3217 3192 3153 2914 2299 47 2252 1897 980 917 682 110 90 615
shrinkage=0.05


Tree=11
num_leaves=16
num_cat=0
split_feature=31 163 8 79 96 3 3 60 14 44 117 6 62 82 25
split_gain=4661.65 4592.5 4484.59 4059.84 4587.17 3630.56 5253.32 6223.58 5377.09 4457.66 3696.5 3682.45 3906.96 3281.09 3239.28
threshold=140.00000000000003 1.0000000180025095e-35 85.000000000000014 265.00000000000006 72.500000000000014 522.50000000000011 52.500000000000007 112.50000000000001 115.00000000000001 464.00000000000006 60.500000000000007 192.50000000000003 295.00000000000006 237.50000000000003 151.50000000000003
decision_type=2 2 2 2 2 2 2 2 2 2 2 2 2 2 2
left_child=1 2 3 4 5 6 7 10 9 11 -1 12 13 -8 -10
right_child=-2 -3 -4 -5 -6 -7 8 -9 14 -11 -12 -13 -14 -15 -16
leaf_value=-0.037540451599429425 -0.74181407292683921 -0.66947277355194101 -0.5220246599270747 0.21555741222333707 0.12248935790535638 0.10798059128186543 -0.14249872341715095 -0.55645369724793869 -0.32432630931548145 -0.49045977752942305 0.16639933905601689 -0.62179348809378487 0.21702286117076874 0.16720012942853485 -0.98518059020015325
leaf_count=503 21 25 39 239 615 389 504 44 118 65 398 28 125 103 22
internal_value=0 0.111368 0.217107 0.348933 0.0239606 -0.624966 -1.19209 0.483812 -2.83325 -1.86085 1.05092 -1.18106 -0.750543 -1.79894 -8.5635
internal_count=3238 3217 3192 3153 2914 2299 1910 945 965 825 901 760 732 607 140
shrinkage=0.05


Tree=12
num_leaves=16
num_cat=0
split_feature=31 8 167 96 79 3 52 27 3 66 44 14 151 18 62
split_gain=4207.14 3967.04 3733.1 3723.63 4158.44 3666.74 4815.93 6052.07 5516.16 5665.9 4134.33 3852.61 3872.44 5938.01 4892.63
threshold=140.00000000000003 85.000000000000014 1.0000000180025095e-35 72.500000000000014 265.00000000000006 555.00000000000011 12.500000000000002 203.00000000000003 89.000000000000014 215.00000000000003 27.500000000000004 265.00000000000006 155.00000000000003 127.50000000000001 295.00000000000006
decision_type=2 2 2 2 2 2 2 2 2 2 2 2 2 2 2
left_child=1 2 3 4 5 6 7 8 10 11 -1 12 13 14 -10
right_child=-2 -3 -4 -5 -6 -7 -8 -9 9 -11 -12 -13 -14 -15 -16
leaf_value=-0.15644176812809812 -0.70472334907168444 -0.49592342468408446 0.32355529677563455 0.11068651596096102 0.19337315700910798 0.10247015919903635 0.050920611668685223 -0.82600637714068093 -0.45420778837649761 -1.0435182620584964 0.092000906076741051 -0.7310371621962517 0.080001145524491793 0.0011878140673738475 0.19544342936891501
leaf_count=285 21 39 93 628 199 355 558 30 238 20 406 31 131 171 33
internal_value=0 0.105799 0.228816 0.0406366 -0.514798 -0.901011 -1.4514 -2.47606 -2.15566 -4.31093 -0.209364 -3.76261 -3.17517 -4.59044 -7.50198
internal_count=3238 3217 3178 3085 2457 2258 1903 1345 1315 624 691 604 573 442 271
shrinkage=0.05


Tree=13
num_leaves=16
num_cat=0
split_feature=163 31 8 79 96 27 82 9 3 14 10 44 3 44 51
split_gain=3975.92 3852.72 3655.49 3379.7 3532.32 3237.2 4734.93 3006.66 3227.24 3239.86 3675.23 4809.31 4109.17 3170.55 3015
threshold=1.0000000180025095e-35 140.00000000000003 85.000000000000014 310.00000000000006 72.500000000000014 203.00000000000003 177.50000000000003 1665.0000000000002 877.50000000000011 115.00000000000001 91.500000000000014 157.50000000000003 255.00000000000003 513.00000000000011 212.50000000000003
decision_type=2 2 2 2 2 2 2 2 2 2 2 2 2 2 2
left_child=1 2 3 4 5 7 -7 8 9 13 11 12 14 -1 -11
right_child=-2 -3 -4 -5 -6 6 -8 -9 -10 10 -12 -13 -14 -15 -16
leaf_value=0.0091635131916314727 -0.62745879817008976 -0.66948720841180709 -0.47112725850863335 0.21484320911765101 0.10832108563438081 -1.019647024869919 -0.0046173850695292156 -0.52320684975591203 0.19931639718586172 -0.26417838472586413 -0.80334056201188453 0.18706129674573202 -0.66327829988530052 -0.29349796966250458 0.43784429490566251
leaf_count=1761 25 21 39 200 622 20 27 29 169 65 23 74 52 91 20
internal_value=0 0.110764 0.199583 0.318601 0.0491617 -0.515804 -8.7309 -0.346755 -0.216642 -0.557151 -4.0632 -2.75475 -6.26353 -0.114162 -1.97993
internal_count=3238 3213 3192 3153 2953 2331 47 2284 2255 2086 234 211 137 1852 85
shrinkage=0.05


Tree=14
num_leaves=16
num_cat=0
split_feature=159 31 163 3 60 60 9 3 79 44 99 3 25 44 51
split_gain=3766.7 4084.01 3557.14 3258.29 3240.16 16908.3 3712.71 2852.39 3996.43 5848.3 3196.04 3076.16 3690.09 3391.14 2946.51
threshold=125.00000000000001 140.00000000000003 1.0000000180025095e-35 1320.0000000000002 112.50000000000001 135.00000000000003 522.50000000000011 89.000000000000014 205.00000000000003 513.00000000000011 225.00000000000003 452.50000000000006 82.500000000000014 17.500000000000004 191.50000000000003
decision_type=2 2 2 2 2 2 2 2 2 2 2 2 2 2 2
left_child=1 2 3 4 7 -6 -7 10 9 11 -1 12 14 -14 -9
right_child=-2 -3 -4 -5 5 6 -8 8 -10 -11 -12 -13 13 -15 -16
leaf_value=0.075341697096168322 0.40712577870913913 -0.71878053665161135 -0.59608585357666022 0.34764022200799261 -1.4459815422693889 -0.17219323463607253 0.36851810731671075 -0.1082234015579196 0.16737533844480257 -0.46747433814932321 -0.56185738921165462 0.072581137970161039 -0.0010904372335695054 -0.3756837624445325 0.11082605924991679
leaf_count=1226 56 20 25 67 24 114 44 414 212 85 20 419 92 176 244
internal_value=0 -0.130715 -0.0406142 0.054071 -0.0964877 -4.18888 -0.432308 0.161412 -0.70431 -1.305 1.30228 -0.796611 -1.8139 -4.94184 -0.539907
internal_count=3238 3182 3162 3137 3070 182 158 2888 1642 1430 1246 1345 926 268 658
shrinkage=0.05


Tree=15
num_leaves=16
num_cat=0
split_feature=31 163 167 131 154 157 61 5 79 44 117 149 3 117 108
split_gain=6136.54 3410.07 3075.8 2838.15 3134.36 2691.11 2761.35 2707.51 2888.18 3638.33 3756.59 3162.32 3111.24 2893.41 3309.35
threshold=32.500000000000007 1.0000000180025095e-35 1.0000000180025095e-35 1.0000000180025095e-35 31.500000000000004 275.00000000000006 77.500000000000014 355.00000000000006 205.00000000000003 582.50000000000011 181.00000000000003 102.50000000000001 96.500000000000014 111.00000000000001 510.00000000000006
decision_type=2 2 2 2 2 2 2 2 2 2 2 2 2 2 2
left_child=1 2 3 4 5 6 7 8 9 10 11 13 -11 -1 -15
right_child=-2 -3 -4 -5 -6 -7 -8 -9 -10 12 -12 -13 -14 14 -16
leaf_value=-0.022493870213166085 -0.66998732019873231 -0.62976584498371402 0.28671473406792919 -0.59292167380452154 -0.61924796998500831 0.46484648243058474 -0.3184634148386809 0.12971923623152853 0.17402686934999656 0.17462350487709047 0.1291639029129994 0.19319498270077815 -0.55019525854211115 -0.12999914935731649 -0.630549931857321
leaf_count=1303 34 21 97 20 20 32 65 413 200 20 388 133 57 399 36
internal_value=0 0.105869 0.189665 0.0153849 0.0928397 0.174769 0.0779177 0.220022 -0.166654 -0.478914 -0.248503 -0.835746 -7.23861 -1.19539 -3.42848
internal_count=3238 3204 3183 3086 3066 3046 3014 2949 2536 2336 2259 1871 77 1738 435
shrinkage=0.05


Tree=16
num_leaves=16
num_cat=0
split_feature=80 60 25 2 86 167 66 149 149 68 157 141 9 44 5
split_gain=3374.03 7392.33 4183.76 3622.37 3454.9 3271.89 3039.81 2685.61 4570.47 3075.05 2702.5 2430.89 2814.49 2837.11 2403.37
threshold=7.5000000000000009 98.000000000000014 157.50000000000003 22.500000000000004 12.500000000000002 1.0000000180025095e-35 135.00000000000003 142.50000000000003 115.00000000000001 112.50000000000001 110.00000000000001 27.500000000000004 1105.0000000000002 865.00000000000011 251.00000000000003
decision_type=2 2 2 2 2 2 2 2 2 2 2 2 2 2 2
left_child=5 2 3 -2 -5 6 7 8 9 10 11 12 13 14 -1
right_child=1 -3 -4 4 -6 -7 -8 -9 -10 -11 -12 -13 -14 -15 -16
leaf_value=-0.05357742021703709 0.29347105607390406 -1.1183743280172347 -0.75658888476235531 -0.01643523828763711 -0.75408896641297785 0.30270133197948501 -0.24392821885768542 0.20587504831187073 -0.75323573023080836 -0.42962683845311411 0.41485286907451907 0.1256178393836849 0.15969871163226984 -0.52325173667792624 0.081837195658001571
leaf_count=1557 60 20 21 57 22 93 121 168 20 40 41 363 211 29 415
internal_value=0 -4.2416 -1.97586 0.0117263 -4.43716 0.213511 0.0303182 0.23917 -0.00431259 0.109094 0.242147 0.113894 -0.279706 -0.645996 -0.501598
internal_count=3238 180 160 139 79 3058 2965 2844 2676 2656 2616 2575 2212 2001 1972
shrinkage=0.05


Tree=17
num_leaves=16
num_cat=0
split_feature=31 163 8 82 167 75 75 2 108 26 2 96 42 53 44
split_gain=5467.62 2997.67 2652.15 2611.45 2678.18 2476.41 2665.02 2681.93 3586.28 5022.77 3433.8 3170.45 3137.75 2701.79 2927.76
threshold=32.500000000000007 1.0000000180025095e-35 85.000000000000014 805.00000000000011 1.0000000180025095e-35 76.000000000000014 15.000000000000002 131.00000000000003 481.50000000000006 137.00000000000003 82.500000000000014 72.500000000000014 505.00000000000006 182.50000000000003 485.00000000000006
decision_type=2 2 2 2 2 2 2 2 2 2 2 2 2 2 2
left_child=1 2 3 4 5 6 7 8 10 11 -1 -10 13 -9 -15
right_child=-2 -3 -4 -5 -6 -7 -8 12 9 -11 -12 -13 -14 14 -16
leaf_value=0.021442577356174983 -0.63234338760375985 -0.59034997469612527 -0.43023645316853243 -0.55578233256936072 0.27739090387864657 0.15194609621607202 -0.4738303232192993 0.119355525465136 -0.27341188100369079 -0.92222731895744803 -0.16894446352186304 0.25869946278430322 -0.44297909346120118 -0.02172267259371401 -0.67170486840463828
leaf_count=1333 34 21 34 20 96 276 30 781 115 24 288 37 29 99 21
internal_value=0 0.101421 0.179987 0.274837 0.347643 0.183047 -0.102851 0.00027087 -0.713155 -5.00045 -0.247663 -2.8777 1.37879 1.70833 -2.70939
internal_count=3238 3204 3183 3149 3129 3033 2757 2727 1797 176 1621 152 930 901 120
shrinkage=0.05


Tree=18
num_leaves=16
num_cat=0
split_feature=31 163 79 154 82 27 82 43 151 127 81 53 44 51 14
split_gain=4934.53 2705.4 2407.43 2686.25 2766.33 9390.23 2615.49 2575.6 3070.99 2507.91 3219.38 2841.99 2395.77 2254.9 2937.79
threshold=32.500000000000007 1.0000000180025095e-35 205.00000000000003 31.500000000000004 96.000000000000014 192.50000000000003 805.00000000000011 55.000000000000007 72.500000000000014 72.500000000000014 255.00000000000003 45.000000000000007 1.0000000180025095e-35 245.00000000000003 151.00000000000003
decision_type=2 2 2 2 2 2 2 2 2 2 2 2 2 2 2
left_child=1 2 3 4 5 7 9 13 -9 10 -6 -11 -13 14 -1
right_child=-2 -3 -4 -5 6 -7 -8 8 -10 11 -12 12 -14 -15 -16
leaf_value=-0.027464263145024238 -0.60072624262641461 -0.56083248115721207 0.15344070757707376 -0.58197874367237101 0.035059295912189814 -0.90375158159295099 -0.52799322485923772 -0.11447625492793928 -0.76128878226131214 0.47530903712562894 -0.56107712893382367 -0.18577585442393435 0.27687223017696411 0.097611911143176258 -0.35347005051451846
leaf_count=674 34 21 263 20 1478 32 20 69 25 69 23 51 62 320 77
internal_value=0 0.0963499 0.170988 -0.0900149 -0.0103627 -1.17533 0.808465 -0.711131 -5.73002 0.943561 0.518493 4.44921 1.36133 -0.270631 -1.21779
internal_count=3238 3204 3183 2920 2900 1197 1703 1165 94 1683 1501 182 113 1071 751
shrinkage=0.05


Tree=19
num_leaves=16
num_cat=0
split_feature=31 163 80 117 9 154 117 51 66 124 82 9 77 42 51
split_gain=4453.41 2441.62 2339.74 4909.25 6272.96 2972.92 2384.71 2967.7 2801.44 3037.53 3149.92 2809.18 2507.34 2392.04 2753.71
threshold=32.500000000000007 1.0000000180025095e-35 7.5000000000000009 115.50000000000001 147.50000000000003 22.500000000000004 181.00000000000003 872.50000000000011 165.00000000000003 55.000000000000007 167.50000000000003 522.50000000000011 205.00000000000003 12.500000000000002 98.000000000000014
decision_type=2 2 2 2 2 2 2 2 2 2 2 2 2 2 2
left_child=1 2 5 -4 -5 6 7 8 9 -1 13 -10 -8 14 -11
right_child=-2 -3 3 4 -6 -7 12 -9 11 10 -12 -13 -14 -15 -16
leaf_value=-0.023688454899202405 -0.57068989136639769 -0.53279087373188572 0.094019581448464173 -1.1951779943136942 -0.19324553032390407 -0.58940060019493101 0.13772309979205163 0.38631501562741338 -0.51830889942014913 -0.59831614617643691 0.26235608175468217 0.12870131945610047 -0.41938109908785137 0.15309349611260981 -0.021251484710309243
leaf_count=1907 34 21 84 21 61 20 528 49 51 29 209 25 21 106 72
internal_value=0 0.0915324 0.162439 -3.49266 -8.99676 0.363548 0.444639 0.0222091 -0.135148 0.0603114 2.50861 -6.10953 2.32826 -0.256364 -3.73887
internal_count=3238 3204 3183 166 82 3017 2997 2448 2399 2323 416 76 549 207 101
shrinkage=0.05


Tree=20
num_leaves=16
num_cat=0
split_feature=8 0 53 79 149 167 81 44 3 18 60 68 9 44 118
split_gain=3651.82 3002.71 5608.26 2732.74 2299.11 2598.03 2519.17 3434.15 3848.08 2287.49 2222.41 2352.88 2159.38 2110.35 2786.42
threshold=85.000000000000014 72.500000000000014 12.500000000000002 645.00000000000011 142.50000000000003 1.0000000180025095e-35 77.500000000000014 182.50000000000003 235.00000000000003 62.500000000000007 177.50000000000003 185.00000000000003 272.50000000000006 501.50000000000006 101.00000000000001
decision_type=2 2 2 2 2 2 2 2 2 2 2 2 2 2 2
left_child=1 3 -3 4 5 6 10 8 -8 -10 11 13 -12 14 -1
right_child=-2 2 -4 -5 -6 -7 7 -9 9 -11 12 -13 -14 -15 -16
leaf_value=0.031383987831318426 -0.46812634656303809 0.1298688941001892 -0.97849790056546537 0.29205539348660053 0.18952460211407338 0.26833415571011993 -0.10735063371671871 0.10513989558586707 -0.9945021978616716 -0.33076050193221485 -0.46554630084530174 -0.50241120493128189 0.074361957273175641 -0.16694478046435579 0.38534104503821909
leaf_count=2266 38 25 21 97 193 95 88 78 25 27 46 21 31 130 57
internal_value=0 0.498599 -7.52249 0.615584 0.449775 0.22465 0.0482352 -3.21459 -6.17713 -12.9973 0.327065 0.491731 -4.96361 0.581963 0.801382
internal_count=3238 3200 46 3154 3057 2864 2769 218 140 52 2551 2474 77 2453 2323
shrinkage=0.05


Tree=21
num_leaves=16
num_cat=0
split_feature=8 0 82 79 146 157 44 32 85 3 169 167 81 44 22
split_gain=3295.77 2709.94 8511.37 2466.29 2210.68 2581.82 2398.97 2423.23 2158.32 2072.39 1932.92 2305.08 2203.69 2512.59 2829.98
threshold=85.000000000000014 72.500000000000014 147.50000000000003 645.00000000000011 265.00000000000006 110.00000000000001 501.50000000000006 45.000000000000007 95.000000000000014 865.00000000000011 250.00000000000003 1.0000000180025095e-35 77.500000000000014 197.50000000000003 12.500000000000002
decision_type=2 2 2 2 2 2 2 2 2 2 2 2 2 2 2
left_child=1 3 -3 4 5 6 7 8 10 -8 11 12 -1 14 -14
right_child=-2 2 -4 -5 -6 -7 9 -9 -10 -11 -12 -13 13 -15 -16
leaf_value=0.035564170819618719 -0.44472000943986995 -1.0993992703301567 0.26602956408262257 0.27745262467369591 -0.4898771602483023 0.3886912620936831 -0.23412998377026378 -0.3721610462343371 0.27197369016626832 0.30926576197147371 -0.46273581266403196 0.29670858599858574 -0.36444174221775555 0.13789889909196318 0.23433028173943363
leaf_count=2404 38 21 25 97 21 48 143 37 93 20 20 79 111 57 24
internal_value=0 0.473669 -7.14637 0.584804 0.427287 0.498012 0.381131 0.596363 0.703057 -3.34911 0.539612 0.61284 0.450904 -2.80926 -5.15987
internal_count=3238 3200 46 3154 3057 3036 2988 2825 2788 163 2695 2675 2596 192 135
shrinkage=0.05


Tree=22
num_leaves=16
num_cat=0
split_feature=8 0 53 9 81 141 3 3 3 53 48 27 108 26 149
split_gain=2974.43 2445.72 5230.65 2339.05 2603.48 2782.82 3499.59 2593.5 2391.03 4809.04 2339.67 2455.65 2229.62 4659.3 3503.14
threshold=85.000000000000014 72.500000000000014 1.0000000180025095e-35 835.00000000000011 62.500000000000007 72.500000000000014 452.50000000000006 222.50000000000003 512.50000000000011 117.50000000000001 52.500000000000007 27.500000000000004 445.00000000000006 137.00000000000003 45.000000000000007
decision_type=2 2 2 2 2 2 2 2 2 2 2 2 2 2 2
left_child=1 3 -3 4 5 6 10 -6 9 -9 12 -12 -1 14 -14
right_child=-2 2 -4 -5 7 -7 -8 8 -10 -11 11 -13 13 -15 -16
leaf_value=0.0060874175422949636 -0.42248400041931555 0.19372151312620745 -0.8726264347038839 0.13360212791178908 -0.0088042867875524934 0.15902991608028419 0.12753998156604132 -0.97459403141852352 -0.062759793289872107 -0.04253689312934876 -0.46230867209940635 0.16871104694548109 -0.28003985797516023 -0.8600793239745228 0.17832659143540597
leaf_count=1404 38 23 23 448 140 337 454 31 43 25 58 21 99 22 72
internal_value=0 0.449985 -6.78905 0.555564 0.205164 0.510465 0.0880069 -2.9462 -6.86354 -11.1699 -0.579122 -5.89139 -0.316336 -3.50323 -1.74087
internal_count=3238 3200 46 3154 2706 2467 2130 239 99 56 1676 79 1597 193 171
shrinkage=0.05


Tree=23
num_leaves=16
num_cat=0
split_feature=89 9 0 82 28 51 85 85 146 39 79 117 124 51 108
split_gain=2736.19 8057.41 2711.51 7569.15 2497.19 3548.15 2691.45 4152.45 2789.31 2355.88 2239.11 1928.31 4801.5 2219.65 2039.95
threshold=185.00000000000003 85.000000000000014 72.500000000000014 197.50000000000003 37.500000000000007 98.000000000000014 87.500000000000014 55.000000000000007 1.0000000180025095e-35 155.00000000000003 645.00000000000011 232.50000000000003 147.50000000000003 872.50000000000011 510.00000000000006
decision_type=2 2 2 2 2 2 2 2 2 2 2 2 2 2 2
left_child=2 -2 4 -4 6 -6 7 8 9 10 11 13 -13 14 -1
right_child=1 -3 3 -5 5 -7 -8 -9 -10 -11 -12 12 -14 -15 -16
leaf_value=0.011084047279072307 -1.1021497147423882 0.15069686529706375 -0.96604320903619145 0.35099747985601426 -0.79429982622916051 0.11432470310302008 0.27951250340894002 -0.56099339514970781 0.37661403854165165 -0.45038448778482582 0.27317244538209506 0.19514399974330054 -0.46869168181593218 0.3694605468249903 -0.16854303477003296
leaf_count=2250 21 33 24 20 22 21 107 30 57 26 90 296 30 41 170
internal_value=0 -6.73042 0.447979 -7.34777 0.557219 -7.01106 0.6623 0.485948 0.604588 0.468564 0.554203 0.39567 2.6811 0.092927 -0.0306877
internal_count=3238 54 3184 44 3140 43 3097 2990 2960 2903 2877 2787 326 2461 2420
shrinkage=0.05


Tree=24
num_leaves=16
num_cat=0
split_feature=8 159 31 146 160 44 3 9 32 141 38 2 3 52 77
split_gain=2661.5 2298.25 2682.25 2124.16 2062.24 2242.92 1903.93 2680.86 3088.2 3071.93 2269.74 4687.45 2624.52 2450.43 5396.19
threshold=85.000000000000014 175.00000000000003 32.500000000000007 235.00000000000003 1.0000000180025095e-35 594.00000000000011 512.50000000000011 835.00000000000011 55.000000000000007 85.000000000000014 152.50000000000003 92.500000000000014 45.000000000000007 12.500000000000002 175.00000000000003
decision_type=2 2 2 2 2 2 2 2 2 2 2 2 2 2 2
left_child=1 2 3 4 5 6 7 8 9 10 13 -12 -13 -1 -15
right_child=-2 -3 -4 -5 -6 -7 -8 -9 -10 -11 11 12 -14 14 -16
leaf_value=-0.056503721436782353 -0.40039259603149013 0.34704843079144099 -0.44040017351508143 -0.49391779594123364 0.50540034229105169 -0.18366676578154931 0.11598008571243357 0.13436649407705534 -0.5644750771522522 0.15071604469784233 0.059971891578875093 -0.18804036107930272 -0.91225933185939123 0.11963469038445335 -0.49164890203720485
leaf_count=1130 38 53 32 20 22 130 514 368 25 273 57 22 29 486 39
internal_value=0 0.410648 0.300668 0.39424 0.460622 0.391555 0.571112 0.201115 -0.242809 -0.107167 -0.590528 -5.03222 -11.997 -0.300677 1.4845
internal_count=3238 3200 3147 3115 3095 3073 2943 2429 2061 2036 1763 108 51 1655 525
shrinkage=0.05


Tree=25
num_leaves=16
num_cat=0
split_feature=82 43 60 3 18 1 62 56 3 44 117 2 14 149 42
split_gain=2785.79 6331.83 10848.9 3982.93 2912.51 2905.21 3075.38 3729.66 2881.97 4324.38 3767.52 2792.56 3633.81 3193.94 3122.03
threshold=167.50000000000003 55.000000000000007 47.500000000000007 545.00000000000011 127.50000000000001 352.50000000000006 72.500000000000014 85.000000000000014 127.50000000000001 17.500000000000004 17.500000000000004 145.00000000000003 17.500000000000004 85.000000000000014 485.00000000000006
decision_type=2 2 2 2 2 2 2 2 2 2 2 2 2 2 2
left_child=1 3 4 5 -3 6 11 -8 -2 10 -10 12 13 14 -1
right_child=8 2 -4 -5 -6 -7 7 -9 9 -11 -12 -13 -14 -15 -16
leaf_value=-0.13324843203285006 0.11330411715772902 -0.33212742239236831 -1.3440686246623166 0.13800608207347301 0.11623805137696092 0.26655433685032287 0.062603801967914083 -0.61867819172995431 -0.74222121387720108 0.031780436140512909 -0.11576253086742427 -0.0015618542009901929 -0.43838989245416848 0.29207807481288911 -0.70648469185829166
leaf_count=476 685 110 23 322 54 67 463 21 36 402 72 327 113 42 25
internal_value=0 -0.996086 -6.54233 -0.437279 -3.6899 -1.10844 -1.40254 0.660881 0.926095 -0.873691 -6.49164 -2.41851 -3.60851 -2.53485 -3.23706
internal_count=3238 2043 187 1856 164 1534 1467 484 1195 510 108 983 656 543 501
shrinkage=0.05


Tree=26
num_leaves=16
num_cat=0
split_feature=82 43 60 27 3 141 27 186 44 2 3 44 27 14 38
split_gain=2514.17 5714.48 9791.16 5435.8 3058.9 2726.44 2674.9 2899.8 3405.77 3381.2 2600.98 3902.75 5426.62 2554.65 4609.98
threshold=167.50000000000003 55.000000000000007 47.500000000000007 222.50000000000003 545.00000000000011 105.00000000000001 75.500000000000014 14.500000000000002 1.0000000180025095e-35 92.500000000000014 127.50000000000001 17.500000000000004 37.500000000000007 47.500000000000007 42.500000000000007
decision_type=2 2 2 2 2 2 2 2 2 2 2 2 2 2 2
left_child=1 3 6 4 5 13 7 8 -3 -10 -2 12 -12 -1 -15
right_child=10 2 -4 -5 -6 -7 -8 -9 9 -11 11 -13 -14 14 -16
leaf_value=-0.029163474049829441 0.10763891140909961 -0.95410770433289671 -1.2768651941548224 -0.75306741333007821 0.12939430353031539 0.18114263725093033 0.351668275537945 0.13552128308349184 0.16340756099671128 -0.48520155190317721 -0.11890553761096229 0.030191416854029568 -0.9714190768388411 -0.1189210710461151 -0.73810735498155866
leaf_count=1135 685 21 23 25 321 127 21 36 32 54 84 402 24 213 35
internal_value=0 -0.946282 -6.21521 -0.415415 -0.215443 -0.811382 -3.5054 -5.05305 -7.66507 -4.87717 0.87979 -0.830007 -6.16706 -1.21858 -4.12612
internal_count=3238 2043 187 1856 1831 1510 164 143 107 86 1195 510 108 1383 248
shrinkage=0.05


Tree=27
num_leaves=16
num_cat=0
split_feature=62 0 53 51 27 82 123 18 80 130 108 123 145 2 127
split_gain=2302.95 2795.97 4501 2515.34 2499.83 19522.7 2565.24 3633.36 3556.59 2927.98 2604.14 2453.27 2403.77 2466.52 2402.4
threshold=545.00000000000011 72.500000000000014 12.500000000000002 302.50000000000006 185.00000000000003 96.000000000000014 92.500000000000014 120.50000000000001 125.00000000000001 122.50000000000001 555.00000000000011 102.50000000000001 90.000000000000014 195.00000000000003 32.500000000000007
decision_type=2 2 2 2 2 2 2 2 2 2 2 2 2 2 2
left_child=1 4 -3 -2 6 -6 7 8 9 12 -9 -8 13 14 -1
right_child=3 2 -4 -5 5 -7 11 10 -10 -11 -12 -13 -14 -15 -16
leaf_value=-0.14916056922380011 0.35123625258200392 0.020330324255186938 -0.92808600122278395 -0.10682925491229348 -1.3225761080941847 0.12436362213276803 0.25033331289887428 0.076310307088502838 -0.65741347647630255 0.42142132719357805 -0.4644165163454802 0.027076268554886113 0.39865608903077931 0.032499160137902723 0.095585930992716131
leaf_count=957 86 29 22 46 31 94 157 698 26 30 23 569 26 332 112
internal_value=0 -0.432599 -7.77581 3.83215 -0.310012 -4.68955 -0.123172 -0.660194 -1.55545 -1.34857 1.18122 1.50713 -1.55412 -1.73093 -2.47037
internal_count=3238 3106 51 132 3055 125 2930 2204 1483 1457 721 726 1427 1401 1069
shrinkage=0.05


Tree=28
num_leaves=16
num_cat=0
split_feature=82 8 0 27 18 81 81 145 1 3 44 27 38 5 5
split_gain=2178.17 5515.72 4327.77 3653.67 2929.49 2766.33 2549.34 2335.74 2471.31 2267.97 3554.24 4906.4 2242.17 2235.17 3204.87
threshold=167.50000000000003 77.500000000000014 62.500000000000007 245.00000000000003 127.50000000000001 122.50000000000001 69.000000000000014 17.500000000000004 322.50000000000006 127.50000000000001 17.500000000000004 37.500000000000007 172.50000000000003 555.00000000000011 775.00000000000011
decision_type=2 2 2 2 2 2 2 2 2 2 2 2 2 2 2
left_child=1 2 3 4 5 7 -6 8 13 12 11 -11 -2 -1 -15
right_child=9 -3 -4 -5 6 -7 -8 -9 -10 10 -12 -13 -14 14 -16
leaf_value=-0.061213711002385263 0.1282781809722883 -0.86992022395133972 -0.61233802661299708 -0.62686292695999146 0.037926975878964861 -0.47776216579935493 0.40878500834107401 0.32577726975083354 0.28894724256048598 -0.1130208479506629 0.029916046388373155 -0.92364248639593516 -0.19666069920720727 -0.82207816851635784 -0.06743064601631725
leaf_count=1098 627 20 32 25 633 39 50 40 48 84 402 24 58 24 34
internal_value=0 -0.87308 -0.709705 -0.524278 -0.371519 -1.26216 1.30152 -1.00216 -1.25192 0.826597 -0.769997 -5.86318 2.0153 -1.54386 -7.59397
internal_count=3238 2043 2023 1991 1966 1283 683 1244 1204 1195 510 108 685 1156 58
shrinkage=0.05


Tree=29
num_leaves=16
num_cat=0
split_feature=52 80 26 68 0 51 108 18 27 66 96 1 42 127 63
split_gain=2159.83 4434.08 8292.61 3393.33 3200.36 2759.96 5143.85 8298.1 3504.16 3441.42 2584.56 2536.71 2461.73 1938.61 1854.08
threshold=12.500000000000002 7.5000000000000009 165.00000000000003 135.00000000000003 62.500000000000007 145.00000000000003 488.00000000000006 12.500000000000002 222.50000000000003 185.00000000000003 112.50000000000001 57.500000000000007 545.00000000000011 55.000000000000007 293.00000000000006
decision_type=2 2 2 2 2 2 2 2 2 2 2 2 2 2 2
left_child=1 3 11 4 5 6 8 -8 10 12 13 -3 -7 -1 -2
right_child=14 2 -4 -5 -6 9 7 -9 -10 -11 -12 -13 -14 -15 -16
leaf_value=-0.067976618659052662 0.037787967513188289 0.019810818088433102 -1.2716903939843178 -0.61386654600501067 -0.48357990682125096 0.075529197499009909 -1.2284357699565591 0.086391762395699831 -0.61436417240362906 -0.44668837417574497 0.21880819762183218 -0.6147381163778759 -0.47136792767615554 0.30654636787561085 0.38997565698929326
leaf_count=859 894 63 20 24 36 1020 24 24 26 34 97 21 21 36 39
internal_value=0 -0.753125 -7.1337 -0.451635 -0.321264 -0.164042 -1.30421 -11.4204 -0.827216 0.96658 -0.526852 -2.77653 1.28993 -1.05824 1.05019
internal_count=3238 2305 104 2201 2177 2141 1066 48 1018 1075 992 84 1041 895 933
shrinkage=0.05


Tree=30
num_leaves=16
num_cat=0
split_feature=32 134 1 38 3 149 2 86 0 53 25 81 75 27 27
split_gain=3526.47 2678.63 2754.41 3146.01 3502.05 3657.78 3078.13 2564.18 2357.08 2217.53 2036.78 1943.55 1981 2602.17 4692.81
threshold=45.000000000000007 35.000000000000007 322.50000000000006 152.50000000000003 241.50000000000003 45.000000000000007 22.500000000000004 215.00000000000003 72.500000000000014 12.500000000000002 47.500000000000007 255.00000000000003 76.000000000000014 203.00000000000003 268.50000000000006
decision_type=2 2 2 2 2 2 2 2 2 2 2 2 2 2 2
left_child=1 2 3 7 5 6 10 8 11 -6 -5 12 13 -1 -15
right_child=-2 -3 -4 4 9 -7 -8 -9 -10 -11 -12 -13 -14 14 -16
leaf_value=0.0069634394684465299 -0.47851046499533534 -0.47852290724885882 0.22519528349792517 -0.45073303568821688 -0.19135060855528205 0.23691000125624917 -0.69692274710488711 0.391485785744911 -0.39400978201144454 0.33191856406629089 0.22041699111461643 -0.38590807530187793 0.15196601906791329 -0.8294476729172926 0.08832109530766806
leaf_count=2424 39 29 135 26 41 22 63 43 37 40 20 31 232 26 30
internal_value=0 -0.00335981 0.0841625 -0.112432 -3.82769 -7.02364 -9.39759 0.166574 0.048043 1.34108 -3.17857 0.154986 0.244981 -0.0164244 -6.75572
internal_count=3238 3199 3170 3035 212 131 109 2823 2780 81 46 2743 2712 2480 56
shrinkage=0.05


Tree=31
num_leaves=16
num_cat=0
split_feature=32 60 27 0 52 31 75 66 53 169 81 186 62 99 63
split_gain=3182.64 2469.62 8430.38 4569.38 3883.18 3758.86 2658.79 2313.42 2780.37 2304.76 2146.66 2699.66 2722.56 2446.72 2025.54
threshold=45.000000000000007 42.500000000000007 176.00000000000003 1.0000000180025095e-35 235.00000000000003 55.000000000000007 345.00000000000006 175.00000000000003 12.500000000000002 325.00000000000006 37.500000000000007 4.5000000000000009 187.50000000000003 77.500000000000014 25.000000000000004
decision_type=2 2 2 2 2 2 2 2 2 2 2 2 2 2 2
left_child=1 5 3 4 10 6 7 9 -9 -1 13 12 -12 14 -3
right_child=-2 2 -4 -5 -6 -7 -8 8 -10 -11 11 -13 -14 -15 -16
leaf_value=0.024064492831459148 -0.45458492412207985 0.065468732133175292 -0.80018222332000732 -0.7848959521204234 -0.56090385875394266 0.65820859100507656 0.51913465118178959 -0.57952754847291443 0.012973248078064485 -0.51490663528442393 0.23191387202694186 -0.72435211062431337 -0.41302481810251868 0.47141329591924497 -0.26174054013358222
leaf_count=2406 39 381 39 20 31 23 26 36 44 20 36 20 30 33 54
internal_value=0 -0.00319181 -1.75328 -0.834664 -0.326519 0.437927 0.322325 0.217948 -5.07304 0.392424 0.282937 -4.30904 -1.2248 1.12676 0.496993
internal_count=3238 3199 644 605 585 2555 2532 2506 80 2426 554 86 66 468 435
shrinkage=0.05


Tree=32
num_leaves=16
num_cat=0
split_feature=32 134 1 38 3 124 2 51 86 0 53 42 27 10 82
split_gain=2872.33 2384.25 2449.35 2759.66 3143.44 2872.86 2782.37 2941.17 2333.1 2050.21 1979.46 1884.57 7219.09 2234.3 3687.82
threshold=45.000000000000007 35.000000000000007 322.50000000000006 152.50000000000003 241.50000000000003 22.500000000000004 22.500000000000004 252.50000000000003 215.00000000000003 72.500000000000014 12.500000000000002 477.50000000000006 47.500000000000007 355.00000000000006 46.500000000000007
decision_type=2 2 2 2 2 2 2 2 2 2 2 2 2 2 2
left_child=1 2 3 8 5 6 7 -5 9 11 -6 13 -13 -1 -15
right_child=-2 -3 -4 4 10 -7 -8 -9 -10 -11 -12 12 -14 14 -16
leaf_value=0.022930328875424278 -0.4318556891037868 -0.45145616819118639 0.21236752447706683 -0.58211870761144735 -0.17856672162689813 0.13987336112902715 -0.67008711412549027 0.22813501805067063 0.37325790358144184 -0.3675883257711256 0.31581704601645472 -0.0072315412668549281 -1.028787284947577 -0.82003336861020049 0.0055853484492552914
leaf_count=2565 39 29 135 21 41 26 60 24 43 37 40 98 21 21 38
internal_value=0 -0.00303223 0.0795408 -0.105848 -3.5855 -6.6134 -8.94371 -2.99967 0.155465 0.0424018 1.31147 0.142141 -3.75012 0.318657 -5.76558
internal_count=3238 3199 3170 3035 212 131 105 45 2823 2780 81 2743 119 2624 59
shrinkage=0.05


Tree=33
num_leaves=16
num_cat=0
split_feature=32 66 44 82 134 1 47 130 39 82 43 27 117 44 18
split_gain=2592.28 2156.32 3201.12 4801.08 2484.86 1964.09 2125.51 2089.71 2741.61 1972.23 4056.31 5265.99 4921.14 6850.43 2569.73
threshold=45.000000000000007 165.00000000000003 197.50000000000003 116.00000000000001 35.000000000000007 322.50000000000006 45.000000000000007 122.50000000000001 155.00000000000003 96.000000000000014 55.000000000000007 192.50000000000003 137.50000000000003 97.500000000000014 62.500000000000007
decision_type=2 2 2 2 2 2 2 2 2 2 2 2 2 2 2
left_child=1 4 3 -3 5 6 7 8 9 10 11 14 13 -12 -1
right_child=-2 2 -4 -5 -6 -7 -8 -9 -10 -11 12 -13 -14 -15 -16
leaf_value=-0.080538033859134675 -0.41026290209772881 -0.0028248218090637872 0.021649071720779921 -1.0038068609237671 -0.46131803052765985 0.19977750343487677 0.33685393479276216 0.27385491025425607 -0.55234738873398825 0.031220224749367666 -0.12679509181115364 -0.68965865579144714 0.14419172379103573 -1.1322371739894153 0.07773918647283333
leaf_count=548 39 23 61 25 28 133 47 67 23 1632 36 29 33 32 482
internal_value=0 -0.00288063 -4.37423 -10.4834 0.151319 0.237072 0.0664069 -0.0423792 -0.173749 -0.0841772 -1.08108 -0.503582 -7.13622 -11.9989 -0.129409
internal_count=3238 3199 109 48 3090 3062 2929 2882 2815 2792 1160 1059 101 68 1030
shrinkage=0.05


Tree=34
num_leaves=16
num_cat=0
split_feature=32 60 27 186 31 149 99 75 163 51 63 123 60 60 123
split_gain=2339.53 2232.17 7378.48 4157.91 3373.47 2823.3 2659.75 2388.33 2061.98 2051.58 3378.02 2627.83 2572.87 3443 2491.56
threshold=45.000000000000007 42.500000000000007 176.00000000000003 99.500000000000014 55.000000000000007 102.50000000000001 77.500000000000014 345.00000000000006 1.0000000180025095e-35 200.50000000000003 77.500000000000014 142.50000000000003 177.50000000000003 77.500000000000014 227.50000000000003
decision_type=2 2 2 2 2 2 2 2 2 2 2 2 2 2 2
left_child=1 4 3 5 7 6 9 8 -1 10 14 12 13 -11 -3
right_child=-2 2 -4 -5 -6 -7 -8 -9 -10 11 -12 -13 -14 -15 -16
leaf_value=0.014579236157560793 -0.3897497518322407 0.10760175606644735 -0.74991387220529415 -0.71512366208163181 0.62364248814790146 0.32602246999740603 0.39140570387244228 0.49210471820372803 -0.48296238240741546 -0.50997602849636436 -0.48314984422177076 0.15528847396373749 -0.73310830720833375 0.019473604100105697 -0.42611887902021411
leaf_count=2485 39 246 39 22 23 55 32 26 21 53 32 40 28 73 24
internal_value=0 -0.00273659 -1.66657 -0.807166 0.416639 -0.297909 -1.00815 0.307124 0.208198 -1.57824 0.0518135 -4.11574 -5.99145 -4.06463 1.2032
internal_count=3238 3199 644 605 2555 583 528 2532 2506 496 302 194 154 126 270
shrinkage=0.05


Tree=35
num_leaves=16
num_cat=0
split_feature=149 167 78 55 1 31 108 141 2 26 151 45 124 51 117
split_gain=2653.32 2617.22 2610.89 2695.72 2405.32 3343.64 2344.63 5175.02 3199.96 5460.37 2078.56 1878.36 1864.32 4987.37 1792.42
threshold=142.50000000000003 625.00000000000011 102.50000000000001 82.000000000000014 315.00000000000006 32.500000000000007 361.50000000000006 72.500000000000014 145.00000000000003 85.000000000000014 190.00000000000003 97.500000000000014 72.500000000000014 207.50000000000003 181.00000000000003
decision_type=2 2 2 2 2 2 2 2 2 2 2 2 2 2 2
left_child=1 2 3 4 5 6 14 8 9 10 12 -10 13 -8 -1
right_child=-2 -3 -4 -5 -6 -7 7 -9 11 -11 -12 -13 -14 -15 -16
leaf_value=-0.034534517039102687 0.18772168155963445 0.37035891882916716 0.24813761695155076 0.16574599794352179 0.19857969568893974 -0.56188093264897665 -0.11873100810759776 0.27553998119426221 0.20662260109728037 -1.0036169911672672 0.16544201370949549 -0.35921743457967586 -0.061046531134181549 -0.98625578403472902 0.08272770202534302
leaf_count=1885 201 47 98 194 113 30 37 53 44 30 24 22 36 30 394
internal_value=0 0.00286625 -0.113523 -0.28554 -0.544432 -0.741844 -0.618606 -3.37131 -5.4823 -7.93838 -5.07209 0.360185 -7.02493 -10.1435 -0.285238
internal_count=3238 3037 2990 2892 2698 2585 2555 276 223 157 127 66 103 67 2279
shrinkage=0.05


Tree=36
num_leaves=16
num_cat=0
split_feature=149 80 167 149 157 38 61 27 117 124 3 53 6 60 27
split_gain=2394.62 2625.7 2558.6 2314.12 2734.2 2624.98 2028.09 1959.79 5558.2 1934.17 2405.51 1982.9 1877.9 2008.12 1816.68
threshold=142.50000000000003 151.00000000000003 1.0000000180025095e-35 115.00000000000001 110.00000000000001 145.00000000000003 81.500000000000014 222.50000000000003 97.000000000000014 141.00000000000003 282.50000000000006 45.000000000000007 95.000000000000014 17.500000000000004 75.500000000000014
decision_type=2 2 2 2 2 2 2 2 2 2 2 2 2 2 2
left_child=1 2 3 4 5 6 7 14 -9 10 12 -12 13 -7 -1
right_child=-2 -3 -4 -5 -6 9 -8 8 -10 -11 11 -13 -14 -15 -16
leaf_value=0.0061328976620692371 0.17833560133047069 -0.47335298266904113 0.25867683986822765 -0.44808893943655081 0.38319499687008235 -0.31505209758049912 -0.29413672020589865 -0.73096599042415622 0.31535956751216543 0.20302376117437118 -0.22784242387861015 0.27643914835793632 0.022206766330278838 -0.81407430044242324 0.13769206765776612
leaf_count=2197 201 29 96 29 46 72 54 30 22 31 44 35 26 28 298
internal_value=0 0.00272292 0.0940207 -0.0734359 0.0159717 -0.108034 0.181713 0.310288 -5.7658 -3.30139 -4.41465 -0.0885307 -7.12706 -9.09557 0.436924
internal_count=3238 3037 3008 2912 2883 2837 2601 2547 52 236 205 79 126 100 2495
shrinkage=0.05


Tree=37
num_leaves=16
num_cat=0
split_feature=149 80 167 128 108 62 123 26 43 44 78 66 80 80 8
split_gain=2161.15 2369.69 2309.14 2118.17 2525.39 3261.55 3056.18 4554.38 2265.54 2100.55 1963.82 2178.96 2085.18 3264.91 2362.22
threshold=142.50000000000003 151.00000000000003 1.0000000180025095e-35 75.000000000000014 445.00000000000006 405.00000000000006 52.500000000000007 137.00000000000003 22.500000000000004 87.500000000000014 102.50000000000001 185.00000000000003 72.500000000000014 7.5000000000000009 85.000000000000014
decision_type=2 2 2 2 2 2 2 2 2 2 2 2 2 2 2
left_child=1 2 3 4 10 6 7 8 -6 -8 11 12 13 14 -1
right_child=-2 -3 -4 -5 5 -7 9 -9 -10 -11 -12 -13 -14 -15 -16
leaf_value=0.0026308585788879196 0.16941882236049841 -0.44968532570477193 0.24574299740294614 0.39481907938465932 -0.14836195154536155 0.26111241767280985 0.29233542316489752 -1.0385067544200204 -0.73495733290910725 -0.27415989557902021 0.23298324254219949 -0.27330437923471135 0.32865292162311321 -0.40906314974029856 0.52314935705878518
leaf_count=2357 201 29 96 33 93 38 36 22 20 30 92 72 49 48 22
internal_value=0 0.00258677 0.0893197 -0.0697641 -0.161075 -3.27384 -4.88007 -7.60651 -5.04368 0.696751 0.120725 -0.0431612 0.114533 -0.0158617 0.148888
internal_count=3238 3037 3008 2912 2879 239 201 135 113 66 2640 2548 2476 2427 2379
shrinkage=0.05


Tree=38
num_leaves=16
num_cat=0
split_feature=55 9 42 5 5 0 118 141 38 1 9 5 108 26 61
split_gain=1977.8 2483.6 3356.04 4257.41 2487.77 2973.69 2612.56 2475.94 2948.5 2502.07 2463.85 2844.06 2085.65 6494.52 2058.07
threshold=82.000000000000014 835.00000000000011 485.00000000000006 251.00000000000003 355.00000000000006 72.500000000000014 167.50000000000003 72.500000000000014 145.00000000000003 46.000000000000007 462.50000000000006 49.000000000000007 488.00000000000006 137.00000000000003 42.500000000000007
decision_type=2 2 2 2 2 2 2 2 2 2 2 2 2 2 2
left_child=1 2 4 -4 5 6 7 8 12 -9 11 -10 14 -14 -1
right_child=-2 -3 3 -5 -6 -7 -8 9 10 -11 -12 -13 13 -15 -16
leaf_value=-0.0028103576929182183 0.16080698891013279 0.10981351071291351 -0.66233472969796925 0.029345342652364211 0.10602855125942559 -0.56113325426211724 0.46555896909148609 0.016803103744858452 0.0087027809799534016 0.33852744315877376 -0.70417373268692585 -0.53434757157746293 -0.067487551843313343 -0.94585507535934443 -0.30685135209932923
leaf_count=1379 204 440 45 44 402 26 27 238 73 81 27 36 133 25 58
internal_value=0 -0.00053355 -0.37316 -6.40761 -0.158763 -0.59447 -0.461425 -0.590138 -1.06192 1.9699 -5.53146 -3.41307 -0.680816 -4.1294 -0.30164
internal_count=3238 3034 2594 89 2505 2103 2077 2050 1731 319 136 109 1595 158 1437
shrinkage=0.05


Tree=39
num_leaves=16
num_cat=0
split_feature=151 154 38 27 130 130 128 118 25 55 3 0 25 123 44
split_gain=2016.39 2336.49 2347.27 2905.96 2380.41 2513.71 2168.71 2153.27 1996.75 2133.04 2338.71 2618.04 2546.83 2421.2 4023.52
threshold=333.00000000000006 22.500000000000004 145.00000000000003 127.50000000000001 265.00000000000006 105.00000000000001 75.000000000000014 42.500000000000007 390.00000000000006 77.500000000000014 517.50000000000011 62.500000000000007 185.00000000000003 27.500000000000004 157.50000000000003
decision_type=2 2 2 2 2 2 2 2 2 2 2 2 2 2 2
left_child=1 2 4 7 5 6 8 -4 9 10 11 12 -1 14 -14
right_child=-2 -3 3 -5 -6 -7 -8 -9 -10 -11 -12 -13 13 -15 -16
leaf_value=-0.0075065473410064771 0.15097208262508752 -0.54003602474927903 -0.15192147163515116 0.41410321650050935 -0.51498161951700849 0.3818946720120755 0.44307338862583556 -0.69617288887500761 0.25591859132805961 0.17239791790365117 0.097348375914209501 -0.52279934794814498 -0.036788674654104771 0.10612970086581566 -0.54464515021596205
leaf_count=1755 234 20 199 21 21 47 29 20 79 169 410 27 78 51 78
internal_value=0 -0.0282288 0.0439729 -2.95497 0.306271 0.388065 0.260732 -4.0325 0.166504 0.0141689 -0.227728 -0.676006 -0.541419 -3.85886 -5.81434
internal_count=3238 3004 2984 240 2744 2723 2676 219 2647 2568 2399 1989 1962 207 156
shrinkage=0.05


Tree=40
num_leaves=16
num_cat=0
split_feature=131 85 127 85 146 88 79 5 42 42 44 186 53 60 74
split_gain=2694.63 2586.2 2447.26 3199.58 2811.79 2295.63 2174.52 2731.04 3920.83 5026.88 3584.7 3032.32 6937.41 2291.65 1930.96
threshold=51.000000000000007 95.000000000000014 77.500000000000014 55.000000000000007 1.0000000180025095e-35 1.0000000180025095e-35 205.00000000000003 285.00000000000006 477.50000000000006 595.00000000000011 582.50000000000011 90.500000000000014 132.50000000000003 222.50000000000003 1.0000000180025095e-35
decision_type=2 2 2 2 2 2 2 2 2 2 2 2 2 2 2
left_child=1 2 3 4 5 6 7 8 10 -10 11 13 -13 14 -1
right_child=-2 -3 -4 -5 -6 -7 -8 -9 9 -11 -12 12 -14 -15 -16
leaf_value=-0.044527746608473986 -0.58464751601219178 0.23466977116794469 0.14599492902341096 -0.56523106329970896 0.32621027272644232 0.26585422595116226 0.11247831417437076 0.067807358657773459 -0.94231281465497507 -0.046223709162543807 -0.40445293883482619 -0.072918444345979133 -1.0774669730144999 0.4761307347904552 0.33050128864390516
leaf_count=1774 20 111 230 27 58 66 236 433 29 34 72 68 23 22 35
internal_value=0 -0.049542 -0.218987 -0.469923 -0.367279 -0.51044 -0.651532 -0.926496 -1.40699 -9.17418 -1.16159 -0.902081 -6.53631 -0.622062 -0.745436
internal_count=3238 3218 3107 2877 2850 2792 2726 2490 2057 63 1994 1922 91 1831 1809
shrinkage=0.05


Tree=41
num_leaves=16
num_cat=0
split_feature=75 113 0 134 31 117 48 80 141 27 143 77 49 28 47
split_gain=2310.58 2545.56 2808.93 2852.79 2608.82 2100.67 3240.06 2985.93 2473.25 2216.78 2146.91 1980.44 1945 2001.62 1774.1
threshold=162.50000000000003 85.000000000000014 72.500000000000014 35.000000000000007 90.000000000000014 161.50000000000003 142.50000000000003 47.500000000000007 470.00000000000006 245.00000000000003 85.000000000000014 218.00000000000003 182.50000000000003 22.500000000000004 4.5000000000000009
decision_type=2 2 2 2 2 2 2 2 2 2 2 2 2 2 2
left_child=1 2 3 4 5 6 8 11 9 10 12 -7 13 14 -1
right_child=-2 -3 -4 -5 -6 7 -8 -9 -10 -11 -12 -13 -14 -15 -16
leaf_value=-0.047836229709359059 0.18071344700417943 0.14505063783068325 -0.46103437913430706 -0.58966619643298068 0.53713276386260989 0.087500112241237854 -0.53878386065815442 -0.53355758757818317 -0.54396616866191227 -0.43984714412327969 0.28730202328484017 -0.40588727905636746 0.26642326128024324 -0.49726068712770943 0.1972810829614664
leaf_count=1787 158 229 37 22 21 646 33 21 24 33 53 21 52 24 77
internal_value=0 -0.306713 -0.564366 -0.450548 -0.361171 -0.445321 -0.945712 1.06967 -0.787474 -0.667926 -0.533326 1.43932 -0.704876 -0.871048 -0.754214
internal_count=3238 3080 2851 2814 2792 2771 2083 688 2050 2026 1993 667 1940 1888 1864
shrinkage=0.05


Tree=42
num_leaves=16
num_cat=0
split_feature=131 85 31 113 77 75 117 85 44 48 27 143 45 51 96
split_gain=2382.78 2342.14 2698.1 2247.8 2426.68 2866.97 2525.58 5146.05 5729.76 3537.45 2569.46 2086.92 2192.57 2090.79 1974.63
threshold=51.000000000000007 95.000000000000014 140.00000000000003 85.000000000000014 315.50000000000006 122.50000000000001 161.50000000000003 22.500000000000004 42.500000000000007 142.50000000000003 245.00000000000003 145.00000000000003 505.00000000000006 872.50000000000011 112.50000000000001
decision_type=2 2 2 2 2 2 2 2 2 2 2 2 2 2 2
left_child=1 2 3 4 5 6 7 9 -9 10 11 12 13 -1 -8
right_child=-2 -3 -4 -5 -6 -7 14 8 -10 -11 -12 -13 -14 -15 -16
leaf_value=-0.046672346993298371 -0.54954719305038446 0.22358011554523902 -0.58903274327516564 0.14188221218380132 -0.36048663650073259 0.19170413443151815 0.03015473816119791 -1.2076398193836213 -0.12881764434278012 -0.5695519074316947 -0.49019611994425455 0.41262907893569384 0.29314347115509654 0.35501345845334459 0.30961804937728693
leaf_count=1767 20 111 20 236 51 162 576 20 32 31 30 27 51 33 71
internal_value=0 -0.0419891 -0.203241 -0.128233 -0.373742 -0.24923 -0.499987 -1.05776 -10.875 -0.794485 -0.622318 -0.475647 -0.602964 -0.786162 1.21645
internal_count=3238 3218 3107 3087 2851 2800 2638 1991 52 1939 1908 1878 1851 1800 647
shrinkage=0.05


Tree=43
num_leaves=16
num_cat=0
split_feature=127 134 85 85 1 47 62 0 52 62 51 5 146 80 42
split_gain=2359.41 2663 2265.66 2742.15 2146.6 2709.34 2340.97 6686.56 2898.86 2867.62 2272.42 2228.15 2119.06 2043.27 1942.66
threshold=77.500000000000014 35.000000000000007 95.000000000000014 55.000000000000007 322.50000000000006 1.0000000180025095e-35 102.50000000000001 72.500000000000014 195.00000000000003 65.000000000000014 27.500000000000004 1.0000000180025095e-35 1.0000000180025095e-35 38.000000000000007 95.000000000000014
decision_type=2 2 2 2 2 2 2 2 2 2 2 2 2 2 2
left_child=1 2 3 4 5 6 7 9 13 12 -11 -12 -1 -8 -10
right_child=-2 -3 -4 -5 -6 -7 8 -9 14 10 11 -13 -14 -15 -16
leaf_value=-0.051059560450736313 0.14364242799640672 -0.59246688365936284 0.2168283832594029 -0.52335844680115029 0.18722550415895819 0.20697276588498045 0.09635895463399903 -0.91431920891222751 -0.44777079659203695 -0.78826755054972386 -0.4918888509135555 0.17023523052533468 0.36602458468367982 -0.24229425210505726 0.055171587038785219
leaf_count=1727 246 20 103 27 123 119 618 23 48 22 27 24 31 48 32
internal_value=0 -0.348902 -0.27151 -0.436944 -0.341654 -0.5265 -0.740058 -1.34196 0.755823 -1.12911 -7.27048 -3.60602 -0.874097 1.43903 -4.93188
internal_count=3238 2992 2972 2869 2842 2719 2600 1854 746 1831 73 51 1758 666 80
shrinkage=0.05


Tree=44
num_leaves=16
num_cat=0
split_feature=131 128 162 28 113 0 74 77 117 75 1 79 27 88 3
split_gain=2141.57 2167.62 1932.63 1773.81 1978.59 2541.32 2053.1 2054.04 2495.02 2035.38 2296.63 2054.3 2256.32 1873.05 1552.01
threshold=51.000000000000007 55.000000000000007 1.0000000180025095e-35 37.500000000000007 85.000000000000014 72.500000000000014 1.0000000180025095e-35 315.50000000000006 147.00000000000003 122.50000000000001 655.00000000000011 205.00000000000003 245.00000000000003 22.500000000000004 1355.0000000000002
decision_type=2 2 2 2 2 2 2 2 2 2 2 2 2 2 2
left_child=1 2 3 4 5 6 7 9 -9 10 11 12 13 14 -1
right_child=-2 -3 -4 -5 -6 -7 -8 8 -10 -11 -12 -13 -14 -15 -16
leaf_value=-0.048436371456429095 -0.52074028253555305 0.35087885038797251 0.34329012754635935 -0.35981846965538961 0.13363284872652129 -0.43562634405162604 0.33838131597674476 -0.055528309568762785 -0.76742789745330819 0.16632064807395275 0.41240401029586793 0.11771821932414094 -0.42357956280833797 0.26755476671457296 0.22047877517613498
leaf_count=2193 20 43 39 36 232 36 41 32 20 151 30 222 38 50 55
internal_value=0 -0.0348157 -0.130328 -0.217334 -0.136287 -0.36351 -0.257378 -0.360576 -6.58672 -0.242373 -0.450598 -0.552615 -0.828878 -0.702497 -0.837141
internal_count=3238 3218 3175 3136 3100 2868 2832 2791 52 2739 2588 2558 2336 2298 2248
shrinkage=0.05


Tree=45
num_leaves=16
num_cat=0
split_feature=8 141 19 108 186 18 142 44 52 96 77 48 151 1 123
split_gain=2317.17 1876.83 2226.74 2033.14 2027.05 2157.33 2095.74 2080.9 1947.34 2150.57 1859.21 1825.78 1791.58 1787.15 2813.97
threshold=85.000000000000014 12.500000000000002 155.00000000000003 666.00000000000011 17.500000000000004 62.500000000000007 72.500000000000014 865.00000000000011 92.500000000000014 95.000000000000014 82.500000000000014 95.000000000000014 333.00000000000006 6.5000000000000009 92.500000000000014
decision_type=2 2 2 2 2 2 2 2 2 2 2 2 2 2 2
left_child=1 2 4 11 6 10 7 12 9 -8 13 -3 -1 14 -6
right_child=-2 3 -4 -5 5 -7 8 -9 -10 -11 -12 -13 -14 -15 -16
leaf_value=-0.020942187236276055 -0.42139632441103458 0.097523428755923749 -0.44536873492701301 0.53769356095790866 -0.22777936992623049 0.18713893311847729 -0.40878695145947863 -0.41425596705521461 0.12599088569836958 0.089229179280144844 0.39950128859943818 -0.36980341144583445 0.17144506883735841 0.16704130206985035 0.096054420063029167
leaf_count=1750 32 418 29 25 161 251 96 32 35 28 27 22 130 87 115
internal_value=0 0.123942 -0.191197 1.98157 -0.0979928 1.456 -0.578973 -0.288882 -4.06735 -5.92663 -0.0157483 1.48314 -0.152776 -0.611219 -1.85697
internal_count=3238 3206 2741 465 2712 641 2071 1912 159 124 390 440 1880 363 276
shrinkage=0.05


Tree=46
num_leaves=16
num_cat=0
split_feature=80 60 86 31 141 25 186 70 28 108 124 3 9 82 45
split_gain=2370.99 6859.76 2731.65 2527.73 2084.26 1988.07 1895.93 2442.85 2763.41 2573.59 4751.91 6786.94 2402.6 1958.62 2856.17
threshold=1.0000000180025095e-35 98.000000000000014 95.000000000000014 90.000000000000014 12.500000000000002 147.50000000000003 17.500000000000004 155.00000000000003 37.500000000000007 488.00000000000006 55.000000000000007 177.50000000000003 394.50000000000006 162.50000000000003 272.50000000000006
decision_type=2 2 2 2 2 2 2 2 2 2 2 2 2 2 2
left_child=3 2 5 4 6 -2 7 8 9 13 11 12 -11 14 -1
right_child=1 -3 -4 -5 -6 -7 -8 -9 -10 10 -12 -13 -14 -15 -16
leaf_value=-0.034869682392380606 0.11175146531955948 -0.96051689684391028 -0.57206920493732805 0.54642029594291341 0.11078000084853896 -0.39711030462513802 0.06723191801192506 0.19880055906596009 -0.55765216413598795 0.11764484271407127 0.17237270802867657 -0.98046306264069349 -0.48008647006133515 0.055433884062878726 -0.32421043162704799
leaf_count=1029 116 24 22 22 428 23 630 108 26 40 49 36 29 563 93
internal_value=0 -3.43873 -1.08769 0.248099 0.170578 0.551026 -0.165676 -0.647935 -0.915703 -0.770966 -4.68404 -8.47874 -2.67151 -0.413332 -1.17705
internal_count=3238 185 161 3053 3031 139 2603 1973 1865 1839 154 105 69 1685 1122
shrinkage=0.05


Tree=47
num_leaves=16
num_cat=0
split_feature=80 60 25 86 31 141 149 108 151 108 124 123 82 44 82
split_gain=2139.81 6190.93 2490.33 3447.28 2281.28 1881.04 1795.07 1999.08 6836.44 1699.5 1639.74 2167.65 3092.17 1678.16 1608.89
threshold=1.0000000180025095e-35 98.000000000000014 151.50000000000003 77.500000000000014 90.000000000000014 12.500000000000002 255.00000000000003 445.00000000000006 202.50000000000003 666.00000000000011 95.000000000000014 52.500000000000007 157.00000000000003 121.50000000000001 162.50000000000003
decision_type=2 2 2 2 2 2 2 2 2 2 2 2 2 2 2
left_child=4 2 3 -2 5 6 7 14 10 -7 11 12 13 -9 -1
right_child=1 -3 -4 -5 -6 9 -8 8 -10 -11 -12 -13 -14 -15 -16
leaf_value=-0.031776304927198566 0.12290868062125751 -0.91249106625715892 -0.5737966084480286 -0.58570565164089206 0.51909927427768709 0.080425312981776742 0.2747433905168013 -0.30669003248214727 -0.95677825932701444 0.50526988172531129 0.17211870374502961 0.17070932686328888 -0.65574978658131189 0.24798423051834106 0.054679216611396034
leaf_count=1507 121 24 20 20 22 403 55 30 24 25 54 36 35 25 837
internal_value=0 -3.2668 -1.0333 0.44792 0.235694 0.162049 -0.157392 -0.279399 -3.28187 2.10482 -1.16804 -3.14394 -5.76719 -1.09131 -0.018092
internal_count=3238 185 161 141 3053 3031 2603 2548 204 428 180 126 90 55 2344
shrinkage=0.05


Tree=48
num_leaves=16
num_cat=0
split_feature=164 0 186 28 51 113 31 77 123 75 75 2 75 18 157
split_gain=2120.6 1991.73 1546.66 1765.14 2226.86 1676.64 2286.61 2020.27 1544.51 1701.4 2295.24 2236.11 2100.66 1665.37 2338.99
threshold=34.500000000000007 85.000000000000014 235.00000000000003 37.500000000000007 98.000000000000014 85.000000000000014 90.000000000000014 341.00000000000006 372.50000000000006 115.00000000000001 15.000000000000002 92.500000000000014 84.000000000000014 72.500000000000014 1.0000000180025095e-35
decision_type=2 2 2 2 2 2 2 2 2 2 2 2 2 2 2
left_child=1 2 3 5 -5 6 7 8 9 10 13 -11 -12 14 -1
right_child=-2 -3 -4 4 -6 -7 -8 -9 -10 11 12 -13 -14 -15 -16
leaf_value=-0.047181516176204696 -0.47670603277890583 0.35573228731751444 0.35213977136919578 -0.67187221212820569 0.05710626691579819 0.12739644348010667 0.5106709480285645 -0.33126704112759664 0.194053069178177 0.31080666264791168 -0.70303423897079798 -0.065422498172437643 -0.10334771702066065 0.026635554939046759 -0.59209582924842841
leaf_count=1283 23 40 31 22 20 244 21 49 92 89 23 71 40 1170 20
internal_value=0 0.102252 0.0139073 -0.0553979 -6.49479 0.0317893 -0.183025 -0.259981 -0.148108 -0.285602 -0.485141 2.8771 -6.44562 -0.333297 -1.11091
internal_count=3238 3215 3175 3144 42 3102 2858 2837 2788 2696 2536 160 63 2473 1303
shrinkage=0.05


Tree=49
num_leaves=16
num_cat=0
split_feature=8 146 157 186 62 44 123 49 1 27 3 3 48 82 150
split_gain=2018.73 1894.65 1978.95 1582.5 1610.88 1539.5 1676.48 1877.46 2308.25 1641.63 2005.02 1988.67 1688.23 2723.46 1870.92
threshold=85.000000000000014 265.00000000000006 110.00000000000001 235.00000000000003 577.00000000000011 865.00000000000011 372.50000000000006 182.50000000000003 112.50000000000001 72.500000000000014 1407.5000000000002 797.50000000000011 85.000000000000014 116.00000000000001 34.000000000000007
decision_type=2 2 2 2 2 2 2 2 2 2 2 2 2 2 2
left_child=1 2 3 4 5 6 7 9 -9 10 12 -11 14 -14 -1
right_child=-2 -3 -4 -5 -6 -7 -8 8 -10 11 -12 -13 13 -15 -16
leaf_value=-0.019384219647890895 -0.39355827979743485 -0.46781675510463261 0.33789468116230437 0.35377163551747803 0.18739502902503488 -0.31866901310590601 0.21506533342045409 0.34368378052564519 -0.25116139806452253 0.10691328856085325 0.27797370903632224 -0.34535564940709335 0.020671970363367688 -0.47468272895951363 -0.23965768495408618
leaf_count=2116 32 21 45 32 111 39 86 73 21 373 51 26 55 56 101
internal_value=0 0.110999 0.17342 0.079057 0.00702227 -0.131529 -0.0492326 -0.179506 4.21586 -0.328234 -0.643052 1.54884 -0.778932 -4.58473 -0.588385
internal_count=3238 3206 3185 3140 3108 2997 2958 2872 94 2778 2379 399 2328 111 2217
shrinkage=0.05


Tree=50
num_leaves=16
num_cat=0
split_feature=157 164 130 130 85 70 70 38 3 124 60 3 0 44 44
split_gain=2186.73 2206.1 1979.31 2221.73 2138.77 1769.4 2122.46 1893.02 2749.34 3894.17 3279.56 2047.46 2007.93 1798.97 1871.08
threshold=275.00000000000006 34.500000000000007 265.00000000000006 122.50000000000001 95.000000000000014 455.00000000000006 355.00000000000006 122.50000000000001 117.50000000000001 45.000000000000007 17.500000000000004 45.000000000000007 72.500000000000014 865.00000000000011 702.50000000000011
decision_type=2 2 2 2 2 2 2 2 2 2 2 2 2 2 2
left_child=1 2 3 4 5 6 7 12 9 10 11 -9 13 14 -1
right_child=-2 -3 -4 -5 -6 -7 -8 8 -10 -11 -12 -13 -14 -15 -16
leaf_value=0.006271809601710478 0.36682182007702069 -0.49309603504674593 -0.49747648954391482 0.32250049431931299 0.21674394093032154 0.37687301060249068 -0.51647303161166958 -0.10572410319690351 0.025334031050724373 0.24240159942553594 -0.89309164573406352 -0.69794224381446845 -0.3759763470717839 -0.35087627274649485 0.491742616891861
leaf_count=2603 40 23 20 53 106 29 21 54 124 26 29 20 35 35 20
internal_value=0 -0.10346 -0.0327683 0.0300954 -0.0795936 -0.23578 -0.311757 -0.240348 -2.85563 -6.08762 -8.84808 -5.31566 0.00535114 0.104437 0.199469
internal_count=3238 3198 3175 3155 3102 2996 2967 2946 253 129 103 74 2693 2658 2623
shrinkage=0.05


Tree=51
num_leaves=16
num_cat=0
split_feature=8 160 151 130 38 45 75 2 31 148 130 61 5 96 27
split_gain=1922.43 2424.58 1741.7 1847.23 1914.71 2767.09 1746.09 1638.16 1561.29 1745.54 1516.4 1561.37 1826.06 1943.44 2404.61
threshold=85.000000000000014 1.0000000180025095e-35 333.00000000000006 265.00000000000006 152.50000000000003 67.500000000000014 15.000000000000002 215.00000000000003 110.00000000000001 290.00000000000006 105.00000000000001 95.000000000000014 355.00000000000006 152.50000000000003 203.00000000000003
decision_type=2 2 2 2 2 2 2 2 2 2 2 2 2 2 2
left_child=1 2 3 4 8 6 7 -6 9 10 11 12 13 14 -1
right_child=-2 -3 -4 -5 5 -7 -8 -9 -10 -11 -12 -13 -14 -15 -16
leaf_value=-0.021673553267843985 -0.35409024546020912 0.51516401871390971 0.13567226595837964 -0.48904805988073347 -0.10650130541374286 0.15607512739359164 -0.66218773474295933 -0.59402496474129818 -0.42568455224945434 0.35792426100799019 0.27257438693560804 -0.26630192304199396 0.10322036713511332 0.13349333275016861 -0.40858141881663629
leaf_count=1955 38 23 220 20 96 51 24 21 21 35 51 55 386 201 41
internal_value=0 0.0729915 -0.00107106 -0.20303 -0.137808 -3.19076 -5.47392 -3.88011 0.0757322 0.14195 0.0506231 -0.0537909 0.0584714 -0.29396 -0.592421
internal_count=3238 3200 3177 2957 2937 192 141 117 2745 2724 2689 2638 2583 2197 1996
shrinkage=0.05


Tree=52
num_leaves=16
num_cat=0
split_feature=157 164 149 63 77 60 123 2 45 26 31 61 3 151 2
split_gain=1988.95 2315.79 1879.6 1837.32 2048.59 2278.78 5003.06 3830.27 5307.78 2419.71 2136.17 2190.49 1792.57 1789.41 2081.38
threshold=110.00000000000001 34.500000000000007 102.50000000000001 321.00000000000006 315.50000000000006 82.500000000000014 227.50000000000003 195.00000000000003 42.500000000000007 290.00000000000006 55.000000000000007 95.000000000000014 177.50000000000003 247.50000000000003 131.00000000000003
decision_type=2 2 2 2 2 2 2 2 2 2 2 2 2 2 2
left_child=1 2 3 4 5 10 7 9 -9 13 11 -1 -6 14 -7
right_child=-2 -3 -4 -5 12 6 -8 8 -10 -11 -12 -13 -14 -15 -16
leaf_value=0.0039791145053898183 0.29487126352531567 -0.5169328309934248 0.1402036173200166 0.20138809215469458 -0.66193673662517383 -0.072286354687500318 -0.7907445585838071 -0.90300407697757079 0.10657412552315255 -0.44202512767579827 0.51666604757308965 -0.364578937139453 -0.055960733901995879 0.47690606169078659 0.33662729538404029
leaf_count=2414 56 22 216 97 23 154 27 30 23 27 20 41 26 23 39
internal_value=0 -0.114398 -0.0432166 -0.252121 -0.397941 -0.285685 -2.78381 -1.59516 -9.2977 0.084817 0.0403327 -0.0435206 -6.80797 1.20048 0.206877
internal_count=3238 3182 3160 2944 2847 2798 323 296 53 243 2475 2455 49 216 193
shrinkage=0.05


Tree=53
num_leaves=16
num_cat=0
split_feature=146 8 167 149 79 80 5 42 186 44 117 113 0 151 77
split_gain=1869.1 2241.47 1709.56 1798.85 1666.39 1883.42 1623.11 2702.61 6936.46 3425.4 2507.1 1791.97 2171.63 1941.38 2565.45
threshold=1.0000000180025095e-35 85.000000000000014 559.00000000000011 102.50000000000001 205.00000000000003 151.00000000000003 372.50000000000006 485.00000000000006 18.500000000000004 572.50000000000011 82.500000000000014 85.000000000000014 72.500000000000014 190.00000000000003 315.50000000000006
decision_type=2 2 2 2 2 2 2 2 2 2 2 2 2 2 2
left_child=1 2 3 4 5 6 7 9 -9 11 -8 12 13 14 -1
right_child=-2 -3 -4 -5 -6 -7 10 8 -10 -11 -12 -13 -14 -15 -16
leaf_value=-0.043481898378566142 0.24453618134322919 -0.39866660899586148 0.25595534796279579 0.13552711696083683 0.1086367275096321 -0.47948951270917189 -0.034479955979433388 -0.76641178772999696 0.36071459620836238 -0.37332606794128959 0.23510911166667939 0.13250339461321181 -0.47942821273097291 0.078341828639011443 -0.54436765175599322
leaf_count=1524 76 36 63 206 240 23 215 39 21 71 144 176 27 351 26
internal_value=0 -0.127693 -0.0373404 -0.143399 -0.349178 -0.580458 -0.500575 -0.817603 -7.43835 -0.634962 1.47312 -0.404429 -0.683263 -0.556781 -1.03768
internal_count=3238 3162 3126 3063 2857 2617 2594 2235 60 2175 359 2104 1928 1901 1550
shrinkage=0.05


Tree=54
num_leaves=16
num_cat=0
split_feature=82 27 31 43 2 31 51 2 48 63 48 6 81 38 63
split_gain=1829.89 10372.6 5624.31 2162.04 2885 1726.05 1672.94 2523.39 1821.25 1709.24 1866.03 1633.56 1561.57 1964.13 1788.19
threshold=96.000000000000014 192.50000000000003 17.500000000000004 55.000000000000007 215.00000000000003 1.0000000180025095e-35 661.50000000000011 92.500000000000014 52.500000000000007 147.50000000000003 115.00000000000001 555.00000000000011 7.0000000000000009 122.50000000000001 298.50000000000006
decision_type=2 2 2 2 2 2 2 2 2 2 2 2 2 2 2
left_child=1 2 3 11 -5 6 8 -8 -2 10 -10 12 13 14 -1
right_child=5 -3 -4 4 -6 -7 7 -9 9 -11 -12 -13 -14 -15 -16
leaf_value=-0.00042223479243458351 0.048799428216704015 -0.92083745436234909 -0.83482034433455699 -0.081186984847357258 -0.69563221383094787 0.45229798480868344 0.07507487597853639 -0.47317165310789905 -0.4937767202283298 0.19716397325436658 -0.030620087960431742 -0.35450477123260504 0.16103896327675826 -0.26002441163573947 0.33751845061779023
leaf_count=865 1685 33 21 81 25 24 43 41 44 26 43 30 166 70 41
internal_value=0 -0.908666 -0.463888 -0.197157 -4.52207 0.619032 0.511569 -3.85043 0.715356 -3.17108 -5.2972 0.194004 0.385355 -0.0968993 0.297418
internal_count=3238 1332 1299 1278 106 1906 1882 84 1798 113 87 1172 1142 976 906
shrinkage=0.05


Tree=55
num_leaves=16
num_cat=0
split_feature=134 85 70 66 151 85 3 3 31 39 56 77 1 8 82
split_gain=2766.36 2857.49 2033.11 2243.81 3474.8 2150.84 6364.88 2345.74 2105.76 1994.62 1928.63 1862.15 1829.23 2365.34 1800.91
threshold=35.000000000000007 62.500000000000007 85.000000000000014 185.00000000000003 88.000000000000014 27.500000000000004 177.50000000000003 942.50000000000011 90.000000000000014 155.00000000000003 132.50000000000003 315.50000000000006 145.00000000000003 47.500000000000007 86.500000000000014
decision_type=2 2 2 2 2 2 2 2 2 2 2 2 2 2 2
left_child=1 2 3 5 -5 7 -7 8 9 10 11 12 13 14 -1
right_child=-2 -3 -4 4 -6 6 -8 -9 -10 -11 -12 -13 -14 -15 -16
leaf_value=-0.072264652368811993 -0.48291719555854801 0.2535717076392936 0.156666379120042 -0.064717101225895551 -0.81889953513940184 0.10859542611317757 -0.92630242978533117 0.19622737661753811 0.48542703715237706 -0.49113554500398182 -0.2772643077277368 -0.30008585599004012 0.12363485302716966 0.36149738500284601 0.023703472904125875
leaf_count=794 28 122 211 56 21 39 24 159 22 21 62 49 315 43 1272
internal_value=0 0.324663 0.137129 -0.0826133 -5.40806 0.0638366 -5.71303 0.196808 -0.0331031 -0.116951 -0.0365487 0.10156 0.224934 -0.110791 -0.263575
internal_count=3238 3210 3088 2877 77 2800 63 2737 2578 2556 2535 2473 2424 2109 2066
shrinkage=0.05


Tree=56
num_leaves=16
num_cat=0
split_feature=134 85 18 60 44 148 82 55 38 1 60 86 1 80 52
split_gain=2496.64 2578.88 1868.67 2246.44 2234.94 3206.46 1983.43 1918.51 1904.06 3032.2 3314.31 2122.11 1814.86 1943.44 1897.01
threshold=35.000000000000007 62.500000000000007 222.50000000000003 122.50000000000001 27.500000000000004 127.50000000000001 96.000000000000014 1.0000000180025095e-35 122.50000000000001 12.500000000000002 17.500000000000004 1.0000000180025095e-35 273.00000000000006 1.0000000180025095e-35 37.500000000000007
decision_type=2 2 2 2 2 2 2 2 2 2 2 2 2 2 2
left_child=1 2 4 -4 5 8 7 12 11 10 -10 -1 13 -6 -15
right_child=-2 -3 3 -5 6 -7 -8 -9 9 -11 -12 -13 -14 14 -16
leaf_value=-0.065392594341458957 -0.4587713420391083 0.24089312036750746 0.11247191711966829 -0.3187375718727708 -0.065342172703146947 -0.53693186400665183 0.067807998190123717 0.25078226602077486 -0.22490434872261328 0.18040616403023402 -0.96660565137863164 0.15496955517340791 0.30641029139359793 -0.74010433310812174 -0.075722654660542815
leaf_count=634 28 122 538 32 500 36 982 50 61 30 20 132 30 22 21
internal_value=0 0.30843 0.130272 1.76527 -0.239843 -1.48897 0.47072 -0.924948 -1.10928 -4.98002 -8.16081 -0.548379 -1.44332 -1.86164 -8.31278
internal_count=3238 3210 3088 570 2518 913 1605 623 877 111 81 766 573 543 43
shrinkage=0.05


Tree=57
num_leaves=16
num_cat=0
split_feature=134 85 70 66 3 85 3 3 31 39 56 77 80 117 14
split_gain=2253.22 2327.44 1817.99 2023.02 2655.51 1921.68 5740.9 2096.42 1910.75 1805.8 1712.59 1662.56 1827.61 1626.58 2612.91
threshold=35.000000000000007 62.500000000000007 85.000000000000014 185.00000000000003 235.00000000000003 27.500000000000004 177.50000000000003 942.50000000000011 90.000000000000014 155.00000000000003 132.50000000000003 315.50000000000006 62.000000000000007 171.00000000000003 47.500000000000007
decision_type=2 2 2 2 2 2 2 2 2 2 2 2 2 2 2
left_child=1 2 3 5 -5 7 -7 8 9 10 11 12 13 -1 -15
right_child=-2 -3 -4 4 -6 6 -8 -9 -10 -11 -12 -13 -14 14 -16
leaf_value=-0.019298890964179249 -0.43583278145108911 0.22884846556870664 0.14785078780116487 -0.077224645151623666 -0.73652866936865313 0.10415240877713912 -0.87870933562517173 0.18523918389219721 0.46214903051202949 -0.4675724540437971 -0.26155189607412582 -0.28383943207409917 0.28055282895315864 0.1455098940125063 -0.10240707594772865
leaf_count=1820 28 122 211 56 21 39 24 159 22 21 62 49 61 398 145
internal_value=0 0.293008 0.123759 -0.0840332 -5.1407 0.0550251 -5.40542 0.180713 -0.0366365 -0.116508 -0.0400055 0.0901377 0.206713 0.0672021 1.58615
internal_count=3238 3210 3088 2877 77 2800 63 2737 2578 2556 2535 2473 2424 2363 543
shrinkage=0.05


Tree=58
num_leaves=16
num_cat=0
split_feature=134 85 18 81 9 42 5 55 56 53 43 148 148 1 117
split_gain=2033.53 2100.51 1656.38 1777.8 2946.2 2087.61 3728.28 1766.51 1835.67 1697.61 1640.06 1816.26 6441.21 1588.44 1933.06
threshold=35.000000000000007 62.500000000000007 192.50000000000003 77.500000000000014 105.00000000000001 77.500000000000014 195.00000000000003 27.500000000000004 132.50000000000003 197.50000000000003 17.500000000000004 182.50000000000003 122.50000000000001 18.500000000000004 171.00000000000003
decision_type=2 2 2 2 2 2 2 2 2 2 2 2 2 2 2
left_child=1 2 3 7 5 6 -5 8 10 -10 11 12 -1 14 -6
right_child=-2 -3 -4 4 13 -7 -8 -9 9 -11 -12 -13 -14 -15 -16
leaf_value=-0.027024342473004059 -0.41404113386358532 0.2174060410407723 0.07198969876329446 -0.95818538388301588 -0.26755081620067361 0.016896694898605347 -0.095009584589438006 0.11684904735085073 -0.093798348903656015 -0.67125730246305471 0.10846304240822793 0.27055679304259167 -0.93013083979487421 0.32368817265544619 0.30510031193494802
leaf_count=1541 28 122 725 29 56 20 22 273 35 20 250 49 20 28 20
internal_value=0 0.278358 0.117571 -0.288105 -3.35511 -8.32103 -11.7167 -0.0428006 -0.382059 -6.07567 -0.2137 -0.583725 -0.771904 0.0350826 -2.33706
internal_count=3238 3210 3088 2363 175 71 51 2188 1915 55 1860 1610 1561 104 76
shrinkage=0.05


Tree=59
num_leaves=16
num_cat=0
split_feature=70 134 66 151 3 32 26 148 56 151 82 117 60 3 128
split_gain=1917.44 2641.45 1904.71 3105.1 1681.26 1879.23 2025.7 3434.7 2997.68 2457.99 2387.67 2127.77 3390.66 1784.19 1755.65
threshold=60.000000000000007 35.000000000000007 185.00000000000003 88.000000000000014 545.00000000000011 55.000000000000007 1.0000000180025095e-35 135.00000000000003 85.000000000000014 190.00000000000003 157.00000000000003 65.500000000000014 7.5000000000000009 345.00000000000006 5.5000000000000009
decision_type=2 2 2 2 2 2 2 2 2 2 2 2 2 2 2
left_child=1 2 4 -4 5 6 9 8 10 14 11 12 -8 -12 -1
right_child=-2 -3 3 -5 -6 -7 7 -9 -10 -11 13 -13 -14 -15 -16
leaf_value=-0.013456181138478421 0.14756518547447064 -0.52348085741202044 -0.047833020825471195 -0.76076735655466721 0.094228557168157562 -0.44767488216360407 -0.11997570790468702 -0.69211435758549245 -0.59741899156570433 0.15986156118445127 0.17279631323767025 -0.019713391854452925 -0.77331203859427888 -0.25539684218579323 0.25364391962066296
leaf_count=1589 234 24 56 21 489 24 63 23 25 269 151 148 29 29 64
internal_value=0 -0.0206465 0.0635063 -4.84539 0.193711 -0.148803 -0.060388 -1.92609 -1.3102 0.393903 -0.67697 -2.74184 -6.51837 2.07619 -0.0622947
internal_count=3238 3004 2980 77 2903 2414 2390 468 445 1922 420 240 92 180 1653
shrinkage=0.05


Tree=60
num_leaves=16
num_cat=0
split_feature=52 3 141 31 44 14 60 60 10 44 82 51 149 51 96
split_gain=3272.15 2530.93 2893.91 3852.56 2504.47 2373.54 3070.25 14435.9 2301.09 3067.83 2788.79 1962.94 1829.02 1762.16 1722.73
threshold=22.500000000000004 512.50000000000011 165.00000000000003 22.500000000000004 582.50000000000011 115.00000000000001 112.50000000000001 145.00000000000003 77.500000000000014 157.50000000000003 12.500000000000002 642.50000000000011 255.00000000000003 145.00000000000003 72.500000000000014
decision_type=2 2 2 2 2 2 2 2 2 2 2 2 2 2 2
left_child=1 2 3 5 -3 6 12 -8 9 10 -7 -2 14 -12 -1
right_child=11 4 -4 -5 -6 8 7 -9 -10 -11 13 -13 -14 -15 -16
leaf_value=-0.068492371722255238 0.087261801508558043 0.10470239919591316 0.18531268453987484 -0.75216202622368222 -0.38477229923009876 0.039367793665991892 -1.5198823043704035 0.021982580234134009 -0.76132972627878193 0.13138036974705755 -0.83738608519236257 -0.28444993560378617 0.34924321725964547 -0.25567704905634342 0.077151675341065887
leaf_count=1261 886 392 110 21 28 27 20 63 20 48 30 37 30 23 242
internal_value=0 -0.779563 -1.27181 -1.57858 1.44142 -1.41829 -1.06725 -6.99102 -5.25129 -3.69265 -7.48481 1.44722 -0.746522 -11.6989 -0.900841
internal_count=3238 2315 1895 1785 420 1764 1616 83 148 128 80 923 1533 53 1503
shrinkage=0.05


Tree=61
num_leaves=16
num_cat=0
split_feature=52 3 31 44 141 14 60 60 26 108 51 151 18 44 149
split_gain=2953.11 2284.16 2638.37 2260.28 2162.27 2139.39 2767.44 13028.4 2144.97 2517.68 1771.55 1696.53 2640.38 2177.33 1688.11
threshold=22.500000000000004 512.50000000000011 55.000000000000007 582.50000000000011 165.00000000000003 115.00000000000001 112.50000000000001 145.00000000000003 245.00000000000003 276.50000000000006 642.50000000000011 247.50000000000003 132.50000000000003 56.000000000000007 165.00000000000003
decision_type=2 2 2 2 2 2 2 2 2 2 2 2 2 2 2
left_child=1 2 4 -3 5 6 14 -8 9 11 -2 12 13 -7 -1
right_child=10 3 -4 -5 -6 8 7 -9 -10 -11 -12 -13 -14 -15 -16
leaf_value=-0.046936520003669324 0.082898713314893152 0.099467279280687937 -0.63165124416351315 -0.36553368089454519 0.16503079532874082 -0.14242015273674677 -1.4438881522417069 0.020883460342884064 0.17277713954448701 -0.84861128509044659 -0.27022743611722383 0.17781563982367518 0.094362442120909704 -0.76867132118770065 0.20788458719959155
leaf_count=1470 886 392 20 28 106 23 20 63 25 20 37 20 25 35 68
internal_value=0 -0.740585 -1.20822 1.36934 -1.08636 -1.34923 -1.01694 -6.64147 -4.98873 -6.70504 1.37486 -4.71141 -6.70364 -10.4066 -0.713401
internal_count=3238 2315 1895 420 1875 1769 1621 83 148 123 923 103 83 58 1538
shrinkage=0.05


Tree=62
num_leaves=16
num_cat=0
split_feature=52 159 8 96 96 5 42 9 45 44 186 53 18 5 27
split_gain=2665.18 2234.45 2189.86 2603.43 5059.03 1968.1 2912.14 6620.02 3214.27 3021.41 3592.35 8622.24 2904.79 2234.52 1931.29
threshold=22.500000000000004 125.00000000000001 47.500000000000007 77.500000000000014 52.500000000000007 312.50000000000006 485.00000000000006 845.00000000000011 147.50000000000003 501.50000000000006 99.500000000000014 97.500000000000014 252.50000000000003 204.50000000000003 75.500000000000014
decision_type=2 2 2 2 2 2 2 2 2 2 2 2 2 2 2
left_child=1 2 3 4 5 6 9 8 -8 10 12 -12 13 14 -1
right_child=-2 -3 -4 -5 -6 -7 7 -9 -10 -11 11 -13 -14 -15 -16
leaf_value=-0.063815174225171564 0.065305906673768774 0.34008367963326286 -0.42312860746641417 0.087265113005337638 -0.79600891704144683 0.061032588059212849 -1.2379205292463302 0.30657725078719006 -0.34150148637592798 -0.3437298068946058 -0.046565524122931745 -1.2375219901569101 0.17895164356060045 -0.43200874605650291 0.12603516886249566
leaf_count=948 923 39 37 363 23 329 20 21 20 88 55 21 158 37 156
internal_value=0 -0.703556 -0.832161 -0.706066 -1.1804 -0.997444 -1.47628 -8.24601 -15.7942 -1.19402 -0.830463 -7.51291 -0.439496 -0.995962 -0.73977
internal_count=3238 2315 2276 2239 1876 1853 1524 61 40 1463 1375 76 1299 1141 1104
shrinkage=0.05


Tree=63
num_leaves=16
num_cat=0
split_feature=52 3 3 43 3 86 18 25 60 63 44 3 96 149 48
split_gain=2405.33 2040.53 2433.16 4441.84 9528.73 5636.02 8566.34 3040.31 5784.9 2810.2 2008.94 1993.94 1939.29 1935.16 2384.93
threshold=22.500000000000004 512.50000000000011 62.500000000000007 95.000000000000014 177.50000000000003 77.500000000000014 47.500000000000007 95.000000000000014 108.00000000000001 25.000000000000004 582.50000000000011 345.00000000000006 112.50000000000001 95.000000000000014 27.500000000000004
decision_type=2 2 2 2 2 2 2 2 2 2 2 2 2 2 2
left_child=1 2 7 5 -5 9 -7 8 12 -4 -3 -11 13 14 -1
right_child=-2 10 3 4 -6 6 -8 -9 -10 11 -12 -13 -14 -15 -16
leaf_value=-0.062045928162686739 0.062040611672016389 0.095518344533344623 0.0052292744131912866 -1.3523171021857046 -0.14362574073057327 -1.0104483078687618 -0.021792224049568178 0.14642502562030049 -0.6802249383926392 -0.14295133484867953 -0.34286736206101653 -0.61781124020444933 0.21356094581767537 0.20388793259859087 -0.58347752819890564
leaf_count=471 923 392 665 22 63 39 50 262 35 93 28 29 78 65 23
internal_value=0 -0.668378 -1.11037 -2.22747 -9.12927 -1.55778 -9.10047 0.0390222 -1.08753 -0.704791 1.32585 -5.11656 -0.399785 -1.05155 -1.72646
internal_count=3238 2315 1895 961 85 876 89 934 672 787 420 122 637 559 494
shrinkage=0.05


Tree=64
num_leaves=16
num_cat=0
split_feature=159 52 8 96 81 68 3 183 79 1 117 60 82 96 124
split_gain=2336.12 2235.03 1916.35 2196.85 2303.14 2065.8 1911.83 2420.04 5086.2 2354.72 4154.01 4862.61 5580.15 3840.51 2822.1
threshold=125.00000000000001 27.500000000000004 47.500000000000007 72.500000000000014 255.00000000000003 1.0000000180025095e-35 532.50000000000011 16.500000000000004 205.00000000000003 6.5000000000000009 97.000000000000014 82.500000000000014 96.000000000000014 12.500000000000002 155.00000000000003
decision_type=2 2 2 2 2 2 2 2 2 2 2 2 2 2 2
left_child=1 2 3 4 6 -5 7 9 -9 10 11 13 -13 14 -1
right_child=-2 -3 -4 5 -6 -7 -8 8 -10 -11 -12 12 -14 -15 -16
leaf_value=-0.14618447084373251 0.32021566926743145 0.055100199125271365 -0.39471245391948806 0.11135423882700224 -0.58766401991248129 -0.35077193402327023 0.062513813129423765 -0.72157335594296468 0.17672827505291655 0.045054853150151918 0.0068960608478399023 -1.2847185589018322 -0.16866821988175315 -0.77887103091115539 0.38912997337488031
leaf_count=464 54 904 37 346 20 26 322 40 26 401 504 21 24 23 26
internal_value=0 -0.228567 -0.756127 -0.638378 -1.07966 1.5811 -0.964336 -1.43072 -7.35394 -1.16351 -1.94308 -3.8227 -13.7898 -2.94839 -2.3556
internal_count=3238 3184 2280 2243 1871 372 1851 1529 66 1463 1062 558 45 513 490
shrinkage=0.05


Tree=65
num_leaves=16
num_cat=0
split_feature=127 125 85 85 3 157 61 167 27 8 9 42 9 82 141
split_gain=2151.4 2458.78 1653.19 1793.33 5794.46 1799.68 1484.99 1434.54 1419.69 1360.37 1446.72 1718.54 2735.33 3641.24 1882.15
threshold=85.000000000000014 55.000000000000007 62.500000000000007 27.500000000000004 177.50000000000003 110.00000000000001 17.500000000000004 524.00000000000011 15.000000000000002 47.500000000000007 1105.0000000000002 385.00000000000006 85.000000000000014 72.500000000000014 430.00000000000006
decision_type=2 2 2 2 2 2 2 2 2 2 2 2 2 2 2
left_child=1 2 3 5 -5 7 8 9 -2 10 11 14 -13 -14 -1
right_child=6 -3 -4 4 -6 -7 -8 -9 -10 -11 -12 12 13 -15 -16
leaf_value=-0.021154049968820494 0.088144865206728776 -0.51843136859976724 0.18986512880398987 0.19844714059974211 -0.74583415277302267 0.31287799004051425 -0.24679218871252881 0.26223872066760551 0.35215705245733264 0.24009433418934079 0.11220983976187807 -0.041856333806348983 0.021325248750773344 -0.81428779183770539 0.32069409504169372
leaf_count=2246 127 23 111 33 32 45 21 49 85 53 204 114 22 32 41
internal_value=0 -0.0688521 0.0105895 -0.135814 -5.3286 -0.0155253 3.08542 -0.117767 3.87998 -0.214656 -0.314648 -0.527277 -3.61425 -9.47706 -0.300512
internal_count=3238 3005 2982 2871 65 2806 233 2761 212 2712 2659 2455 168 54 2287
shrinkage=0.05


Tree=66
num_leaves=16
num_cat=0
split_feature=154 127 125 157 51 96 27 150 52 18 149 3 52 47 3
split_gain=1992.72 2027.21 2245.43 1645.3 1617.05 1943.39 3200.43 1946.59 1714.7 1569.18 1670.1 1496.75 1481.03 1731.63 1713.44
threshold=22.500000000000004 85.000000000000014 55.000000000000007 110.00000000000001 91.500000000000014 177.50000000000003 222.50000000000003 52.500000000000007 235.00000000000003 365.00000000000006 165.00000000000003 1195.0000000000002 17.500000000000004 6.0000000000000009 865.00000000000011
decision_type=2 2 2 2 2 2 2 2 2 2 2 2 2 2 2
left_child=1 2 3 4 5 6 7 8 11 10 -6 12 13 14 -1
right_child=-2 -3 -4 -5 9 -7 -8 -9 -10 -11 -12 -13 -14 -15 -16
leaf_value=-0.082160706297106478 -0.49003503233194351 0.153977459084571 -0.49250978820997737 0.2969127270769566 0.0033550480206542589 0.22316158988903606 -0.64823365418807333 -0.47894563715045274 -0.36145059671252966 0.19248591727792608 0.23473611476762996 -0.40911763477325441 0.1054628678258413 0.32259898051619529 0.29227076625684278
leaf_count=676 20 229 23 47 1594 62 23 26 40 134 82 25 195 30 32
internal_value=0 0.212062 -0.00762835 0.0686963 -0.0258118 -0.976675 -1.29881 -1.03678 -0.814243 0.556789 0.293512 -0.546403 -0.341795 -0.989431 -1.30474
internal_count=3238 3218 2989 2966 2919 1109 1047 1024 998 1810 1676 958 933 738 708
shrinkage=0.05


Tree=67
num_leaves=16
num_cat=0
split_feature=154 127 85 146 2 2 25 82 10 51 144 89 14 53 9
split_gain=1798.43 1829.56 1590.02 1718.31 1630.05 3161.29 4241.93 3066.7 2939.45 2173 2165 2597.27 2045.55 1878.2 1869.36
threshold=22.500000000000004 85.000000000000014 55.000000000000007 1.0000000180025095e-35 131.00000000000003 92.500000000000014 27.500000000000004 137.50000000000003 135.00000000000003 442.50000000000006 65.000000000000014 185.00000000000003 17.500000000000004 27.500000000000004 285.00000000000006
decision_type=2 2 2 2 2 2 2 2 2 2 2 2 2 2 2
left_child=1 2 3 4 5 10 9 12 -6 13 11 -1 14 -7 -8
right_child=-2 -3 -4 -5 8 6 7 -9 -10 -11 -12 -13 -14 -15 -16
leaf_value=-0.01435837378569099 -0.46553324979729949 0.14627858420110038 0.17795063787295173 0.2443505824741089 0.0090929581977477018 -0.17391923607765944 0.24021630781888961 -0.80879112973406508 0.29623161080961274 -0.55027512863278394 0.32252455556646309 -0.58813363626599313 -0.62294012457132342 0.14091482082238566 -0.39173636219718239
leaf_count=1424 20 229 120 66 894 87 25 37 99 20 47 20 24 104 22
internal_value=0 0.201459 -0.00724694 -0.156411 -0.275164 -0.840003 -3.69718 -8.79419 0.754401 -1.08828 -0.22871 -0.446108 -4.94742 -0.0498254 -1.11183
internal_count=3238 3218 2989 2869 2803 1810 319 108 993 211 1491 1444 71 191 47
shrinkage=0.05


Tree=68
num_leaves=16
num_cat=0
split_feature=62 128 127 125 9 3 8 1 25 25 42 18 55 18 3
split_gain=1747.94 2286.29 1899.5 2104.65 1719.75 1661.37 2247.17 2249.8 2371.56 2682.14 2173.91 2916.82 2305.16 2440.92 2176.72
threshold=545.00000000000011 12.000000000000002 85.000000000000014 55.000000000000007 835.00000000000011 452.50000000000006 85.000000000000014 322.50000000000006 151.50000000000003 390.00000000000006 477.50000000000006 76.500000000000014 82.000000000000014 245.00000000000003 291.50000000000006
decision_type=2 2 2 2 2 2 2 2 2 2 2 2 2 2 2
left_child=1 2 3 4 5 6 7 8 10 -10 12 -12 13 14 -1
right_child=-2 -3 -4 -5 -6 -7 -8 -9 9 -11 11 -13 -14 -15 -16
leaf_value=-0.048594287141900644 0.18427890407523717 0.25491557587595548 0.13853705862663615 -0.50588093887675889 0.079943632955809002 0.047976671078875807 0.36222298834472899 0.16777915598861143 -0.31513518082113245 0.089804577992631585 0.042386235793431599 -0.70278872868110398 0.19355176069557367 0.14951084728424366 -0.22831921230743429
leaf_count=1015 133 85 206 22 408 519 32 102 179 53 24 29 99 130 202
internal_value=0 -0.016491 -0.160451 -0.37503 -0.298261 -0.622939 -1.06332 -1.20835 -1.47728 -4.45255 -1.0168 -7.30702 -0.786247 -1.12854 -1.56851
internal_count=3238 3105 3020 2814 2792 2384 1865 1833 1731 232 1499 53 1446 1347 1217
shrinkage=0.05


Tree=69
num_leaves=16
num_cat=0
split_feature=154 131 164 8 128 85 9 42 9 120 167 25 108 3 25
split_gain=1628.66 1517.83 1718.39 1563.9 1508.58 1473.62 1399.07 2160.98 7396.15 1664.42 1493.94 1662.98 2999.42 2383.29 3517.53
threshold=22.500000000000004 1.0000000180025095e-35 45.000000000000007 85.000000000000014 85.000000000000014 55.000000000000007 835.00000000000011 477.50000000000006 85.000000000000014 155.00000000000003 524.00000000000011 151.50000000000003 387.50000000000006 345.00000000000006 390.00000000000006
decision_type=2 2 2 2 2 2 2 2 2 2 2 2 2 2 2
left_child=1 2 3 4 5 6 7 9 -9 10 11 -1 13 14 -13
right_child=-2 -3 -4 -5 -6 -7 -8 8 -10 -11 -12 12 -14 -15 -16
leaf_value=0.0051078367315064424 -0.44336564360186465 -0.38690627012401824 0.46301679769087412 0.31989119444042446 0.35812363207340242 0.16796578213397881 0.076677186818347731 -0.028559092093597763 -1.1077504497393966 -0.44335065619512043 0.28220617750828919 -0.30799418944570661 -0.60127173045585902 0.11294006773855834 0.17406070295434733
leaf_count=2036 20 24 21 40 30 128 443 77 20 22 44 139 29 113 52
internal_value=0 0.184703 0.244236 0.184564 0.105238 0.0370079 -0.105935 -0.392779 -5.02146 -0.208392 -0.129449 -0.236683 -2.30839 -1.38143 -3.53508
internal_count=3238 3218 3194 3173 3133 3103 2975 2532 97 2435 2413 2369 333 304 191
shrinkage=0.05


Tree=70
num_leaves=16
num_cat=0
split_feature=18 148 148 82 60 9 45 96 51 9 3 46 89 14 150
split_gain=2283.78 2005.92 2768.54 2144.73 6248.6 10631.2 3323.77 1955.68 2311.69 1997.66 1927.69 1922.59 1909.79 1905.85 1734.17
threshold=235.00000000000003 155.00000000000003 135.00000000000003 51.500000000000007 98.000000000000014 227.50000000000003 201.50000000000003 45.000000000000007 642.50000000000011 1665.0000000000002 45.000000000000007 16.500000000000004 145.00000000000003 265.00000000000006 52.500000000000007
decision_type=2 2 2 2 2 2 2 2 2 2 2 2 2 2 2
left_child=1 2 3 4 6 -6 13 9 10 12 -9 -12 14 -1 -5
right_child=-2 -3 -4 7 5 -7 -8 8 -10 -11 11 -13 -14 -15 -16
leaf_value=0.0092254444136707046 0.08807651227247458 0.19549347898539376 -0.55420320844650273 -0.017039313310638387 -1.2747369651136728 0.037463846396316183 -0.32329929911208399 0.22142043784941171 -0.42278672399975009 -0.52326063632965092 -0.035607459392658497 0.38558495462902131 0.36172742093913257 -0.42042382878285872 -0.31210439070486107
leaf_count=586 573 102 25 1175 29 33 98 219 21 20 215 31 32 27 52
internal_value=0 -0.439062 -0.612136 -0.508985 -1.89805 -11.5262 -1.05847 0.0993714 1.807 -0.5495 2.27048 0.349393 -0.391983 -0.193975 -0.590882
internal_count=3238 2665 2563 2538 773 62 711 1765 486 1279 465 246 1259 613 1227
shrinkage=0.05


Tree=71
num_leaves=16
num_cat=0
split_feature=32 18 9 44 120 26 27 123 26 150 61 77 44 42 14
split_gain=2402.09 1790.98 1809.1 3224.62 2918.37 2539.79 6114.09 9379.5 5375.34 2352.24 2006.49 2005.78 1951.64 1953.06 2452.02
threshold=45.000000000000007 235.00000000000003 315.00000000000006 594.00000000000011 85.000000000000014 1.0000000180025095e-35 57.500000000000007 92.500000000000014 105.00000000000001 72.500000000000014 27.500000000000004 22.500000000000004 362.50000000000006 62.500000000000007 207.50000000000003
decision_type=2 2 2 2 2 2 2 2 2 2 2 2 2 2 2
left_child=1 2 4 11 5 9 8 -8 -7 10 12 -4 13 -1 -15
right_child=-2 -3 3 -5 -6 6 7 -9 -10 -11 -12 -13 -14 14 -16
